{"learner":{"attributes":{"best_iteration":"299","best_ntree_limit":"300","scikit_learn":"{\"n_estimators\": 300, \"objective\": \"rank:pairwise\", \"max_depth\": 5, \"learning_rate\": 0.11, \"verbosity\": null, \"booster\": \"gbtree\", \"tree_method\": \"auto\", \"gamma\": 2, \"min_child_weight\": null, \"max_delta_step\": null, \"subsample\": 0.8, \"colsample_bytree\": 0.9, \"colsample_bylevel\": null, \"colsample_bynode\": null, \"reg_alpha\": null, \"reg_lambda\": null, \"scale_pos_weight\": null, \"base_score\": null, \"missing\": NaN, \"num_parallel_tree\": null, \"random_state\": 42, \"n_jobs\": null, \"monotone_constraints\": null, \"interaction_constraints\": null, \"importance_type\": null, \"gpu_id\": null, \"validate_parameters\": null, \"predictor\": null, \"enable_categorical\": false, \"kwargs\": {\"eta\": 0.032}, \"_estimator_type\": \"ranker\"}"},"feature_names":["srch_id","site_id","visitor_location_country_id","prop_country_id","prop_id","prop_starrating","prop_review_score","prop_brand_bool","prop_location_score1","prop_location_score2","prop_log_historical_price","promotion_flag","srch_destination_id","srch_length_of_stay","srch_booking_window","srch_adults_count","srch_children_count","srch_room_count","srch_saturday_night_bool","srch_query_affinity_score","orig_destination_distance","random_bool","prop_count","promotion_flag_mean","prop_location_score2_mean","srch_query_affinity_score_mean","srch_room_count_mean","srch_children_count_mean","srch_adults_count_mean","srch_length_of_stay_mean","price_usd_rank","prop_starrating_rank","prop_location_score1_rank","prop_review_score_rank","Competitor_Available_count","Competitor_Cheaper_count","price_hist_diff","star_hist_diff","log_price_usd","month","day","hour"],"feature_types":["int","int","int","int","int","int","float","int","float","float","float","int","int","int","int","int","int","int","int","float","float","int","int","float","float","float","float","float","float","float","int","int","int","int","int","int","float","float","float","int","int","int"],"gradient_booster":{"model":{"gbtree_model_param":{"num_trees":"300","size_leaf_vector":"0"},"tree_info":[0,0,0,0,0,0,0,0,0,0,0,0,0,0,0,0,0,0,0,0,0,0,0,0,0,0,0,0,0,0,0,0,0,0,0,0,0,0,0,0,0,0,0,0,0,0,0,0,0,0,0,0,0,0,0,0,0,0,0,0,0,0,0,0,0,0,0,0,0,0,0,0,0,0,0,0,0,0,0,0,0,0,0,0,0,0,0,0,0,0,0,0,0,0,0,0,0,0,0,0,0,0,0,0,0,0,0,0,0,0,0,0,0,0,0,0,0,0,0,0,0,0,0,0,0,0,0,0,0,0,0,0,0,0,0,0,0,0,0,0,0,0,0,0,0,0,0,0,0,0,0,0,0,0,0,0,0,0,0,0,0,0,0,0,0,0,0,0,0,0,0,0,0,0,0,0,0,0,0,0,0,0,0,0,0,0,0,0,0,0,0,0,0,0,0,0,0,0,0,0,0,0,0,0,0,0,0,0,0,0,0,0,0,0,0,0,0,0,0,0,0,0,0,0,0,0,0,0,0,0,0,0,0,0,0,0,0,0,0,0,0,0,0,0,0,0,0,0,0,0,0,0,0,0,0,0,0,0,0,0,0,0,0,0,0,0,0,0,0,0,0,0,0,0,0,0,0,0,0,0,0,0,0,0,0,0,0,0,0,0,0,0,0,0,0,0,0,0,0,0],"trees":[{"base_weights":[-5.283247E-4,-2.6724827E-1,1.4454986E-1,-3.9765045E-1,-1.5229873E-1,4.8858137E-3,2.8016654E-1,-3.3475712E-1,-6.565517E-1,3.5367694E-2,-3.1154382E-1,6.535505E-2,-3.8314375E-1,4.553248E-1,9.738553E-2,-3.907592E-1,-2.3067103E-1,-7.0905936E-1,-5.5309355E-1,-1.9425986E-2,2.1141092E-1,-4.2893988E-1,-2.0207913E-1,1.9187306E-1,-1.0062405E-1,-1.16403535E-1,-4.3429363E-1,3.3627406E-1,5.1748955E-1,-1.21244505E-1,1.5005435E-1,-3.3165732E-1,-5.132638E-1,-2.9794854E-1,-1.24266446E-1,-7.5361323E-1,-6.329588E-1,-6.0112506E-1,-4.5658836E-1,-5.378683E-2,1.880597E-1,2.7996284E-1,1.1404087E-1,-4.5486605E-1,-2.3506744E-1,-2.3886833E-1,9.137056E-2,3.9545927E-2,2.632091E-1,7.96707E-2,-1.9561043E-1,-2.7553445E-1,2.15169E-1,-3.2299194E-1,-4.6970004E-1,2.4609353E-1,4.5412675E-1,5.8323246E-1,4.1992065E-1,-1.8238235E-1,1.4116749E-2,3.8779445E-2,2.3671153E-1],"categories":[],"categories_nodes":[],"categories_segments":[],"categories_sizes":[],"default_left":[true,true,true,true,true,true,true,true,true,true,true,true,true,true,true,true,true,true,true,true,true,true,true,true,true,true,true,true,true,true,true,false,false,false,false,false,false,false,false,false,false,false,false,false,false,false,false,false,false,false,false,false,false,false,false,false,false,false,false,false,false,false,false],"id":0,"left_children":[1,3,5,7,9,11,13,15,17,19,21,23,25,27,29,31,33,35,37,39,41,43,45,47,49,51,53,55,57,59,61,-1,-1,-1,-1,-1,-1,-1,-1,-1,-1,-1,-1,-1,-1,-1,-1,-1,-1,-1,-1,-1,-1,-1,-1,-1,-1,-1,-1,-1,-1,-1,-1],"loss_changes":[1.043694E4,1.4243179E3,3.3089045E3,7.2468994E2,1.5093804E3,2.0194529E3,2.8375942E3,2.087063E2,4.686914E1,2.2364792E2,3.51021E2,1.5636831E3,1.5827136E2,3.3478516E2,4.9946927E2,1.6844067E2,8.968219E1,1.9078125E1,1.3323181E1,1.2607543E2,3.6703415E1,6.6153076E1,1.5267957E2,4.5914453E2,5.516123E2,9.864778E1,3.8217896E1,1.6493066E2,1.9046973E2,6.969221E1,3.3704425E2,0E0,0E0,0E0,0E0,0E0,0E0,0E0,0E0,0E0,0E0,0E0,0E0,0E0,0E0,0E0,0E0,0E0,0E0,0E0,0E0,0E0,0E0,0E0,0E0,0E0,0E0,0E0,0E0,0E0,0E0,0E0,0E0],"parents":[2147483647,0,0,1,1,2,2,3,3,4,4,5,5,6,6,7,7,8,8,9,9,10,10,11,11,12,12,13,13,14,14,15,15,16,16,17,17,18,18,19,19,20,20,21,21,22,22,23,23,24,24,25,25,26,26,27,27,28,28,29,29,30,30],"right_children":[2,4,6,8,10,12,14,16,18,20,22,24,26,28,30,32,34,36,38,40,42,44,46,48,50,52,54,56,58,60,62,-1,-1,-1,-1,-1,-1,-1,-1,-1,-1,-1,-1,-1,-1,-1,-1,-1,-1,-1,-1,-1,-1,-1,-1,-1,-1,-1,-1,-1,-1,-1,-1],"split_conditions":[2.265E-2,1.5E0,1.5E0,1.5E0,1.5E0,1.5E0,1.5E0,5E-1,5E-1,5E-1,2.5E0,5.128507E0,1.87E0,9.335E-2,3.25E0,5.1617813E0,2.15E-3,2.15E-3,2.15E-3,2.05E1,1.5E0,5E-1,2.65E1,8.385E-2,3.16E0,1.595E-1,2.74E0,1.45E1,1.5E0,2.0414999E-1,1.1605E-1,-3.6482304E-2,-5.645902E-2,-3.277434E-2,-1.3669309E-2,-8.2897455E-2,-6.9625475E-2,-6.6123754E-2,-5.0224718E-2,-5.916551E-3,2.0686567E-2,3.0795911E-2,1.2544495E-2,-5.0035264E-2,-2.5857419E-2,-2.6275516E-2,1.00507615E-2,4.3500517E-3,2.8953E-2,8.763777E-3,-2.1517148E-2,-3.0308789E-2,2.366859E-2,-3.5529114E-2,-5.1667005E-2,2.7070288E-2,4.995394E-2,6.415557E-2,4.619127E-2,-2.0062057E-2,1.5528424E-3,4.265739E-3,2.6038269E-2],"split_indices":[9,30,30,31,31,31,31,21,21,11,5,38,8,9,6,38,9,9,9,22,33,11,22,9,8,9,8,22,33,9,9,0,0,0,0,0,0,0,0,0,0,0,0,0,0,0,0,0,0,0,0,0,0,0,0,0,0,0,0,0,0,0,0],"split_type":[0,0,0,0,0,0,0,0,0,0,0,0,0,0,0,0,0,0,0,0,0,0,0,0,0,0,0,0,0,0,0,0,0,0,0,0,0,0,0,0,0,0,0,0,0,0,0,0,0,0,0,0,0,0,0,0,0,0,0,0,0,0,0],"sum_hessian":[2.697195E5,9.5023E4,1.746965E5,4.4518E4,5.0505E4,8.60645E4,8.8632E4,3.5819E4,8.699E3,2.3184E4,2.7321E4,7.44615E4,1.1603E4,4.5259E4,4.3373E4,2.3287E4,1.2532E4,5.7665E3,2.9325E3,1.76815E4,5.5025E3,1.31815E4,1.41395E4,4.22535E4,3.2208E4,1.8675E3,9.7355E3,1.5528E4,2.9731E4,8.42E3,3.4953E4,1.5711E4,7.576E3,7.6765E3,4.8555E3,3.6315E3,2.135E3,1.9545E3,9.78E2,1.517E4,2.5115E3,3.228E3,2.2745E3,1.16255E4,1.556E3,1.25645E4,1.575E3,1.3477E4,2.87765E4,1.11135E4,2.10945E4,1.262E3,6.055E2,2.352E3,7.3835E3,8.7985E3,6.7295E3,1.77595E4,1.19715E4,5.8E3,2.62E3,1.53035E4,1.96495E4],"tree_param":{"num_deleted":"0","num_feature":"42","num_nodes":"63","size_leaf_vector":"0"}},{"base_weights":[-9.8384065E-5,-2.3910807E-1,1.544972E-1,-3.531999E-1,-1.3800918E-1,2.8246986E-2,2.7718365E-1,-2.9464918E-1,-6.014294E-1,3.5170462E-2,-2.866323E-1,8.281288E-2,-3.2654145E-1,4.409625E-1,1.0519589E-1,-3.5350984E-1,-1.6534053E-1,-6.475799E-1,-5.0852126E-1,-3.5429925E-2,1.6886711E-1,-3.9919606E-1,-1.8401042E-1,2.1335408E-1,-7.086313E-2,-2.9359013E-1,-5.118035E-1,3.4444222E-1,4.9433142E-1,-9.6029624E-2,1.5212937E-1,-3.13458E-1,-4.8059744E-1,-2.1563657E-1,-5.58004E-2,-6.9886893E-1,-5.6949395E-1,-5.586112E-1,-3.96301E-1,-8.29303E-2,1.3740826E-1,2.4540308E-1,5.15216E-2,-4.436386E-1,-2.7353984E-1,-2.382302E-1,-2.017344E-2,2.5520518E-1,3.1917978E-2,2.2304774E-4,-2.553416E-1,-3.792886E-1,-2.4808013E-1,-5.375239E-1,-1.6589382E-1,2.6226032E-1,4.1800722E-1,5.5205506E-1,4.0733975E-1,-1.5212652E-1,6.0833335E-2,4.8277866E-2,2.2154553E-1],"categories":[],"categories_nodes":[],"categories_segments":[],"categories_sizes":[],"default_left":[true,true,true,true,true,true,true,true,true,true,true,true,true,true,true,true,true,true,true,true,true,true,true,true,true,true,true,true,true,true,true,false,false,false,false,false,false,false,false,false,false,false,false,false,false,false,false,false,false,false,false,false,false,false,false,false,false,false,false,false,false,false,false],"id":1,"left_children":[1,3,5,7,9,11,13,15,17,19,21,23,25,27,29,31,33,35,37,39,41,43,45,47,49,51,53,55,57,59,61,-1,-1,-1,-1,-1,-1,-1,-1,-1,-1,-1,-1,-1,-1,-1,-1,-1,-1,-1,-1,-1,-1,-1,-1,-1,-1,-1,-1,-1,-1,-1,-1],"loss_changes":[9.966543E3,1.2219458E3,2.5369626E3,7.2321094E2,1.4457662E3,1.5627827E3,2.3397852E3,3.0648022E2,4.0396973E1,2.4488467E2,3.491145E2,1.4035688E3,6.553833E1,2.1900586E2,3.82689E2,1.4072095E2,6.940732E1,2.500293E1,1.7524109E1,1.39404E2,8.05083E1,8.038037E1,1.4047913E2,2.8724487E2,4.2141846E2,3.5545044E1,1.4355316E1,9.150098E1,1.3734668E2,6.744812E1,2.3685107E2,0E0,0E0,0E0,0E0,0E0,0E0,0E0,0E0,0E0,0E0,0E0,0E0,0E0,0E0,0E0,0E0,0E0,0E0,0E0,0E0,0E0,0E0,0E0,0E0,0E0,0E0,0E0,0E0,0E0,0E0,0E0,0E0],"parents":[2147483647,0,0,1,1,2,2,3,3,4,4,5,5,6,6,7,7,8,8,9,9,10,10,11,11,12,12,13,13,14,14,15,15,16,16,17,17,18,18,19,19,20,20,21,21,22,22,23,23,24,24,25,25,26,26,27,27,28,28,29,29,30,30],"right_children":[2,4,6,8,10,12,14,16,18,20,22,24,26,28,30,32,34,36,38,40,42,44,46,48,50,52,54,56,58,60,62,-1,-1,-1,-1,-1,-1,-1,-1,-1,-1,-1,-1,-1,-1,-1,-1,-1,-1,-1,-1,-1,-1,-1,-1,-1,-1,-1,-1,-1,-1,-1,-1],"split_conditions":[3.135E-2,1.5E0,1.5E0,1.5E0,1.5E0,1.5E0,1.5E0,9.25E-3,5E-1,7.85E-3,2.5E0,5.078948E0,5.560605E0,1.0805E-1,3.25E0,5.337562E0,5E-1,3.05E-3,4.7500003E-3,5E-1,1.5E0,9.05E-3,5E-1,1.5E0,5.6937995E0,9.495E-2,6.5E0,-1.2248955E2,1.5E0,2.5165E-1,1.1595E-1,-3.4480378E-2,-5.2865718E-2,-2.3720022E-2,-6.138044E-3,-7.687558E-2,-6.264433E-2,-6.1447233E-2,-4.359311E-2,-9.122333E-3,1.5114908E-2,2.6994338E-2,5.667376E-3,-4.8800245E-2,-3.0089382E-2,-2.6205322E-2,-2.2190784E-3,2.807257E-2,3.5109776E-3,2.4535251E-5,-2.8087575E-2,-4.1721746E-2,-2.7288815E-2,-5.9127633E-2,-1.824832E-2,2.8848635E-2,4.5980796E-2,6.0726058E-2,4.480737E-2,-1.6733916E-2,6.691667E-3,5.3105652E-3,2.437001E-2],"split_indices":[9,30,30,31,31,31,31,9,21,9,5,38,38,9,6,38,21,9,9,11,33,9,11,33,38,9,13,25,33,9,9,0,0,0,0,0,0,0,0,0,0,0,0,0,0,0,0,0,0,0,0,0,0,0,0,0,0,0,0,0,0,0,0],"split_type":[0,0,0,0,0,0,0,0,0,0,0,0,0,0,0,0,0,0,0,0,0,0,0,0,0,0,0,0,0,0,0,0,0,0,0,0,0,0,0,0,0,0,0,0,0,0,0,0,0,0,0,0,0,0,0,0,0,0,0,0,0,0,0],"sum_hessian":[2.6972972E5,1.05941E5,1.637887E5,4.977104E4,5.6169965E4,8.072257E4,8.306613E4,4.0273723E4,9.497313E3,2.5942191E4,3.0227773E4,6.996312E4,1.0759449E4,4.2547684E4,4.0518453E4,2.7674633E4,1.2599093E4,6.3413755E3,3.1559377E3,1.6977645E4,8.964548E3,1.4414225E4,1.5813549E4,3.782879E4,3.2134326E4,9.136913E3,1.6225369E3,1.5152002E4,2.739568E4,7.662922E3,3.285553E4,2.1045559E4,6.6290728E3,8.633842E3,3.9652507E3,3.8226223E3,2.518753E3,2.179245E3,9.7669275E2,1.3318027E4,3.6596162E3,5.4250737E3,3.5394739E3,1.064628E4,3.7679448E3,1.1881171E4,3.9323784E3,3.0738145E4,7.0906465E3,2.3196773E4,8.937552E3,3.166617E3,5.9702954E3,1.5097262E3,1.12810776E2,7.1590054E3,7.992996E3,1.6464953E4,1.0930729E4,5.6444126E3,2.018509E3,1.3163579E4,1.9691953E4],"tree_param":{"num_deleted":"0","num_feature":"42","num_nodes":"63","size_leaf_vector":"0"}},{"base_weights":[-1.2831242E-3,-2.3146679E-1,1.406838E-1,-3.3327988E-1,-1.4122835E-1,2.4884323E-2,2.532745E-1,-2.767106E-1,-5.7168746E-1,1.9265817E-2,-2.7813223E-1,7.658958E-2,-3.0915943E-1,4.057523E-1,9.473279E-2,-3.3130166E-1,-1.45504E-1,-6.18923E-1,-5.0204444E-1,-2.5684994E-2,2.181153E-1,-3.8116822E-1,-1.828058E-1,1.5666156E-1,-1.3430902E-1,-3.02724E-2,-3.6015305E-1,3.022201E-1,4.601406E-1,-1.02487184E-1,1.4103797E-1,-3.8334715E-1,-2.3725677E-1,-1.9458258E-1,-3.8671374E-2,-1.1200818E-1,-6.2605006E-1,-5.537211E-1,-4.1056758E-1,4.785561E-2,-1.191566E-1,1.3181826E-1,3.4521955E-1,-4.3866837E-1,-2.8922012E-1,-2.2002003E-1,7.032077E-2,2.5708446E-1,6.487645E-2,4.8188508E-2,-2.2128029E-1,-1.22581184E-1,3.880431E-1,-3.3192983E-1,-5.0532657E-1,3.9907432E-1,1.7444311E-1,3.6496603E-1,4.9803597E-1,-1.7278548E-1,-1.35054E-2,4.981526E-2,2.0556566E-1],"categories":[],"categories_nodes":[],"categories_segments":[],"categories_sizes":[],"default_left":[true,true,true,true,true,true,true,true,true,true,true,true,true,true,true,true,true,false,true,true,true,true,true,true,true,true,true,true,true,true,true,false,false,false,false,false,false,false,false,false,false,false,false,false,false,false,false,false,false,false,false,false,false,false,false,false,false,false,false,false,false,false,false],"id":2,"left_children":[1,3,5,7,9,11,13,15,17,19,21,23,25,27,29,31,33,35,37,39,41,43,45,47,49,51,53,55,57,59,61,-1,-1,-1,-1,-1,-1,-1,-1,-1,-1,-1,-1,-1,-1,-1,-1,-1,-1,-1,-1,-1,-1,-1,-1,-1,-1,-1,-1,-1,-1,-1,-1],"loss_changes":[8.776806E3,9.412754E2,2.165901E3,6.490908E2,1.1934934E3,1.4145131E3,2.0361094E3,2.7865454E2,3.005664E1,2.235166E2,2.878474E2,1.1976418E3,1.5610364E2,2.4162549E2,3.771282E2,1.343977E2,5.9945206E1,1.9786621E1,1.7433655E1,1.4020735E2,5.052603E1,7.43468E1,1.4346399E2,4.737871E2,3.0978207E2,6.561447E1,3.7856445E1,1.8296606E2,1.0133203E2,4.9117325E1,1.9684796E2,0E0,0E0,0E0,0E0,0E0,0E0,0E0,0E0,0E0,0E0,0E0,0E0,0E0,0E0,0E0,0E0,0E0,0E0,0E0,0E0,0E0,0E0,0E0,0E0,0E0,0E0,0E0,0E0,0E0,0E0,0E0,0E0],"parents":[2147483647,0,0,1,1,2,2,3,3,4,4,5,5,6,6,7,7,8,8,9,9,10,10,11,11,12,12,13,13,14,14,15,15,16,16,17,17,18,18,19,19,20,20,21,21,22,22,23,23,24,24,25,25,26,26,27,27,28,28,29,29,30,30],"right_children":[2,4,6,8,10,12,14,16,18,20,22,24,26,28,30,32,34,36,38,40,42,44,46,48,50,52,54,56,58,60,62,-1,-1,-1,-1,-1,-1,-1,-1,-1,-1,-1,-1,-1,-1,-1,-1,-1,-1,-1,-1,-1,-1,-1,-1,-1,-1,-1,-1,-1,-1,-1,-1],"split_conditions":[2.8749999E-2,1.5E0,1.5E0,1.5E0,1.5E0,1.5E0,1.5E0,9.25E-3,1.9500001E-3,2.05E1,2.5E0,5.366233E0,1.87E0,8.5E0,3.25E0,5E-1,5E-1,4.1666666E-5,5.065E0,1.5E0,1.025E-2,7.5E0,2.55E1,2.8E0,3.28E0,3.1695002E-1,5.566243E0,1.5E0,8.745E-2,8.5E0,1.18149996E-1,-4.2168185E-2,-2.6098244E-2,-2.1404084E-2,-4.2538512E-3,-1.2320899E-2,-6.886551E-2,-6.0909316E-2,-4.5162432E-2,5.264117E-3,-1.3107226E-2,1.4500009E-2,3.797415E-2,-4.825352E-2,-3.1814214E-2,-2.4202203E-2,7.7352845E-3,2.827929E-2,7.1364096E-3,5.3007356E-3,-2.4340833E-2,-1.348393E-2,4.268474E-2,-3.651228E-2,-5.558592E-2,4.3898173E-2,1.9188741E-2,4.0146265E-2,5.4783955E-2,-1.9006403E-2,-1.485594E-3,5.4796785E-3,2.2612223E-2],"split_indices":[9,30,30,31,31,31,31,9,9,22,5,38,8,22,6,21,21,24,10,33,9,22,22,8,8,9,38,33,9,22,9,0,0,0,0,0,0,0,0,0,0,0,0,0,0,0,0,0,0,0,0,0,0,0,0,0,0,0,0,0,0,0,0],"split_type":[0,0,0,0,0,0,0,0,0,0,0,0,0,0,0,0,0,0,0,0,0,0,0,0,0,0,0,0,0,0,0,0,0,0,0,0,0,0,0,0,0,0,0,0,0,0,0,0,0,0,0,0,0,0,0,0,0,0,0,0,0,0,0],"sum_hessian":[2.6857872E5,1.0245639E5,1.6612233E5,4.8139477E4,5.431691E4,8.1894805E4,8.422753E4,3.8909266E4,9.230215E3,2.500458E4,2.931233E4,7.091841E4,1.0976397E4,4.293406E4,4.129347E4,2.7475875E4,1.143339E4,5.4951997E3,3.735015E3,2.0395059E4,4.609523E3,1.4085098E4,1.5227232E4,5.140261E4,1.9515797E4,1.697E3,9.279397E3,1.4788878E4,2.8145182E4,7.8515303E3,3.3441938E4,1.7685463E4,9.790411E3,7.833761E3,3.5996284E3,7.642167E1,5.4187783E3,2.3834917E3,1.3515232E3,1.1414761E4,8.980297E3,2.7466982E3,1.8628248E3,8.663542E3,5.4215557E3,1.3275607E4,1.9516251E3,2.4545432E4,2.6857178E4,6.2988833E3,1.3216914E4,1.3908018E3,3.0619827E2,7.771772E3,1.5076254E3,8.411151E3,6.377727E3,8.0181577E3,2.0127025E4,4.38573E3,3.4658003E3,1.3855795E4,1.9586145E4],"tree_param":{"num_deleted":"0","num_feature":"42","num_nodes":"63","size_leaf_vector":"0"}},{"base_weights":[5.7143264E-4,-2.1633877E-1,1.4070886E-1,-2.6208478E-1,-2.3728311E-2,3.4998637E-2,2.4329752E-1,-1.9567423E-1,-3.690702E-1,-1.4631931E-1,5.7953637E-2,1.5613067E-1,-9.2736065E-2,3.8762128E-1,9.320718E-2,-2.9210958E-1,-3.1413577E-2,-5.421239E-1,-3.100355E-1,-1.1047546E-1,-3.932854E-1,1.6456999E-1,-6.2147252E-2,2.0275071E-1,-1.7942157E-1,-4.699243E-2,-3.676625E-1,2.00814E-1,4.0928733E-1,-1.3358361E-2,1.7276797E-1,-3.429191E-1,-1.7496076E-1,-9.128219E-2,9.46771E-2,-5.840247E-1,-4.6977368E-1,-3.883536E-1,-2.256047E-1,-9.276376E-3,-2.0647877E-1,9.886155E-3,-4.171728E-1,1.071591E-1,2.4437828E-1,-1.7383969E-1,4.0053006E-2,9.7916044E-2,3.320597E-1,-2.3574659E-1,2.0061769E-1,1.0804575E-2,-2.9576904E-1,-3.4704047E-1,-6.2152785E-1,1.4631367E-1,3.6641818E-1,3.3230194E-1,4.5470262E-1,-6.730477E-2,1.3586724E-1,1.05904974E-1,2.4598722E-1],"categories":[],"categories_nodes":[],"categories_segments":[],"categories_sizes":[],"default_left":[true,true,true,true,true,true,true,true,true,true,true,true,true,true,true,true,true,true,true,true,true,true,true,true,true,true,true,true,true,true,true,false,false,false,false,false,false,false,false,false,false,false,false,false,false,false,false,false,false,false,false,false,false,false,false,false,false,false,false,false,false,false,false],"id":3,"left_children":[1,3,5,7,9,11,13,15,17,19,21,23,25,27,29,31,33,35,37,39,41,43,45,47,49,51,53,55,57,59,61,-1,-1,-1,-1,-1,-1,-1,-1,-1,-1,-1,-1,-1,-1,-1,-1,-1,-1,-1,-1,-1,-1,-1,-1,-1,-1,-1,-1,-1,-1,-1,-1],"loss_changes":[8.144738E3,9.266196E2,1.765269E3,6.037168E2,2.021268E2,1.2404762E3,1.7894019E3,8.305995E2,3.3233447E2,7.140675E1,1.5512903E2,6.4375226E2,4.907344E2,1.7036523E2,3.4335092E2,1.9659595E2,1.4644054E2,2.4818604E1,1.6039893E2,6.8490524E1,9.852509E0,2.9378525E1,6.504459E1,4.897483E2,1.0750824E2,4.810667E2,2.892566E1,3.946582E1,1.3178369E2,1.3936966E2,1.1348566E2,0E0,0E0,0E0,0E0,0E0,0E0,0E0,0E0,0E0,0E0,0E0,0E0,0E0,0E0,0E0,0E0,0E0,0E0,0E0,0E0,0E0,0E0,0E0,0E0,0E0,0E0,0E0,0E0,0E0,0E0,0E0,0E0],"parents":[2147483647,0,0,1,1,2,2,3,3,4,4,5,5,6,6,7,7,8,8,9,9,10,10,11,11,12,12,13,13,14,14,15,15,16,16,17,17,18,18,19,19,20,20,21,21,22,22,23,23,24,24,25,25,26,26,27,27,28,28,29,29,30,30],"right_children":[2,4,6,8,10,12,14,16,18,20,22,24,26,28,30,32,34,36,38,40,42,44,46,48,50,52,54,56,58,60,62,-1,-1,-1,-1,-1,-1,-1,-1,-1,-1,-1,-1,-1,-1,-1,-1,-1,-1,-1,-1,-1,-1,-1,-1,-1,-1,-1,-1,-1,-1,-1,-1],"split_conditions":[3.145E-2,5E-1,1.5E0,1.5E0,1.5E0,3.28E0,1.5E0,1.5E0,1.5E0,1.5E0,1.5E0,1.5E0,1.5E0,3.25E0,3.75E0,8.85E-3,7.55E-3,3.05E-3,2.5E0,4.9378495E0,1.5E0,8.35E-3,3.75E0,1.4695E-1,3.579E-1,5.6972113E0,5.9143944E0,5E-1,1.14649996E-1,5E-1,1.5915E-1,-3.77211E-2,-1.9245684E-2,-1.004104E-2,1.0414481E-2,-6.424272E-2,-5.1675104E-2,-4.2718895E-2,-2.4816517E-2,-1.0204014E-3,-2.2712665E-2,1.0874771E-3,-4.5889005E-2,1.1787501E-2,2.6881611E-2,-1.9122366E-2,4.4058305E-3,1.0770765E-2,3.652657E-2,-2.5932126E-2,2.2067945E-2,1.1885032E-3,-3.2534596E-2,-3.817445E-2,-6.836806E-2,1.6094504E-2,4.0306E-2,3.6553215E-2,5.0017286E-2,-7.4035246E-3,1.4945396E-2,1.1649547E-2,2.7058594E-2],"split_indices":[9,11,30,31,30,8,31,30,30,31,31,31,31,6,6,9,9,9,5,38,5,9,6,9,9,38,38,11,9,11,9,0,0,0,0,0,0,0,0,0,0,0,0,0,0,0,0,0,0,0,0,0,0,0,0,0,0,0,0,0,0,0,0],"split_type":[0,0,0,0,0,0,0,0,0,0,0,0,0,0,0,0,0,0,0,0,0,0,0,0,0,0,0,0,0,0,0,0,0,0,0,0,0,0,0,0,0,0,0,0,0,0,0,0,0,0,0,0,0,0,0,0,0,0,0,0,0,0,0],"sum_hessian":[2.6794134E5,1.0516394E5,1.627774E5,8.49803E4,2.0183639E4,8.0169664E4,8.2607734E4,5.2434637E4,3.2545662E4,8.0704487E3,1.211319E4,4.1148203E4,3.9021457E4,4.2112062E4,4.0495676E4,3.303779E4,1.9396848E4,8.276332E3,2.4269332E4,7.048849E3,1.0215997E3,6.4166294E3,5.696561E3,3.6129008E4,5.0191973E3,3.3456043E4,5.565413E3,4.3776514E3,3.773441E4,1.7310469E4,2.3185207E4,2.3042094E4,9.995693E3,1.3152322E4,6.244526E3,5.236564E3,3.0397676E3,1.2588568E4,1.1680763E4,3.432099E3,3.61675E3,5.7175606E1,9.644241E2,3.73335E3,2.6832793E3,2.7215442E3,2.975017E3,1.9953703E4,1.6175305E4,4.37166E3,6.4753723E2,2.7149496E4,6.306548E3,5.1494775E3,4.1593588E2,3.2951133E3,1.082538E3,1.4003982E4,2.3730428E4,1.2714582E4,4.5958877E3,1.2119899E4,1.1065308E4],"tree_param":{"num_deleted":"0","num_feature":"42","num_nodes":"63","size_leaf_vector":"0"}},{"base_weights":[-6.319964E-5,-2.3197196E-1,1.1841133E-1,-2.7172303E-1,-5.124361E-2,2.8993348E-2,2.0474969E-1,-2.1041475E-1,-3.6924964E-1,-1.6168581E-1,2.1551875E-2,7.234996E-2,-2.5371173E-1,3.3917668E-1,6.724324E-2,-2.9595944E-1,-6.70286E-2,-5.2140653E-1,-3.1644782E-1,-1.2900113E-1,-3.814008E-1,1.2392523E-1,-9.346482E-2,1.6284895E-1,-4.7319815E-2,-1.1503162E-1,-3.2265568E-1,2.3218815E-1,3.9096648E-1,-1.0021716E-1,1.07899524E-1,-3.3516732E-1,-2.1295539E-1,-1.1073048E-1,6.539584E-2,3.4563832E-2,-5.2657366E-1,-3.440586E-1,-7.605147E-2,-1.7187268E-1,-4.95973E-2,-4.0312928E-1,6.450349E-2,2.1043297E-2,1.7304817E-1,-1.8930125E-1,-2.435E-3,4.6658497E-3,2.60243E-1,-9.782008E-2,5.4774567E-2,-2.699543E-1,5.305486E-2,-2.506383E-1,-3.669E-1,1.6094518E-1,3.269825E-1,3.0144975E-1,4.368215E-1,-1.5195403E-1,2.0211114E-2,1.9633636E-2,1.7895003E-1],"categories":[],"categories_nodes":[],"categories_segments":[],"categories_sizes":[],"default_left":[true,true,true,true,true,true,true,true,true,true,true,true,true,true,true,true,true,false,true,true,true,true,true,true,true,true,true,true,true,true,true,false,false,false,false,false,false,false,false,false,false,false,false,false,false,false,false,false,false,false,false,false,false,false,false,false,false,false,false,false,false,false,false],"id":4,"left_children":[1,3,5,7,9,11,13,15,17,19,21,23,25,27,29,31,33,35,37,39,41,43,45,47,49,51,53,55,57,59,61,-1,-1,-1,-1,-1,-1,-1,-1,-1,-1,-1,-1,-1,-1,-1,-1,-1,-1,-1,-1,-1,-1,-1,-1,-1,-1,-1,-1,-1,-1,-1,-1],"loss_changes":[7.3508286E3,6.498926E2,1.3670825E3,4.4330127E2,1.3114154E2,1.0662594E3,1.6652695E3,5.584917E2,2.297815E2,4.648697E1,1.15781654E2,8.168402E2,1.1055914E2,2.5232715E2,3.0323007E2,9.274072E1,9.848133E1,2.1195923E1,1.410227E2,1.9199585E1,8.151482E0,2.6288681E1,4.0397877E1,6.616299E2,1.6745576E2,1.0007704E2,2.452478E1,1.0031378E2,1.2586377E2,5.4214684E1,2.2474048E2,0E0,0E0,0E0,0E0,0E0,0E0,0E0,0E0,0E0,0E0,0E0,0E0,0E0,0E0,0E0,0E0,0E0,0E0,0E0,0E0,0E0,0E0,0E0,0E0,0E0,0E0,0E0,0E0,0E0,0E0,0E0,0E0],"parents":[2147483647,0,0,1,1,2,2,3,3,4,4,5,5,6,6,7,7,8,8,9,9,10,10,11,11,12,12,13,13,14,14,15,15,16,16,17,17,18,18,19,19,20,20,21,21,22,22,23,23,24,24,25,25,26,26,27,27,28,28,29,29,30,30],"right_children":[2,4,6,8,10,12,14,16,18,20,22,24,26,28,30,32,34,36,38,40,42,44,46,48,50,52,54,56,58,60,62,-1,-1,-1,-1,-1,-1,-1,-1,-1,-1,-1,-1,-1,-1,-1,-1,-1,-1,-1,-1,-1,-1,-1,-1,-1,-1,-1,-1,-1,-1,-1,-1],"split_conditions":[1.9949999E-2,5E-1,1.5E0,1.5E0,1.5E0,1.5E0,1.5E0,1.5E0,1.5E0,1.5E0,1.5E0,3.45E0,2.6E0,8.385E-2,3.25E0,3.15E-3,1.35E1,2.5E-5,3.5E0,6.05E-3,1.8350001E-2,6.5E0,3.75E0,8.335E-2,5E-1,9.565E-2,2.015E2,1.45E1,8.5E0,2.043E-1,1.1595E-1,-3.6868405E-2,-2.3425093E-2,-1.2180353E-2,7.193542E-3,3.8020215E-3,-5.79231E-2,-3.7846446E-2,-8.365662E-3,-1.8905994E-2,-5.455703E-3,-4.434422E-2,7.095384E-3,2.3147627E-3,1.9035298E-2,-2.0823138E-2,-2.6785E-4,5.132435E-4,2.8626729E-2,-1.0760209E-2,6.0252026E-3,-2.9694973E-2,5.8360347E-3,-2.7570214E-2,-4.0358998E-2,1.7703969E-2,3.5968076E-2,3.3159472E-2,4.8050363E-2,-1.6714944E-2,2.2232225E-3,2.1597E-3,1.9684503E-2],"split_indices":[9,11,30,31,30,31,31,30,30,31,31,8,8,9,6,9,22,24,5,9,9,22,6,9,11,9,3,22,22,9,9,0,0,0,0,0,0,0,0,0,0,0,0,0,0,0,0,0,0,0,0,0,0,0,0,0,0,0,0,0,0,0,0],"split_type":[0,0,0,0,0,0,0,0,0,0,0,0,0,0,0,0,0,0,0,0,0,0,0,0,0,0,0,0,0,0,0,0,0,0,0,0,0,0,0,0,0,0,0,0,0,0,0,0,0,0,0,0,0,0,0,0,0,0,0,0,0,0,0],"sum_hessian":[2.675413E5,9.0462984E4,1.7707834E5,7.4152664E4,1.6310325E4,8.698843E4,9.0089914E4,4.55326E4,2.8620062E4,6.479176E3,9.831149E3,7.542217E4,1.1566256E4,4.5554316E4,4.4535594E4,2.8517748E4,1.7014852E4,7.3708643E3,2.12492E4,5.6415317E3,8.376441E2,5.2014224E3,4.6297275E3,4.2945066E4,3.2477107E4,3.8415945E3,7.724662E3,1.4860549E4,3.0693768E4,8.699889E3,3.5835707E4,1.9366658E4,9.151091E3,1.2793113E4,4.221739E3,6.782109E1,7.303043E3,1.9059664E4,2.1895337E3,3.6627712E3,1.9787604E3,7.9881464E2,3.8829517E1,1.6813889E3,3.5200334E3,2.2547944E3,2.3749329E3,1.6365689E4,2.6579375E4,2.1729035E4,1.0748072E4,1.9987615E3,1.842833E3,2.9422195E3,4.7824424E3,8.485752E3,6.374796E3,1.0399587E4,2.0294182E4,6.085326E3,2.6145623E3,1.5982258E4,1.9853447E4],"tree_param":{"num_deleted":"0","num_feature":"42","num_nodes":"63","size_leaf_vector":"0"}},{"base_weights":[-5.6602305E-4,-1.9550948E-1,1.3409798E-1,-2.3848993E-1,-1.7912263E-2,1.7482108E-1,-2.939588E-2,-2.9291484E-1,-1.3024071E-1,-9.117938E-2,5.2599065E-2,2.4463594E-1,3.9546184E-2,1.7940795E-2,-2.0701176E-1,-3.4483236E-1,-2.0331235E-1,-7.766641E-2,-2.2547291E-1,-6.4233065E-2,-2.792605E-1,1.0391766E-1,-5.135011E-2,1.3234109E-1,2.824438E-1,-6.990184E-3,1.6468593E-1,2.5156352E-1,-3.1734777E-3,-3.9316874E-2,-2.5735444E-1,3.6376548E-1,-3.5247546E-1,-1.4820462E-1,-2.8456438E-1,-4.115085E-2,-1.8616611E-1,-2.5100234E-1,-7.522893E-2,-1.6990872E-2,-1.5143074E-1,-3.5989156E-1,-1.4307038E-1,1.8957227E-1,-6.078531E-3,3.349217E-2,-1.05520025E-1,8.369071E-2,2.526321E-1,3.5795093E-1,2.1049857E-1,-8.937683E-2,5.5539027E-2,2.6774123E-1,1.2783809E-1,-6.667824E-2,3.271205E-1,-7.681509E-2,4.2906575E-2,-1.5182482E-1,2.0465557E-1,-2.6723674E-1,2.6793143E-1],"categories":[],"categories_nodes":[],"categories_segments":[],"categories_sizes":[],"default_left":[true,true,true,true,true,true,true,true,true,true,true,true,true,true,true,false,true,true,true,true,true,true,false,true,true,true,true,true,true,true,true,false,false,false,false,false,false,false,false,false,false,false,false,false,false,false,false,false,false,false,false,false,false,false,false,false,false,false,false,false,false,false,false],"id":5,"left_children":[1,3,5,7,9,11,13,15,17,19,21,23,25,27,29,31,33,35,37,39,41,43,45,47,49,51,53,55,57,59,61,-1,-1,-1,-1,-1,-1,-1,-1,-1,-1,-1,-1,-1,-1,-1,-1,-1,-1,-1,-1,-1,-1,-1,-1,-1,-1,-1,-1,-1,-1,-1,-1],"loss_changes":[6.996982E3,8.31208E2,1.0495583E3,5.164995E2,1.0962851E2,1.1918838E3,2.6430704E2,2.7133203E2,1.4685568E2,5.2724655E1,5.7691696E1,3.533789E2,2.5019467E2,1.2244022E2,5.5835785E1,2.0017627E2,9.5803345E1,7.488115E1,4.0001465E1,3.7500355E1,1.4266136E1,6.821386E1,1.6432964E1,1.2269351E2,3.3822266E2,1.6133928E2,4.4189423E1,4.949257E1,7.725503E1,4.1987614E1,2.6481201E1,0E0,0E0,0E0,0E0,0E0,0E0,0E0,0E0,0E0,0E0,0E0,0E0,0E0,0E0,0E0,0E0,0E0,0E0,0E0,0E0,0E0,0E0,0E0,0E0,0E0,0E0,0E0,0E0,0E0,0E0,0E0,0E0],"parents":[2147483647,0,0,1,1,2,2,3,3,4,4,5,5,6,6,7,7,8,8,9,9,10,10,11,11,12,12,13,13,14,14,15,15,16,16,17,17,18,18,19,19,20,20,21,21,22,22,23,23,24,24,25,25,26,26,27,27,28,28,29,29,30,30],"right_children":[2,4,6,8,10,12,14,16,18,20,22,24,26,28,30,32,34,36,38,40,42,44,46,48,50,52,54,56,58,60,62,-1,-1,-1,-1,-1,-1,-1,-1,-1,-1,-1,-1,-1,-1,-1,-1,-1,-1,-1,-1,-1,-1,-1,-1,-1,-1,-1,-1,-1,-1,-1,-1],"split_conditions":[3.545E-2,5E-1,5.336865E0,7.65E-3,6.05E-3,1.5E0,5.8850617E0,5E-1,1.5E0,5.3807034E0,1.5E0,8.385E-2,5E-1,1.87E0,3.065E0,9.583333E-5,1.5E0,5.244705E0,3.5E0,1.5E0,3.5E0,4.892377E0,-1.37015E1,5E-1,2.97E0,3.75E0,2.8600001E0,5.585E-2,5.465E0,1.735E-1,-4.45245E0,4.0014204E-2,-3.87723E-2,-1.630251E-2,-3.130208E-2,-4.5265933E-3,-2.0478271E-2,-2.7610257E-2,-8.275182E-3,-1.868996E-3,-1.6657382E-2,-3.958807E-2,-1.5737742E-2,2.085295E-2,-6.686384E-4,3.6841386E-3,-1.1607203E-2,9.205978E-3,2.7789531E-2,3.93746E-2,2.3154844E-2,-9.831451E-3,6.109293E-3,2.9451536E-2,1.40621895E-2,-7.3346063E-3,3.5983257E-2,-8.44966E-3,4.719723E-3,-1.670073E-2,2.2512114E-2,-2.939604E-2,2.9472457E-2],"split_indices":[9,11,38,9,9,31,38,21,31,38,31,9,11,8,8,24,31,38,5,31,13,38,25,11,8,6,8,9,10,9,25,0,0,0,0,0,0,0,0,0,0,0,0,0,0,0,0,0,0,0,0,0,0,0,0,0,0,0,0,0,0,0,0],"split_type":[0,0,0,0,0,0,0,0,0,0,0,0,0,0,0,0,0,0,0,0,0,0,0,0,0,0,0,0,0,0,0,0,0,0,0,0,0,0,0,0,0,0,0,0,0,0,0,0,0,0,0,0,0,0,0,0,0,0,0,0,0,0,0],"sum_hessian":[2.6653075E5,1.08893266E5,1.5763747E5,8.76747E4,2.1218566E4,1.2620277E5,3.1434697E4,5.8340766E4,2.9333936E4,1.0405792E4,1.0812774E4,8.324139E4,4.296138E4,2.4820615E4,6.614081E3,3.693628E4,2.1404482E4,1.890112E4,1.0432817E4,9.102956E3,1.3028359E3,7.238972E3,3.5738025E3,2.0967969E4,6.227342E4,3.1316494E4,1.1644884E4,2.0563909E3,2.2764225E4,1.5275363E3,5.086545E3,3.9365536E2,3.6542625E4,1.2755869E4,8.648613E3,1.4142755E4,4.7583633E3,8.916976E3,1.5158412E3,5.904951E3,3.1980054E3,8.173079E2,4.8552795E2,4.0693916E3,3.1695803E3,1.3927789E3,2.1810237E3,1.493099E4,6.036979E3,3.0382623E4,3.1890799E4,1.3512454E4,1.7804041E4,3.0653916E3,8.579492E3,3.9457608E2,1.6618147E3,8.761538E3,1.4002687E4,1.0456926E3,4.8184366E2,4.9931E3,9.3444916E1],"tree_param":{"num_deleted":"0","num_feature":"42","num_nodes":"63","size_leaf_vector":"0"}},{"base_weights":[1.1857933E-3,-1.836647E-1,1.2776841E-1,-2.4452677E-1,-7.610338E-2,4.2055253E-2,2.1179527E-1,-3.2017475E-1,-1.7778662E-1,-1.6095118E-1,-2.6763408E-3,1.7783463E-1,-4.5186654E-2,3.321897E-1,8.8207625E-2,-2.7797744E-1,-4.8955762E-1,-5.2424222E-2,-2.8172833E-1,-1.22129016E-1,-3.7019405E-1,1.23563886E-1,-1.2125774E-1,3.3777636E-2,2.5454703E-1,-3.4968234E-3,-3.0424422E-1,3.890407E-1,2.4815373E-1,-8.506301E-3,1.601831E-1,-2.112655E-1,-3.4202808E-1,-5.3690577E-1,-3.998487E-1,-9.043977E-2,9.0563424E-2,-3.6105517E-1,-2.023718E-1,-1.6384985E-1,-2.972591E-2,-4.3934986E-1,-2.5903493E-1,5.4897953E-2,2.2380017E-1,-1.8943173E-1,-2.4213472E-4,7.371166E-2,-2.3302974E-1,2.881741E-1,-4.38753E-3,6.527686E-2,-1.794618E-1,-2.6984853E-1,-4.6767533E-1,3.2824573E-1,4.602996E-1,1.6630228E-1,3.71078E-1,-8.8352285E-2,7.6246105E-2,1.0945132E-1,2.6376477E-1],"categories":[],"categories_nodes":[],"categories_segments":[],"categories_sizes":[],"default_left":[true,true,true,true,true,true,true,true,true,true,true,true,true,true,true,true,true,true,true,true,false,true,true,true,true,true,true,true,true,true,true,false,false,false,false,false,false,false,false,false,false,false,false,false,false,false,false,false,false,false,false,false,false,false,false,false,false,false,false,false,false,false,false],"id":6,"left_children":[1,3,5,7,9,11,13,15,17,19,21,23,25,27,29,31,33,35,37,39,41,43,45,47,49,51,53,55,57,59,61,-1,-1,-1,-1,-1,-1,-1,-1,-1,-1,-1,-1,-1,-1,-1,-1,-1,-1,-1,-1,-1,-1,-1,-1,-1,-1,-1,-1,-1,-1,-1,-1],"loss_changes":[6.205593E3,7.0565015E2,1.1337222E3,3.4750586E2,2.4269138E2,9.230983E2,1.1827063E3,2.304851E2,4.7658752E2,1.4675705E2,3.1263925E2,3.3686487E2,5.123958E2,1.9226758E2,2.7305215E2,1.10311646E2,2.7113281E1,9.013809E1,1.2580554E2,5.8766983E1,2.1623932E1,6.961232E1,8.884572E1,1.12888016E2,1.7319739E2,4.9458847E2,3.6843506E1,1.0388599E2,1.6344086E2,1.13271904E2,1.1814874E2,0E0,0E0,0E0,0E0,0E0,0E0,0E0,0E0,0E0,0E0,0E0,0E0,0E0,0E0,0E0,0E0,0E0,0E0,0E0,0E0,0E0,0E0,0E0,0E0,0E0,0E0,0E0,0E0,0E0,0E0,0E0,0E0],"parents":[2147483647,0,0,1,1,2,2,3,3,4,4,5,5,6,6,7,7,8,8,9,9,10,10,11,11,12,12,13,13,14,14,15,15,16,16,17,17,18,18,19,19,20,20,21,21,22,22,23,23,24,24,25,25,26,26,27,27,28,28,29,29,30,30],"right_children":[2,4,6,8,10,12,14,16,18,20,22,24,26,28,30,32,34,36,38,40,42,44,46,48,50,52,54,56,58,60,62,-1,-1,-1,-1,-1,-1,-1,-1,-1,-1,-1,-1,-1,-1,-1,-1,-1,-1,-1,-1,-1,-1,-1,-1,-1,-1,-1,-1,-1,-1,-1,-1],"split_conditions":[3.495E-2,7.45E-3,1.5E0,1.5E0,1.5E0,2.8E0,1.5E0,1.5E0,1.5E0,1.5E0,1.5E0,9.165E-2,1.5E0,1.5E0,3.75E0,4.907605E0,5E-1,5E-1,2.5E0,5E-1,4.1804854E3,1.35E1,1.25E1,1.5E0,1.5E0,5.4935346E0,5.6121416E0,1.7815E-1,1.75E1,2.2474747E-2,2.15E1,-2.3239205E-2,-3.762309E-2,-5.9059635E-2,-4.3983355E-2,-9.948375E-3,9.961977E-3,-3.971607E-2,-2.2260899E-2,-1.8023483E-2,-3.26985E-3,-4.8328485E-2,-2.8493842E-2,6.0387747E-3,2.4618018E-2,-2.083749E-2,-2.6634818E-5,8.108283E-3,-2.5633272E-2,3.169915E-2,-4.826283E-4,7.1804547E-3,-1.97408E-2,-2.9683338E-2,-5.1444285E-2,3.610703E-2,5.0632957E-2,1.829325E-2,4.0818583E-2,-9.718752E-3,8.387071E-3,1.2039645E-2,2.9014124E-2],"split_indices":[9,9,30,30,30,8,31,31,31,31,31,9,31,33,6,38,21,11,5,21,20,22,22,31,31,38,38,9,22,23,22,0,0,0,0,0,0,0,0,0,0,0,0,0,0,0,0,0,0,0,0,0,0,0,0,0,0,0,0,0,0,0,0],"split_type":[0,0,0,0,0,0,0,0,0,0,0,0,0,0,0,0,0,0,0,0,0,0,0,0,0,0,0,0,0,0,0,0,0,0,0,0,0,0,0,0,0,0,0,0,0,0,0,0,0,0,0,0,0,0,0,0,0,0,0,0,0,0,0],"sum_hessian":[2.6520722E5,1.0779383E5,1.5741338E5,6.884025E4,3.895358E4,7.792551E4,7.9487875E4,3.226502E4,3.6575227E4,1.8070836E4,2.0882744E4,3.0482648E4,4.744286E4,4.0263246E4,3.922463E4,2.5832236E4,6.432784E3,1.657994E4,1.999529E4,1.5244086E4,2.826749E3,1.0114711E4,1.0768033E4,1.0592534E4,1.9890113E4,4.0867168E4,6.5756924E3,2.401397E4,1.6249274E4,1.6736525E4,2.2488102E4,1.26553545E4,1.3176881E4,4.2072334E3,2.225551E3,1.3097996E4,3.4819436E3,9.99774E3,9.997548E3,1.05017E4,4.7423857E3,1.7407917E3,1.0859573E3,6.0035693E3,4.1111416E3,6.887438E3,3.880595E3,9.214144E3,1.3783905E3,1.7603842E4,2.2862715E3,2.9383594E4,1.1483575E4,5.434582E3,1.1411102E3,1.296144E4,1.105253E4,9.755646E3,6.493628E3,8.617687E3,8.11884E3,1.5096339E4,7.391763E3],"tree_param":{"num_deleted":"0","num_feature":"42","num_nodes":"63","size_leaf_vector":"0"}},{"base_weights":[9.405032E-4,-1.9747229E-1,5.6816258E-2,-1.3352525E-1,-2.9141986E-1,1.0756797E-2,1.8127221E-1,-2.1198721E-1,-1.17872525E-2,-4.2505473E-1,-2.4873045E-1,-5.6402627E-2,8.1728876E-2,2.3673092E-1,6.015551E-2,-2.3648958E-1,-7.6923E-2,-4.8907217E-2,1.6486421E-1,-4.6968964E-1,-3.3967113E-1,-3.2850444E-1,-1.6858754E-1,-2.1952499E-2,-2.5911033E-1,1.9462773E-1,-2.521546E-2,2.981616E-1,1.17582135E-1,-3.096585E-2,2.025056E-1,-2.8329983E-1,-1.5425986E-1,-1.6023624E-1,-1.5481617E-3,-8.660059E-2,1.1181293E-1,2.8369418E-1,1.109196E-1,1.0285434E-1,-4.775956E-1,-3.6763263E-1,-1.9263479E-1,-3.8936722E-1,-2.3714513E-1,-2.0674707E-1,-1.2709378E-2,3.7571892E-2,-1.4045623E-1,-1.8351592E-1,-2.9526737E-1,1.5466557E-1,3.376949E-1,-1.1161011E-1,4.4566747E-2,2.4074712E-1,3.482861E-1,-1.5798597E-1,1.4705326E-1,2.345903E-2,-1.5792313E-1,1.4335926E-1,3.4677723E-1],"categories":[],"categories_nodes":[],"categories_segments":[],"categories_sizes":[],"default_left":[true,true,true,true,true,true,true,true,true,true,true,true,true,true,true,true,true,true,true,false,true,true,true,true,true,true,true,true,true,true,true,false,false,false,false,false,false,false,false,false,false,false,false,false,false,false,false,false,false,false,false,false,false,false,false,false,false,false,false,false,false,false,false],"id":7,"left_children":[1,3,5,7,9,11,13,15,17,19,21,23,25,27,29,31,33,35,37,39,41,43,45,47,49,51,53,55,57,59,61,-1,-1,-1,-1,-1,-1,-1,-1,-1,-1,-1,-1,-1,-1,-1,-1,-1,-1,-1,-1,-1,-1,-1,-1,-1,-1,-1,-1,-1,-1,-1,-1],"loss_changes":[2.922829E3,3.4798804E2,1.1791985E3,3.2925366E2,1.3373376E2,7.156581E2,3.732202E2,6.934961E1,8.8601685E1,2.1482178E1,1.1363855E2,5.3871985E2,8.814034E2,2.789319E2,2.263971E2,6.824762E1,2.022138E1,6.765077E1,1.5008675E1,1.6917542E1,7.958954E0,4.9456726E1,5.2777054E1,4.6513425E2,3.0575256E1,2.0297778E2,2.260231E2,7.228613E1,1.0533472E2,7.353891E1,5.8078156E1,0E0,0E0,0E0,0E0,0E0,0E0,0E0,0E0,0E0,0E0,0E0,0E0,0E0,0E0,0E0,0E0,0E0,0E0,0E0,0E0,0E0,0E0,0E0,0E0,0E0,0E0,0E0,0E0,0E0,0E0,0E0,0E0],"parents":[2147483647,0,0,1,1,2,2,3,3,4,4,5,5,6,6,7,7,8,8,9,9,10,10,11,11,12,12,13,13,14,14,15,15,16,16,17,17,18,18,19,19,20,20,21,21,22,22,23,23,24,24,25,25,26,26,27,27,28,28,29,29,30,30],"right_children":[2,4,6,8,10,12,14,16,18,20,22,24,26,28,30,32,34,36,38,40,42,44,46,48,50,52,54,56,58,60,62,-1,-1,-1,-1,-1,-1,-1,-1,-1,-1,-1,-1,-1,-1,-1,-1,-1,-1,-1,-1,-1,-1,-1,-1,-1,-1,-1,-1,-1,-1,-1,-1],"split_conditions":[3.0543748E-2,1.5E0,5E-1,1.5E0,1.5E0,1.5E0,5.082677E0,5E-1,1.35E1,5E-1,2.5E0,1.5E0,1.5E0,1.5E0,1.5E0,5E-1,1.219375E-2,5E-1,1.5E0,5E-5,1.14379086E-1,1.012E-2,1.15E1,5.262379E0,2.115E2,2.75E1,3.75E0,1.5E0,1.5E0,5.627783E0,4.65E1,-3.1162981E-2,-1.6968584E-2,-1.7625986E-2,-1.7029779E-4,-9.526065E-3,1.2299422E-2,3.120636E-2,1.22011565E-2,1.1313978E-2,-5.2535515E-2,-4.0439587E-2,-2.1189827E-2,-4.2830393E-2,-2.6085963E-2,-2.2742178E-2,-1.3980316E-3,4.1329083E-3,-1.5450185E-2,-2.0186752E-2,-3.247941E-2,1.7013213E-2,3.714644E-2,-1.2277111E-2,4.9023423E-3,2.6482183E-2,3.831147E-2,-1.7378457E-2,1.6175859E-2,2.5804932E-3,-1.7371545E-2,1.5769519E-2,3.8145494E-2],"split_indices":[24,31,11,30,30,30,38,11,22,21,5,31,31,31,30,21,24,11,32,24,23,24,22,38,3,22,6,30,30,38,22,0,0,0,0,0,0,0,0,0,0,0,0,0,0,0,0,0,0,0,0,0,0,0,0,0,0,0,0,0,0,0,0],"split_type":[0,0,0,0,0,0,0,0,0,0,0,0,0,0,0,0,0,0,0,0,0,0,0,0,0,0,0,0,0,0,0,0,0,0,0,0,0,0,0,0,0,0,0,0,0,0,0,0,0,0,0,0,0,0,0,0,0,0,0,0,0,0,0],"sum_hessian":[2.636374E5,5.792946E4,2.0570795E5,3.4469574E4,2.3459885E4,1.5014311E5,5.5564844E4,2.0959879E4,1.3509695E4,5.677643E3,1.7782242E4,7.714376E4,7.299935E4,3.811241E4,1.7452434E4,1.7740732E4,3.219147E3,1.1164426E4,2.3452698E3,3.7255718E3,1.9520715E3,8.91008E3,8.872162E3,6.593862E4,1.1205144E4,3.551067E4,3.748868E4,2.5146098E4,1.2966314E4,1.0641416E4,6.811017E3,1.1303587E4,6.437145E3,1.5285195E3,1.6906274E3,9.043851E3,2.1205747E3,7.309229E2,1.6143468E3,5.0580246E1,3.6749915E3,1.638905E3,3.1316647E2,5.3456157E3,3.5644644E3,7.127097E3,1.745065E3,4.389224E4,2.2046377E4,3.627375E3,7.5777686E3,2.7758988E4,7.751684E3,1.6750248E4,2.0738432E4,1.1723437E4,1.342266E4,1.252309E3,1.1714006E4,7.4489614E3,3.1924546E3,4.832042E3,1.978975E3],"tree_param":{"num_deleted":"0","num_feature":"42","num_nodes":"63","size_leaf_vector":"0"}},{"base_weights":[2.1929583E-3,-2.0103876E-1,1.0731282E-1,-2.3477474E-1,-5.0840568E-2,1.2737349E-1,-1.21109605E-1,-1.866946E-1,-3.1111324E-1,-1.3284649E-1,2.8734815E-3,1.7929544E-1,2.1737155E-2,-1.7852925E-1,1.1080685E-1,-2.5546518E-1,-7.176837E-2,-4.35294E-1,-2.7029863E-1,-5.950135E-2,-2.070597E-1,8.430118E-2,-6.2135246E-2,1.09040506E-1,2.861672E-1,-1.7038763E-1,6.611806E-2,-4.2926874E-2,-2.3217514E-1,3.6274675E-2,2.3175134E-1,-3.0212924E-1,-1.7085063E-1,-1.2023785E-2,-1.489653E-1,-4.7304004E-1,-3.6351064E-1,-3.3199927E-1,-2.042028E-1,-5.0481413E-3,-2.1443711E-1,-2.7784473E-1,-1.1159192E-1,1.7396057E-2,1.3071692E-1,-1.1391356E-1,7.722499E-2,1.957219E-1,4.398722E-2,3.4238905E-1,2.0528266E-1,-1.2265864E-2,-2.1930507E-1,-8.591303E-2,1.03509195E-1,-1.2514864E-1,1.2421721E-1,-1.5984462E-1,-3.224798E-1,-1.7286977E-1,6.5553546E-2,-1.5695846E-1,2.5959888E-1],"categories":[],"categories_nodes":[],"categories_segments":[],"categories_sizes":[],"default_left":[true,true,true,true,true,true,true,true,true,true,true,true,true,true,true,true,true,true,true,true,true,true,true,true,true,true,true,true,true,true,true,false,false,false,false,false,false,false,false,false,false,false,false,false,false,false,false,false,false,false,false,false,false,false,false,false,false,false,false,false,false,false,false],"id":8,"left_children":[1,3,5,7,9,11,13,15,17,19,21,23,25,27,29,31,33,35,37,39,41,43,45,47,49,51,53,55,57,59,61,-1,-1,-1,-1,-1,-1,-1,-1,-1,-1,-1,-1,-1,-1,-1,-1,-1,-1,-1,-1,-1,-1,-1,-1,-1,-1,-1,-1,-1,-1,-1,-1],"loss_changes":[5.613656E3,4.538943E2,7.936102E2,2.6842554E2,7.2378265E1,8.732136E2,1.8621616E2,3.54724E2,1.43146E2,3.5385033E1,5.25659E1,8.014055E2,4.4737082E2,8.152179E1,2.501022E1,1.1082251E2,7.750268E1,1.8769043E1,8.670154E1,2.7604511E1,2.180986E1,1.3687807E1,3.9853638E1,3.6316516E2,1.9245459E2,7.615253E1,2.4229434E2,4.369458E1,5.2402374E1,1.0533981E1,1.1493732E1,0E0,0E0,0E0,0E0,0E0,0E0,0E0,0E0,0E0,0E0,0E0,0E0,0E0,0E0,0E0,0E0,0E0,0E0,0E0,0E0,0E0,0E0,0E0,0E0,0E0,0E0,0E0,0E0,0E0,0E0,0E0,0E0],"parents":[2147483647,0,0,1,1,2,2,3,3,4,4,5,5,6,6,7,7,8,8,9,9,10,10,11,11,12,12,13,13,14,14,15,15,16,16,17,17,18,18,19,19,20,20,21,21,22,22,23,23,24,24,25,25,26,26,27,27,28,28,29,29,30,30],"right_children":[2,4,6,8,10,12,14,16,18,20,22,24,26,28,30,32,34,36,38,40,42,44,46,48,50,52,54,56,58,60,62,-1,-1,-1,-1,-1,-1,-1,-1,-1,-1,-1,-1,-1,-1,-1,-1,-1,-1,-1,-1,-1,-1,-1,-1,-1,-1,-1,-1,-1,-1,-1,-1],"split_conditions":[2.0350002E-2,5E-1,5.6698465E0,1.5E0,1.5E0,1.5E0,1.5E0,1.5E0,1.5E0,4.9378495E0,1.5E0,1.5E0,1.5E0,3.16E0,2.95E1,5E-1,1.5E0,5E-1,2.5E0,1.5E0,4.35E-3,8.5E0,1.95E1,4.854644E0,1.5E0,2.1399999E0,3.25E0,6.075E0,5.9557858E0,3.5E0,1.7917957E0,-3.3234216E-2,-1.879357E-2,-1.3226164E-3,-1.6386183E-2,-5.2034404E-2,-3.998617E-2,-3.651992E-2,-2.2462308E-2,-5.5529556E-4,-2.3588082E-2,-3.056292E-2,-1.2275111E-2,1.9135663E-3,1.43788615E-2,-1.2530492E-2,8.494749E-3,2.1529408E-2,4.838594E-3,3.7662797E-2,2.2581093E-2,-1.349245E-3,-2.4123557E-2,-9.450434E-3,1.1386012E-2,-1.376635E-2,1.3663894E-2,-1.7582908E-2,-3.547278E-2,-1.9015675E-2,7.21089E-3,-1.726543E-2,2.8555878E-2],"split_indices":[9,11,38,31,30,31,30,30,30,38,33,30,30,8,22,21,33,21,5,33,9,22,22,38,33,8,6,10,38,22,28,0,0,0,0,0,0,0,0,0,0,0,0,0,0,0,0,0,0,0,0,0,0,0,0,0,0,0,0,0,0,0,0],"split_type":[0,0,0,0,0,0,0,0,0,0,0,0,0,0,0,0,0,0,0,0,0,0,0,0,0,0,0,0,0,0,0,0,0,0,0,0,0,0,0,0,0,0,0,0,0,0,0,0,0,0,0,0,0,0,0,0,0,0,0,0,0,0,0],"sum_hessian":[2.627642E5,8.95784E4,1.731858E5,7.314807E4,1.643033E4,1.5920448E5,1.3981318E4,4.4882965E4,2.8265104E4,6.502067E3,9.928262E3,1.0673957E5,5.246491E4,1.1206867E4,2.7744512E3,2.8079363E4,1.6803602E4,6.9894927E3,2.1275611E4,3.271065E3,3.231002E3,4.4074033E3,5.520859E3,6.440396E4,4.2335605E4,9.844644E3,4.2620266E4,3.1773027E3,8.029564E3,1.7174008E3,1.0570503E3,1.8096668E4,9.982695E3,9.473208E3,7.330393E3,4.5771094E3,2.4123833E3,1.1001583E4,1.0274028E4,2.4211636E3,8.4990155E2,1.8542498E3,1.3767522E3,1.8058165E3,2.6015867E3,4.0254238E3,1.495435E3,2.7611084E4,3.679288E4,2.4973559E4,1.7362047E4,2.3263032E3,7.5183403E3,8.412802E3,3.4207465E4,2.1298398E3,1.0474626E3,4.4600264E3,3.5695378E3,2.1029805E2,1.5071028E3,7.03556E1,9.866947E2],"tree_param":{"num_deleted":"0","num_feature":"42","num_nodes":"63","size_leaf_vector":"0"}},{"base_weights":[1.847233E-4,-1.6144392E-1,1.250492E-1,-2.2705702E-1,-6.33664E-2,2.2165875E-1,7.310563E-2,-1.8127091E-1,-3.0145007E-1,-9.714174E-2,7.3405735E-2,1.5979503E-1,3.5332164E-1,-9.687837E-3,1.5441039E-1,-2.5057226E-1,-7.433521E-2,-4.2136174E-1,-2.6495048E-1,-5.567161E-2,-1.7060974E-1,-2.0893373E-2,1.6053976E-1,8.85139E-2,2.6654702E-1,2.9404262E-1,4.5406967E-1,9.531661E-2,-8.209406E-2,2.6637164E-1,4.894811E-2,-2.9357257E-1,-1.7376585E-1,-1.0533031E-1,6.1920937E-2,5.3484436E-2,-4.2652664E-1,-3.2966292E-1,-2.0061086E-1,-1.2155379E-1,4.674704E-2,-3.081491E-1,-1.3448781E-1,9.304739E-2,-9.9375606E-2,2.310069E-1,7.467213E-2,-8.237543E-2,1.213156E-1,3.3838063E-1,2.0770723E-1,2.385911E-1,3.9277518E-1,3.7498793E-1,5.685214E-1,1.3915567E-1,-1.6226025E-1,-5.2991968E-2,-2.7488717E-1,1.9775617E-1,3.6272177E-1,-1.0095111E-1,1.0241779E-1],"categories":[],"categories_nodes":[],"categories_segments":[],"categories_sizes":[],"default_left":[true,true,true,true,true,true,true,true,true,true,true,true,true,true,true,true,true,false,true,true,true,true,true,true,true,true,true,true,true,true,true,false,false,false,false,false,false,false,false,false,false,false,false,false,false,false,false,false,false,false,false,false,false,false,false,false,false,false,false,false,false,false,false],"id":9,"left_children":[1,3,5,7,9,11,13,15,17,19,21,23,25,27,29,31,33,35,37,39,41,43,45,47,49,51,53,55,57,59,61,-1,-1,-1,-1,-1,-1,-1,-1,-1,-1,-1,-1,-1,-1,-1,-1,-1,-1,-1,-1,-1,-1,-1,-1,-1,-1,-1,-1,-1,-1,-1,-1],"loss_changes":[5.273958E3,7.3291846E2,7.398196E2,2.3238672E2,2.1090955E2,4.1982715E2,6.454187E2,3.130509E2,1.136709E2,1.1154193E2,7.429866E1,2.6686206E2,9.8276855E1,3.611954E2,5.711842E2,8.46062E1,7.0169365E1,1.4897217E1,8.292761E1,1.5793042E2,6.55874E1,3.884897E1,2.8419746E1,1.1790413E2,5.928131E1,5.671814E1,5.5017212E1,2.1896188E2,1.5774701E2,1.5505347E2,1.9967941E2,0E0,0E0,0E0,0E0,0E0,0E0,0E0,0E0,0E0,0E0,0E0,0E0,0E0,0E0,0E0,0E0,0E0,0E0,0E0,0E0,0E0,0E0,0E0,0E0,0E0,0E0,0E0,0E0,0E0,0E0,0E0,0E0],"parents":[2147483647,0,0,1,1,2,2,3,3,4,4,5,5,6,6,7,7,8,8,9,9,10,10,11,11,12,12,13,13,14,14,15,15,16,16,17,17,18,18,19,19,20,20,21,21,22,22,23,23,24,24,25,25,26,26,27,27,28,28,29,29,30,30],"right_children":[2,4,6,8,10,12,14,16,18,20,22,24,26,28,30,32,34,36,38,40,42,44,46,48,50,52,54,56,58,60,62,-1,-1,-1,-1,-1,-1,-1,-1,-1,-1,-1,-1,-1,-1,-1,-1,-1,-1,-1,-1,-1,-1,-1,-1,-1,-1,-1,-1,-1,-1,-1,-1],"split_conditions":[4.305E-2,7.75E-3,2.6750002E0,1.5E0,2.35E1,2.2015E-1,1.5E0,1.5E0,1.5E0,1.5E0,1.5E0,1.15E1,1.5E0,5.0243406E0,1.5E0,5E-1,3.115E0,4.1666666E-5,2.5E0,1.5E0,1.5E0,5.03034E0,1.5E0,3.25E0,4.729244E0,3.6811203E-2,4.062E-1,1.5E0,5.9478655E0,2.45E1,2.5E0,-3.2292984E-2,-1.9114243E-2,-1.1586335E-2,6.811303E-3,5.883288E-3,-4.691793E-2,-3.6262922E-2,-2.2067195E-2,-1.3370917E-2,5.142174E-3,-3.38964E-2,-1.4793659E-2,1.0235213E-2,-1.0931317E-2,2.541076E-2,8.2139345E-3,-9.061297E-3,1.3344715E-2,3.722187E-2,2.2847794E-2,2.6245022E-2,4.320527E-2,4.124867E-2,6.253735E-2,1.5307124E-2,-1.7848628E-2,-5.8291163E-3,-3.0237589E-2,2.1753179E-2,3.9899394E-2,-1.1104622E-2,1.1265957E-2],"split_indices":[9,9,8,31,22,9,30,30,30,31,30,22,32,38,31,21,8,24,5,30,30,38,31,6,38,23,9,31,38,22,5,0,0,0,0,0,0,0,0,0,0,0,0,0,0,0,0,0,0,0,0,0,0,0,0,0,0,0,0,0,0,0,0],"split_type":[0,0,0,0,0,0,0,0,0,0,0,0,0,0,0,0,0,0,0,0,0,0,0,0,0,0,0,0,0,0,0,0,0,0,0,0,0,0,0,0,0,0,0,0,0,0,0,0,0,0,0,0,0,0,0,0,0,0,0,0,0,0,0],"sum_hessian":[2.6132208E5,1.1389387E5,1.474282E5,6.824031E4,4.5653555E4,5.1549094E4,9.587912E4,4.22441E4,2.5996209E4,3.6612523E4,9.041031E3,3.507215E4,1.6476943E4,4.7505086E4,4.8374035E4,2.563172E4,1.661238E4,6.0639224E3,1.9932285E4,2.3403703E4,1.3208821E4,4.3423584E3,4.6986724E3,2.1031014E4,1.4041136E4,1.0375834E4,6.10111E3,1.9388016E4,2.811707E4,2.3463309E4,2.4910725E4,1.6430332E4,9.20139E3,1.3533949E4,3.0784314E3,6.514647E1,5.998776E3,9.935296E3,9.99699E3,1.4242095E4,9.161607E3,2.7458972E3,1.0462924E4,1.771012E3,2.5713464E3,2.5798403E3,2.1188323E3,3.3865186E3,1.7644496E4,6.320322E3,7.720814E3,6.646407E3,3.729427E3,3.6105996E3,2.49051E3,1.6568543E4,2.8194722E3,2.4430557E4,3.6865137E3,1.3705811E4,9.757498E3,6.549285E3,1.836144E4],"tree_param":{"num_deleted":"0","num_feature":"42","num_nodes":"63","size_leaf_vector":"0"}},{"base_weights":[-5.394689E-4,-1.6071528E-1,1.1119744E-1,-2.213821E-1,-6.904608E-2,1.5026106E-1,-2.9568456E-3,-2.4624306E-1,-9.058692E-2,-1.0707296E-1,4.3884516E-2,2.0836903E-1,4.1990254E-2,-6.11588E-2,1.3443959E-1,-2.0641276E-1,-3.0810007E-1,-6.87337E-2,-2.5579646E-1,-1.3235624E-1,3.5372432E-2,6.514653E-2,-8.7686695E-2,1.5382561E-1,2.8057107E-1,-1.14738934E-1,7.259274E-2,3.2872148E-2,-1.3678694E-1,6.31489E-2,2.3531754E-1,-2.6059055E-1,-1.1640778E-1,-4.1171253E-1,-2.7366936E-1,-2.5757413E-2,-1.4727835E-1,-4.145093E-1,-1.8058303E-1,-9.202989E-2,-2.0061062E-1,7.06496E-2,-1.0764728E-1,1.2402445E-1,-1.2898047E-2,-1.6615024E-1,-5.6035467E-3,7.3810264E-2,2.1465743E-1,1.87095E-1,3.3743274E-1,1.3001297E-1,-1.4980051E-1,3.0480856E-2,1.9113123E-1,-1.7180877E-2,1.850171E-1,-9.525026E-2,-2.8358886E-1,-7.023686E-2,9.332587E-2,2.900211E-1,1.555312E-1],"categories":[],"categories_nodes":[],"categories_segments":[],"categories_sizes":[],"default_left":[true,true,true,true,true,true,true,true,true,true,true,true,true,true,true,true,true,true,true,true,true,true,true,true,true,true,true,true,true,true,true,false,false,false,false,false,false,false,false,false,false,false,false,false,false,false,false,false,false,false,false,false,false,false,false,false,false,false,false,false,false,false,false],"id":10,"left_children":[1,3,5,7,9,11,13,15,17,19,21,23,25,27,29,31,33,35,37,39,41,43,45,47,49,51,53,55,57,59,61,-1,-1,-1,-1,-1,-1,-1,-1,-1,-1,-1,-1,-1,-1,-1,-1,-1,-1,-1,-1,-1,-1,-1,-1,-1,-1,-1,-1,-1,-1,-1,-1],"loss_changes":[4.6563315E3,5.945398E2,6.8341187E2,2.0916943E2,1.8284973E2,7.1836035E2,3.124755E2,1.3312256E2,3.7085014E1,1.1472061E2,3.0011908E1,2.925769E2,1.9128348E2,1.9519864E2,8.3604034E1,1.6033337E2,7.541724E1,3.063787E1,1.4252182E1,7.44386E1,2.4236244E1,4.24353E1,9.612496E0,2.0602637E2,1.6988867E2,5.5928368E1,1.665511E2,9.318588E1,9.2736084E1,2.7434282E1,2.0966797E1,0E0,0E0,0E0,0E0,0E0,0E0,0E0,0E0,0E0,0E0,0E0,0E0,0E0,0E0,0E0,0E0,0E0,0E0,0E0,0E0,0E0,0E0,0E0,0E0,0E0,0E0,0E0,0E0,0E0,0E0,0E0,0E0],"parents":[2147483647,0,0,1,1,2,2,3,3,4,4,5,5,6,6,7,7,8,8,9,9,10,10,11,11,12,12,13,13,14,14,15,15,16,16,17,17,18,18,19,19,20,20,21,21,22,22,23,23,24,24,25,25,26,26,27,27,28,28,29,29,30,30],"right_children":[2,4,6,8,10,12,14,16,18,20,22,24,26,28,30,32,34,36,38,40,42,44,46,48,50,52,54,56,58,60,62,-1,-1,-1,-1,-1,-1,-1,-1,-1,-1,-1,-1,-1,-1,-1,-1,-1,-1,-1,-1,-1,-1,-1,-1,-1,-1,-1,-1,-1,-1,-1,-1],"split_conditions":[3.605E-2,6.05E-3,5.2297173E0,5E-1,5E-1,1.5E0,1.5E0,1.5E0,5.4074183E0,2.45E1,5.4094334E0,1.5E0,1.5E0,3.75E0,2.95E1,1.5E0,1.5E0,1.5E0,2.546537E0,1.5E0,5.5142145E0,1.5E0,3.0425725E0,1.3095E-1,8.5E0,1.5E0,2.15E1,2.85E1,5.8865623E0,3.75E0,1.5E0,-2.8664961E-2,-1.2804856E-2,-4.5288377E-2,-3.010363E-2,-2.8333154E-3,-1.6200619E-2,-4.5596022E-2,-1.9864133E-2,-1.0123288E-2,-2.2067169E-2,7.771456E-3,-1.18412E-2,1.3642689E-2,-1.4187852E-3,-1.8276526E-2,-6.1639014E-4,8.119129E-3,2.3612317E-2,2.058045E-2,3.71176E-2,1.4301427E-2,-1.6478056E-2,3.3528942E-3,2.1024436E-2,-1.8898965E-3,2.0351881E-2,-1.0477528E-2,-3.1194774E-2,-7.7260546E-3,1.0265846E-2,3.190232E-2,1.7108431E-2],"split_indices":[9,9,38,11,11,31,30,31,38,22,38,30,30,8,22,30,30,31,29,31,38,33,29,9,22,8,22,22,38,6,31,0,0,0,0,0,0,0,0,0,0,0,0,0,0,0,0,0,0,0,0,0,0,0,0,0,0,0,0,0,0,0,0],"split_type":[0,0,0,0,0,0,0,0,0,0,0,0,0,0,0,0,0,0,0,0,0,0,0,0,0,0,0,0,0,0,0,0,0,0,0,0,0,0,0,0,0,0,0,0,0,0,0,0,0,0,0,0,0,0,0,0,0,0,0,0,0,0,0],"sum_hessian":[2.6016386E5,1.0690878E5,1.5325508E5,6.4332203E4,4.2576574E4,1.1418175E5,3.9073324E4,5.4056504E4,1.0275699E4,3.185138E4,1.0725194E4,7.430305E4,3.9878707E4,2.7447115E4,1.1626207E4,3.2885543E4,2.117096E4,9.076513E3,1.1991869E3,2.7050191E4,4.801191E3,9.23355E3,1.4916443E3,4.2329387E4,3.1973656E4,6.514133E3,3.3364574E4,1.2235225E4,1.5211891E4,6.8130405E3,4.813167E3,2.0527365E4,1.2358179E4,5.2777275E3,1.5893233E4,5.8674316E3,3.2090808E3,3.841196E2,8.150673E2,1.700536E4,1.0044831E4,3.8516506E3,9.495401E2,5.2627036E3,3.9708462E3,7.621134E2,7.2953094E2,1.8282996E4,2.4046393E4,1.2094897E4,1.987876E4,8.159036E2,5.6982295E3,2.4619521E4,8.745053E3,9.207128E3,3.028097E3,1.1858307E4,3.3535847E3,1.2567465E3,5.556294E3,2.8538557E3,1.9593113E3],"tree_param":{"num_deleted":"0","num_feature":"42","num_nodes":"63","size_leaf_vector":"0"}},{"base_weights":[-1.0466665E-3,-1.4569578E-1,1.1413529E-1,-2.0883292E-1,-5.5441916E-2,1.5939055E-1,2.7856616E-2,-2.3496549E-1,-7.570065E-2,-1.2282889E-1,-2.0409173E-3,2.2035432E-1,5.023892E-2,-2.5310444E-2,1.3768597E-1,-2.804476E-1,-1.5779755E-1,-4.3360077E-2,-1.6910496E-1,-7.5149745E-2,-1.8842717E-1,-7.3584005E-2,6.1825737E-2,1.7693721E-1,3.2423133E-1,-7.850226E-2,8.3557345E-2,1.7536832E-2,-1.4415047E-1,7.701645E-2,2.534287E-1,3.4169912E-1,-2.8713113E-1,-2.0491569E-1,-1.1707908E-1,9.7063035E-3,-9.958374E-2,-2.3377037E-1,-7.498511E-2,-1.2192189E-1,-1.034969E-2,-2.3925687E-1,-1.0063424E-1,1.0492537E-2,-1.3844042E-1,1.3082682E-1,-1.0763746E-2,1.17687866E-1,2.428746E-1,3.6169928E-1,2.6171353E-1,-1.4123824E-1,2.1560038E-2,-4.8507764E-3,1.353559E-1,4.594471E-2,-1.7860493E-1,-1.9963282E-1,-1.665893E-2,-6.594911E-2,1.138446E-1,3.0740517E-1,1.780575E-1],"categories":[],"categories_nodes":[],"categories_segments":[],"categories_sizes":[],"default_left":[true,true,true,true,true,true,true,true,true,true,true,true,true,true,true,false,true,true,true,true,true,true,true,true,true,true,true,true,true,true,true,false,false,false,false,false,false,false,false,false,false,false,false,false,false,false,false,false,false,false,false,false,false,false,false,false,false,false,false,false,false,false,false],"id":11,"left_children":[1,3,5,7,9,11,13,15,17,19,21,23,25,27,29,31,33,35,37,39,41,43,45,47,49,51,53,55,57,59,61,-1,-1,-1,-1,-1,-1,-1,-1,-1,-1,-1,-1,-1,-1,-1,-1,-1,-1,-1,-1,-1,-1,-1,-1,-1,-1,-1,-1,-1,-1,-1,-1],"loss_changes":[4.3112603E3,6.536428E2,5.62468E2,2.347976E2,1.6991032E2,6.287644E2,2.894256E2,1.979707E2,3.345033E1,6.5275024E1,1.2037114E2,2.7338037E2,1.4526462E2,1.7006479E2,1.1350864E2,1.4769336E2,4.0120056E1,2.455185E1,1.731807E1,3.6641808E1,3.918167E1,6.7755E1,6.971677E1,1.6702258E2,4.1764404E1,4.371169E1,1.2319722E2,1.3679164E2,6.2601944E1,5.586413E1,2.2563385E1,0E0,0E0,0E0,0E0,0E0,0E0,0E0,0E0,0E0,0E0,0E0,0E0,0E0,0E0,0E0,0E0,0E0,0E0,0E0,0E0,0E0,0E0,0E0,0E0,0E0,0E0,0E0,0E0,0E0,0E0,0E0,0E0],"parents":[2147483647,0,0,1,1,2,2,3,3,4,4,5,5,6,6,7,7,8,8,9,9,10,10,11,11,12,12,13,13,14,14,15,15,16,16,17,17,18,18,19,19,20,20,21,21,22,22,23,23,24,24,25,25,26,26,27,27,28,28,29,29,30,30],"right_children":[2,4,6,8,10,12,14,16,18,20,22,24,26,28,30,32,34,36,38,40,42,44,46,48,50,52,54,56,58,60,62,-1,-1,-1,-1,-1,-1,-1,-1,-1,-1,-1,-1,-1,-1,-1,-1,-1,-1,-1,-1,-1,-1,-1,-1,-1,-1,-1,-1,-1,-1,-1,-1],"split_conditions":[4.525E-2,7.75E-3,5.069376E0,5E-1,8.5E0,1.5E0,1.5E0,5E-1,5.064776E0,1.5E0,1.5E0,5E-1,3.25E0,5.6971273E0,3.45E1,8.333333E-5,1.5E0,1.5E0,5.615E0,1.5E0,3.75E0,4.980588E0,1.5E0,1.7175001E-1,9.0273464E-1,4.8809525E-2,1.1685E-1,1.5E0,6.065E0,3.75E0,1.5E0,3.7586905E-2,-3.1584423E-2,-2.2540726E-2,-1.2878698E-2,1.0676933E-3,-1.09542115E-2,-2.571474E-2,-8.248362E-3,-1.3411407E-2,-1.138466E-3,-2.6318256E-2,-1.1069766E-2,1.1541791E-3,-1.5228446E-2,1.439095E-2,-1.184012E-3,1.2945665E-2,2.6716206E-2,3.978692E-2,2.8788488E-2,-1.5536207E-2,2.371604E-3,-5.335854E-4,1.4889149E-2,5.053918E-3,-1.9646542E-2,-2.195961E-2,-1.8324823E-3,-7.254402E-3,1.2522906E-2,3.3814568E-2,1.9586327E-2],"split_indices":[9,9,38,11,22,31,30,21,38,33,30,11,6,38,22,24,30,33,10,30,6,38,31,9,23,23,9,31,10,6,31,0,0,0,0,0,0,0,0,0,0,0,0,0,0,0,0,0,0,0,0,0,0,0,0,0,0,0,0,0,0,0,0],"split_type":[0,0,0,0,0,0,0,0,0,0,0,0,0,0,0,0,0,0,0,0,0,0,0,0,0,0,0,0,0,0,0,0,0,0,0,0,0,0,0,0,0,0,0,0,0,0,0,0,0,0,0,0,0,0,0,0,0,0,0,0,0,0,0],"sum_hessian":[2.5876214E5,1.1470799E5,1.4405416E5,6.749235E4,4.7215637E4,9.449066E4,4.9563492E4,5.6417406E4,1.1074948E4,2.0873705E4,2.634193E4,6.0627656E4,3.3863004E4,3.339712E4,1.6166373E4,3.5494574E4,2.0922832E4,8.227649E3,2.8472996E3,1.208908E4,8.784626E3,1.2424227E4,1.3917704E4,4.2758664E4,1.7868992E4,6.9617397E3,2.6901262E4,2.454748E4,8.84964E3,1.0607727E4,5.558646E3,3.767209E2,3.511785E4,9.697338E3,1.1225493E4,4.233094E3,3.9945547E3,1.6868555E3,1.1604441E3,7.0207085E3,5.068371E3,5.562414E3,3.2222117E3,5.410791E3,7.0134355E3,7.1348027E3,6.782902E3,2.2522984E4,2.023568E4,1.1169896E4,6.6990957E3,4.278709E3,2.6830305E3,9.938853E3,1.696241E4,2.1442637E4,3.104844E3,6.1658086E3,2.6838308E3,2.172678E3,8.435049E3,3.237242E3,2.3214038E3],"tree_param":{"num_deleted":"0","num_feature":"42","num_nodes":"63","size_leaf_vector":"0"}},{"base_weights":[-9.99306E-4,-1.7348708E-1,9.087216E-2,-2.028471E-1,-4.5030408E-2,6.6859457E-3,1.3784364E-1,-2.4086903E-1,-1.3060603E-1,-8.8095926E-2,1.215738E-2,-3.148035E-2,1.0938351E-1,2.5584292E-1,8.7052986E-2,2.4978036E-1,-2.467133E-1,-9.134903E-2,-2.0015599E-1,-6.881146E-2,-2.5478142E-1,6.309435E-2,-6.273787E-2,7.6336097E-3,-1.0673236E-1,1.5645482E-1,-1.4614165E-2,2.2204292E-1,3.980519E-1,1.1406731E-1,-8.1539035E-2,-2.9575524E-1,5.4418135E-1,-2.1168005E-1,-3.013792E-1,-1.437514E-1,-9.933984E-3,-3.1962147E-1,-1.6574843E-1,-9.483029E-2,1.3541366E-2,-4.1633335E-1,-1.6570629E-1,-6.8886625E-3,1.3880531E-1,-1.553465E-1,2.2617279E-2,-4.183966E-2,1.0137061E-1,-2.1822338E-1,-7.5177215E-2,2.1320856E-1,8.18616E-2,1.0205361E-1,-6.4628616E-2,1.8551512E-1,3.5809985E-1,3.5548687E-1,5.002877E-1,3.346773E-2,1.6907828E-1,-1.3725051E-1,1.0657923E-1],"categories":[],"categories_nodes":[],"categories_segments":[],"categories_sizes":[],"default_left":[true,true,true,true,true,true,true,false,true,true,true,true,true,true,true,true,true,true,true,true,true,true,true,true,true,true,true,true,true,true,true,false,false,false,false,false,false,false,false,false,false,false,false,false,false,false,false,false,false,false,false,false,false,false,false,false,false,false,false,false,false,false,false],"id":12,"left_children":[1,3,5,7,9,11,13,15,17,19,21,23,25,27,29,31,33,35,37,39,41,43,45,47,49,51,53,55,57,59,61,-1,-1,-1,-1,-1,-1,-1,-1,-1,-1,-1,-1,-1,-1,-1,-1,-1,-1,-1,-1,-1,-1,-1,-1,-1,-1,-1,-1,-1,-1,-1,-1],"loss_changes":[4.087764E3,3.380913E2,6.655571E2,2.0039404E2,4.107844E1,2.3626813E2,6.4744946E2,1.3714331E2,6.868713E1,3.0565842E1,2.7340357E1,1.293539E2,9.5329056E1,1.5616602E2,3.43987E2,9.0617584E1,9.041333E1,6.862991E1,3.726288E1,1.8276852E1,1.412323E1,2.260148E1,2.2936016E1,1.341089E2,5.2861465E1,5.0099457E1,2.6234577E1,1.30479E2,2.6982727E1,2.8862213E2,1.09337296E2,0E0,0E0,0E0,0E0,0E0,0E0,0E0,0E0,0E0,0E0,0E0,0E0,0E0,0E0,0E0,0E0,0E0,0E0,0E0,0E0,0E0,0E0,0E0,0E0,0E0,0E0,0E0,0E0,0E0,0E0,0E0,0E0],"parents":[2147483647,0,0,1,1,2,2,3,3,4,4,5,5,6,6,7,7,8,8,9,9,10,10,11,11,12,12,13,13,14,14,15,15,16,16,17,17,18,18,19,19,20,20,21,21,22,22,23,23,24,24,25,25,26,26,27,27,28,28,29,29,30,30],"right_children":[2,4,6,8,10,12,14,16,18,20,22,24,26,28,30,32,34,36,38,40,42,44,46,48,50,52,54,56,58,60,62,-1,-1,-1,-1,-1,-1,-1,-1,-1,-1,-1,-1,-1,-1,-1,-1,-1,-1,-1,-1,-1,-1,-1,-1,-1,-1,-1,-1,-1,-1,-1,-1],"split_conditions":[2.1949999E-2,5E-1,9.315E-2,2.95E-3,4.5499997E-3,5E-1,2.6E0,8.333333E-5,1.5E0,5.467807E0,1.5E0,1.5E0,5.12319E0,5E-1,5.5867805E0,-5E-1,1.5E0,1.5E0,1.5E0,1.95E1,2.6717172E0,1.5E0,1.15E1,1.5E0,1.5E0,1.5E0,2.8E0,3.8695002E-1,3.0400002E-1,1.25E1,1.5E0,-3.2533076E-2,5.9859946E-2,-2.3284806E-2,-3.3151712E-2,-1.5812654E-2,-1.0927382E-3,-3.5158362E-2,-1.8232327E-2,-1.0431332E-2,1.4895502E-3,-4.5796666E-2,-1.8227693E-2,-7.5775286E-4,1.5268585E-2,-1.7088115E-2,2.4879007E-3,-4.6023624E-3,1.1150767E-2,-2.4004571E-2,-8.2694935E-3,2.3452941E-2,9.004776E-3,1.1225897E-2,-7.1091475E-3,2.0406663E-2,3.9390985E-2,3.9103556E-2,5.503165E-2,3.6814502E-3,1.859861E-2,-1.5097557E-2,1.1723715E-2],"split_indices":[9,11,9,9,9,11,8,24,31,38,33,31,38,11,38,9,31,30,30,22,29,30,22,30,30,33,8,9,9,22,30,0,0,0,0,0,0,0,0,0,0,0,0,0,0,0,0,0,0,0,0,0,0,0,0,0,0,0,0,0,0,0,0],"split_type":[0,0,0,0,0,0,0,0,0,0,0,0,0,0,0,0,0,0,0,0,0,0,0,0,0,0,0,0,0,0,0,0,0,0,0,0,0,0,0,0,0,0,0,0,0,0,0,0,0,0,0,0,0,0,0,0,0,0,0,0,0,0,0],"sum_hessian":[2.579547E5,8.964542E4,1.6830928E5,7.296743E4,1.6677988E4,6.0276977E4,1.08032305E5,4.7804582E4,2.516285E4,9.513365E3,7.164623E3,4.3945766E4,1.6331213E4,3.2506832E4,7.552547E4,5.6222003E2,4.7242363E4,1.6085702E4,9.077147E3,8.528128E3,9.8523804E2,4.2644727E3,2.900151E3,2.89166E4,1.5029166E4,1.1837329E4,4.4938833E3,2.6266428E4,6.2404043E3,6.5095266E4,1.0430207E4,1.9705865E2,3.6516138E2,2.8794178E4,1.8448184E4,9.78614E3,6.2995625E3,2.027888E3,7.04926E3,6.480504E3,2.0476238E3,3.4885684E2,6.363812E2,2.2165374E3,2.0479352E3,1.3905796E3,1.5095712E3,1.8927463E4,9.989135E3,3.314041E3,1.1715126E4,6.72148E3,5.1158496E3,1.3481166E3,3.1457668E3,2.0708963E4,5.5574634E3,4.409164E3,1.8312402E3,2.6406812E4,3.8688453E4,8.047268E3,2.3829387E3],"tree_param":{"num_deleted":"0","num_feature":"42","num_nodes":"63","size_leaf_vector":"0"}},{"base_weights":[6.7507115E-4,-1.7183457E-1,3.9170187E-2,-2.1821314E-1,-9.393198E-2,4.4067277E-4,1.4527419E-1,-2.4787103E-1,-6.1748564E-2,-1.7714247E-1,-6.4232394E-2,3.5537962E-2,-7.178949E-2,1.9098657E-1,4.373317E-2,-1.9589128E-1,-3.1937492E-1,-2.7055797E-1,-2.6534183E-2,-2.2532319E-1,-8.392802E-2,-1.173574E-1,-9.320295E-3,-1.393435E-2,1.2910856E-1,-1.9166134E-1,-3.700611E-2,2.4475737E-1,1.20778024E-1,-5.1928707E-3,1.2171187E-1,2.7985665E-1,-2.0387974E-1,-3.4201357E-1,-1.3562895E-1,3.5557666E-1,-3.0725467E-1,-2.553763E-1,-2.1249694E-3,-2.633546E-1,-6.711915E-2,-5.3526863E-2,-5.074591E-1,3.6921385E-1,-1.24361E-1,-2.781764E-2,1.51348E-1,4.976886E-2,-6.996913E-2,1.8222731E-1,5.196398E-2,-1.6061224E-1,-2.767803E-1,-6.4604476E-2,1.5009217E-1,2.741811E-1,1.5264092E-1,6.4508006E-2,2.1804486E-1,3.7285026E-2,-1.0510932E-1,7.128346E-2,2.5552058E-1],"categories":[],"categories_nodes":[],"categories_segments":[],"categories_sizes":[],"default_left":[true,true,true,true,true,true,true,true,false,true,true,true,true,true,true,false,true,false,true,true,true,false,true,true,true,true,true,true,true,true,true,false,false,false,false,false,false,false,false,false,false,false,false,false,false,false,false,false,false,false,false,false,false,false,false,false,false,false,false,false,false,false,false],"id":13,"left_children":[1,3,5,7,9,11,13,15,17,19,21,23,25,27,29,31,33,35,37,39,41,43,45,47,49,51,53,55,57,59,61,-1,-1,-1,-1,-1,-1,-1,-1,-1,-1,-1,-1,-1,-1,-1,-1,-1,-1,-1,-1,-1,-1,-1,-1,-1,-1,-1,-1,-1,-1,-1,-1],"loss_changes":[1.703355E3,1.6905042E2,8.617495E2,1.360951E2,4.314885E1,3.8946442E2,2.6028052E2,9.158264E1,3.4370003E1,2.060997E1,3.7549824E1,4.7861536E2,2.094656E2,1.4594922E2,6.6420364E1,5.4330383E1,4.3122803E1,1.5608578E1,2.2352062E1,1.8197891E1,2.014605E1,2.2341064E1,1.8818752E1,2.4142793E2,1.4652301E2,2.9817017E1,2.0108467E2,5.930652E1,9.178604E1,4.541043E1,4.5272118E1,0E0,0E0,0E0,0E0,0E0,0E0,0E0,0E0,0E0,0E0,0E0,0E0,0E0,0E0,0E0,0E0,0E0,0E0,0E0,0E0,0E0,0E0,0E0,0E0,0E0,0E0,0E0,0E0,0E0,0E0,0E0,0E0],"parents":[2147483647,0,0,1,1,2,2,3,3,4,4,5,5,6,6,7,7,8,8,9,9,10,10,11,11,12,12,13,13,14,14,15,15,16,16,17,17,18,18,19,19,20,20,21,21,22,22,23,23,24,24,25,25,26,26,27,27,28,28,29,29,30,30],"right_children":[2,4,6,8,10,12,14,16,18,20,22,24,26,28,30,32,34,36,38,40,42,44,46,48,50,52,54,56,58,60,62,-1,-1,-1,-1,-1,-1,-1,-1,-1,-1,-1,-1,-1,-1,-1,-1,-1,-1,-1,-1,-1,-1,-1,-1,-1,-1,-1,-1,-1,-1,-1,-1],"split_conditions":[2.2610001E-2,5E-1,5E-1,5E-1,2.5E0,1.5E0,5.081994E0,1.5E0,3.8428572E-3,7.225E-3,1.5E0,1.5E0,1.5E0,1.5E0,1.5E0,6.1904764E-5,2.5E0,2.5E-5,1.3100961E0,1.55E1,1.5E0,7.857143E-5,1.45E1,4.966265E0,1.5E0,5.2930536E0,2.95E1,5E-1,2.45E1,5.627783E0,4.65E1,3.078423E-2,-2.2426771E-2,-3.762149E-2,-1.4919185E-2,3.9113432E-2,-3.3798013E-2,-2.8091393E-2,-2.3374663E-4,-2.8969007E-2,-7.3831067E-3,-5.887955E-3,-5.5820502E-2,4.0613525E-2,-1.367971E-2,-3.0599404E-3,1.664828E-2,5.474575E-3,-7.6966044E-3,2.0045005E-2,5.716038E-3,-1.7667346E-2,-3.0445833E-2,-7.1064923E-3,1.6510138E-2,3.015992E-2,1.6790502E-2,7.095881E-3,2.3984935E-2,4.1013528E-3,-1.1562025E-2,7.84118E-3,2.8107263E-2],"split_indices":[24,21,11,11,5,31,38,31,24,24,30,30,30,33,30,24,30,24,29,1,35,24,22,38,33,38,22,21,22,38,22,0,0,0,0,0,0,0,0,0,0,0,0,0,0,0,0,0,0,0,0,0,0,0,0,0,0,0,0,0,0,0,0],"split_type":[0,0,0,0,0,0,0,0,0,0,0,0,0,0,0,0,0,0,0,0,0,0,0,0,0,0,0,0,0,0,0,0,0,0,0,0,0,0,0,0,0,0,0,0,0,0,0,0,0,0,0,0,0,0,0,0,0,0,0,0,0,0,0],"sum_hessian":[2.5649727E5,4.679401E4,2.0970327E5,2.9330547E4,1.7463463E4,1.5362786E5,5.607541E4,2.4656348E4,4.674199E3,4.59224E3,1.2871222E4,1.0339016E5,5.0237703E4,3.866712E4,1.740829E4,1.42795625E4,1.0376786E4,6.7355597E2,4.0006433E3,3.02649E3,1.5657501E3,6.5414873E3,6.329735E3,6.763256E4,3.5757594E4,1.1297906E4,3.8939797E4,2.1895484E4,1.6771635E4,1.0697383E4,6.7109062E3,2.3525224E2,1.4044311E4,9.237773E3,1.1390127E3,3.680937E1,6.3674664E2,3.8468344E2,3.61596E3,2.4394053E3,5.870847E2,1.4619382E3,1.0381185E2,9.208677E1,6.4494004E3,5.6769844E3,6.527504E2,3.1650621E4,3.5981938E4,2.1175562E4,1.458203E4,8.280348E3,3.017559E3,3.3934816E4,5.0049795E3,1.6593297E4,5.3021885E3,1.062602E4,6.1456147E3,7.506668E3,3.1907144E3,4.8751455E3,1.8357609E3],"tree_param":{"num_deleted":"0","num_feature":"42","num_nodes":"63","size_leaf_vector":"0"}},{"base_weights":[-5.706699E-4,-1.3160671E-1,1.0328692E-1,-1.942351E-1,-5.3173672E-2,1.8567169E-1,5.9533853E-2,-2.1627556E-1,-7.8841165E-2,-1.0720477E-1,1.6255097E-2,1.16744004E-1,2.745022E-1,1.4804662E-2,1.5120913E-1,-2.5915566E-1,-1.4386828E-1,-1.5264215E-1,-3.0153329E-2,-5.9520707E-2,-1.7582744E-1,-4.022088E-2,6.7349784E-2,4.907872E-2,2.1661271E-1,2.3311982E-1,3.6196935E-1,-2.2253964E-2,1.0720672E-1,2.134152E-1,9.943652E-2,2.9268068E-1,-2.6549074E-1,-2.0849116E-1,-1.20544694E-1,-2.4441664E-1,-1.208209E-1,2.37063E-2,-8.9218184E-2,-1.0795929E-1,8.183416E-3,-1.6605562E-1,-5.037171E-1,-7.570918E-2,3.8176224E-2,1.3801919E-1,-8.945487E-3,9.223235E-2,-3.9844025E-2,1.7346935E-1,3.2703596E-1,1.5170056E-1,2.9260418E-1,2.935543E-1,4.8127303E-1,1.8347822E-2,-9.271215E-2,2.5248038E-2,2.109275E-1,1.2815791E-1,2.913777E-1,1.8514026E-2,1.652894E-1],"categories":[],"categories_nodes":[],"categories_segments":[],"categories_sizes":[],"default_left":[true,true,true,true,true,true,true,true,true,true,true,true,true,true,true,false,true,true,true,true,true,true,true,true,true,true,true,true,true,true,true,false,false,false,false,false,false,false,false,false,false,false,false,false,false,false,false,false,false,false,false,false,false,false,false,false,false,false,false,false,false,false,false],"id":14,"left_children":[1,3,5,7,9,11,13,15,17,19,21,23,25,27,29,31,33,35,37,39,41,43,45,47,49,51,53,55,57,59,61,-1,-1,-1,-1,-1,-1,-1,-1,-1,-1,-1,-1,-1,-1,-1,-1,-1,-1,-1,-1,-1,-1,-1,-1,-1,-1,-1,-1,-1,-1,-1,-1],"loss_changes":[3.4799617E3,5.553601E2,5.1417505E2,1.5986646E2,1.8831052E2,3.0292407E2,3.8204462E2,1.6384106E2,3.6226032E1,9.2362274E1,6.3398712E1,1.8827478E2,7.816333E1,2.1442749E2,9.83725E1,1.1596362E2,2.9567871E1,1.1674347E1,1.9332506E1,5.4628426E1,3.699774E1,2.9037474E1,6.2193375E1,6.3743633E1,5.3553467E1,7.104193E1,5.6513367E1,1.2786121E2,1.5237224E2,9.219867E1,8.886305E1,0E0,0E0,0E0,0E0,0E0,0E0,0E0,0E0,0E0,0E0,0E0,0E0,0E0,0E0,0E0,0E0,0E0,0E0,0E0,0E0,0E0,0E0,0E0,0E0,0E0,0E0,0E0,0E0,0E0,0E0,0E0,0E0],"parents":[2147483647,0,0,1,1,2,2,3,3,4,4,5,5,6,6,7,7,8,8,9,9,10,10,11,11,12,12,13,13,14,14,15,15,16,16,17,17,18,18,19,19,20,20,21,21,22,22,23,23,24,24,25,25,26,26,27,27,28,28,29,29,30,30],"right_children":[2,4,6,8,10,12,14,16,18,20,22,24,26,28,30,32,34,36,38,40,42,44,46,48,50,52,54,56,58,60,62,-1,-1,-1,-1,-1,-1,-1,-1,-1,-1,-1,-1,-1,-1,-1,-1,-1,-1,-1,-1,-1,-1,-1,-1,-1,-1,-1,-1,-1,-1,-1,-1],"split_conditions":[4.5050003E-2,6.05E-3,2.6750002E0,5E-1,1.15E1,1.6415E-1,5E-1,5E-1,1.5E0,1.5E0,1.5E0,1.15E1,3.8865E-1,2.85E1,4.12E0,8.333333E-5,2.5E0,8.5E0,1.5E0,1.5E0,4.2364998E1,5E-1,1.5E0,1.5E0,5E-1,6.5E0,1.5E0,1.5E0,1.5E0,1.3735E-1,1.5E0,3.2194875E-2,-2.9203981E-2,-2.2934027E-2,-1.3259917E-2,-2.688583E-2,-1.3290299E-2,2.607693E-3,-9.814001E-3,-1.1875522E-2,9.001758E-4,-1.8266117E-2,-5.5408884E-2,-8.328009E-3,4.1993847E-3,1.51821105E-2,-9.840037E-4,1.0145558E-2,-4.3828427E-3,1.9081628E-2,3.5973955E-2,1.6687062E-2,3.218646E-2,3.2290973E-2,5.2940033E-2,2.0182605E-3,-1.0198336E-2,2.777284E-3,2.3202024E-2,1.409737E-2,3.2051545E-2,2.0365429E-3,1.8181834E-2],"split_indices":[9,9,8,11,22,9,11,21,30,33,30,22,9,22,8,24,5,40,31,30,36,16,31,31,11,22,32,31,30,9,30,0,0,0,0,0,0,0,0,0,0,0,0,0,0,0,0,0,0,0,0,0,0,0,0,0,0,0,0,0,0,0,0],"split_type":[0,0,0,0,0,0,0,0,0,0,0,0,0,0,0,0,0,0,0,0,0,0,0,0,0,0,0,0,0,0,0,0,0,0,0,0,0,0,0,0,0,0,0,0,0,0,0,0,0,0,0,0,0,0,0,0,0,0,0,0,0,0,0],"sum_hessian":[2.5570664E5,1.1305989E5,1.4264675E5,6.2862793E4,5.0197098E4,4.9478348E4,9.316841E4,5.2780707E4,1.0082083E4,2.8228484E4,2.1968613E4,2.786158E4,2.161677E4,6.261779E4,3.055062E4,3.3147777E4,1.9632932E4,4.0066584E3,6.075425E3,1.6656318E4,1.1572166E4,1.0434911E4,1.1533703E4,1.6609459E4,1.1252122E4,1.467664E4,6.9401294E3,4.4693742E4,1.7924047E4,1.3875609E4,1.667501E4,3.7570456E2,3.2772074E4,5.20459E3,1.4428341E4,1.0298433E3,2.9768152E3,3.178048E3,2.8973765E3,9.709272E3,6.947047E3,1.1238733E4,3.3343237E2,7.1832686E3,3.2516423E3,5.9871885E3,5.546514E3,1.1182586E4,5.4268726E3,8.092773E3,3.1593484E3,6.197439E3,8.479201E3,4.412963E3,2.5271663E3,2.8354879E4,1.6338863E4,1.001309E4,7.9109565E3,6.628995E3,7.2466143E3,7.482057E3,9.192952E3],"tree_param":{"num_deleted":"0","num_feature":"42","num_nodes":"63","size_leaf_vector":"0"}},{"base_weights":[-2.3300967E-3,-1.6344316E-1,7.7150784E-2,-1.8969044E-1,-4.636048E-2,3.7968364E-3,1.2106421E-1,-2.2827789E-1,-1.22589365E-1,-1.6369471E-2,-1.0573912E-1,-9.632608E-2,3.737757E-2,1.9603108E-1,4.979247E-2,-2.7574155E-1,-1.675005E-1,-1.5761088E-1,-5.3911965E-2,-7.294885E-2,4.625434E-2,-1.377307E-1,4.1941024E-2,-4.2823527E-2,-1.6863556E-1,4.238654E-3,1.15260914E-1,1.641804E-1,3.1939638E-1,1.0675844E-2,1.8280023E-1,2.7028137E-1,-2.83403E-1,-2.4664897E-1,-9.216106E-2,-1.770604E-1,-8.709166E-2,-9.258753E-3,-1.3185322E-1,-1.2456852E-1,-1.0960724E-2,-5.7881642E-2,9.081066E-2,1.4098558E-1,-1.5296704E-1,1.2212554E-1,-1.7285237E-1,-2.578986E-4,-1.0849871E-1,-2.4652809E-1,-1.1815092E-1,-1.8333726E-2,9.779281E-2,1.7005433E-1,5.568493E-2,2.7302572E-1,1.2711099E-1,2.8458288E-1,4.2755017E-1,-3.3807773E-2,1.0380952E-1,9.107332E-2,2.7367204E-1],"categories":[],"categories_nodes":[],"categories_segments":[],"categories_sizes":[],"default_left":[true,true,true,true,true,true,true,true,true,true,true,true,true,true,true,false,true,true,true,true,true,true,true,true,true,true,true,true,true,true,true,false,false,false,false,false,false,false,false,false,false,false,false,false,false,false,false,false,false,false,false,false,false,false,false,false,false,false,false,false,false,false,false],"id":15,"left_children":[1,3,5,7,9,11,13,15,17,19,21,23,25,27,29,31,33,35,37,39,41,43,45,47,49,51,53,55,57,59,61,-1,-1,-1,-1,-1,-1,-1,-1,-1,-1,-1,-1,-1,-1,-1,-1,-1,-1,-1,-1,-1,-1,-1,-1,-1,-1,-1,-1,-1,-1,-1,-1],"loss_changes":[3.253952E3,2.5796313E2,5.4813074E2,1.7752368E2,2.7376263E1,2.1425053E2,5.687079E2,1.2554028E2,6.0213318E1,3.6200024E1,2.4379604E1,6.1910522E1,1.2315976E2,2.037804E2,2.8389868E2,1.0233154E2,1.1382678E2,2.272757E1,2.9433765E1,1.7172873E1,2.2506472E1,1.8029968E1,1.5855292E1,2.5718258E1,2.6733643E1,7.069474E1,4.648642E1,1.6633191E2,3.9954834E1,1.7469843E2,1.03339386E2,0E0,0E0,0E0,0E0,0E0,0E0,0E0,0E0,0E0,0E0,0E0,0E0,0E0,0E0,0E0,0E0,0E0,0E0,0E0,0E0,0E0,0E0,0E0,0E0,0E0,0E0,0E0,0E0,0E0,0E0,0E0,0E0],"parents":[2147483647,0,0,1,1,2,2,3,3,4,4,5,5,6,6,7,7,8,8,9,9,10,10,11,11,12,12,13,13,14,14,15,15,16,16,17,17,18,18,19,19,20,20,21,21,22,22,23,23,24,24,25,25,26,26,27,27,28,28,29,29,30,30],"right_children":[2,4,6,8,10,12,14,16,18,20,22,24,26,28,30,32,34,36,38,40,42,44,46,48,50,52,54,56,58,60,62,-1,-1,-1,-1,-1,-1,-1,-1,-1,-1,-1,-1,-1,-1,-1,-1,-1,-1,-1,-1,-1,-1,-1,-1,-1,-1,-1,-1,-1,-1,-1,-1],"split_conditions":[1.8849999E-2,5E-1,9.315E-2,5E-1,1.5E0,5.5E0,3.415E0,7.5E0,2.15E-3,1.5E0,2.45E1,1.5E0,5E-1,5E-1,5.05E1,8.75E-5,1.5E0,1.55E1,1.5E0,1.9500001E-3,1.18E2,5E-1,-1.5316925E1,2.8E0,3.25E0,2.95E1,3.315E0,1.7E0,3.2230002E-1,5E-1,1.5E0,2.9730951E-2,-3.117433E-2,-2.7131386E-2,-1.0137716E-2,-1.9476643E-2,-9.580083E-3,-1.0184628E-3,-1.4503854E-2,-1.3702537E-2,-1.2056796E-3,-6.3669807E-3,9.989172E-3,1.5508413E-2,-1.6826374E-2,1.3433809E-2,-1.901376E-2,-2.8368844E-5,-1.1934858E-2,-2.711809E-2,-1.2996601E-2,-2.01671E-3,1.0757209E-2,1.8705977E-2,6.1253426E-3,3.0032828E-2,1.3982208E-2,3.1304117E-2,4.703052E-2,-3.718855E-3,1.1419048E-2,1.0018065E-2,3.0103926E-2],"split_indices":[9,11,9,21,31,22,8,22,9,30,22,33,11,11,22,24,30,1,31,9,3,14,25,8,6,22,8,8,9,11,30,0,0,0,0,0,0,0,0,0,0,0,0,0,0,0,0,0,0,0,0,0,0,0,0,0,0,0,0,0,0,0,0],"split_type":[0,0,0,0,0,0,0,0,0,0,0,0,0,0,0,0,0,0,0,0,0,0,0,0,0,0,0,0,0,0,0,0,0,0,0,0,0,0,0,0,0,0,0,0,0,0,0,0,0,0,0,0,0,0,0,0,0,0,0,0,0,0,0],"sum_hessian":[2.5410562E5,8.394415E4,1.7016147E5,6.857138E4,1.5372766E4,6.372122E4,1.0644025E5,4.3534074E4,2.5037312E4,1.0214761E4,5.158005E3,1.6003621E4,4.7717598E4,5.1874516E4,5.456573E4,2.4442418E4,1.9091654E4,1.658078E4,8.456534E3,5.3662734E3,4.8484873E3,4.2396475E3,9.18357E2,9.19887E3,6.804751E3,3.3475164E4,1.4242437E4,4.1231598E4,1.064292E4,4.2166074E4,1.2399658E4,3.3774084E2,2.4104678E4,9.309356E3,9.782298E3,1.2995146E4,3.5856323E3,5.377078E3,3.0794556E3,2.9274631E3,2.4388103E3,1.4527815E3,3.3957058E3,2.1932431E2,4.0203232E3,6.690321E2,2.4932492E2,5.5820293E3,3.6168406E3,2.674458E3,4.130293E3,2.6968994E4,6.5061685E3,7.4180386E3,6.824398E3,1.0473204E4,3.0758393E4,8.0540435E3,2.588876E3,2.8536682E4,1.3629393E4,6.171792E3,6.227866E3],"tree_param":{"num_deleted":"0","num_feature":"42","num_nodes":"63","size_leaf_vector":"0"}},{"base_weights":[5.566951E-4,-1.5699226E-1,7.5388804E-2,-1.7929368E-1,-5.6951467E-2,8.316472E-5,1.15699306E-1,-2.1717902E-1,-1.13787726E-1,-2.0316998E-2,-1.0502928E-1,-3.1660184E-2,8.6924575E-2,2.191851E-1,7.044741E-2,-2.5037852E-1,-1.3210881E-1,-1.4561646E-1,-4.7252614E-2,5.0806075E-2,-6.114275E-2,-2.2622558E-1,-7.03926E-2,-7.1976505E-2,2.5510307E-2,1.3247663E-1,-2.994667E-2,1.6321139E-1,2.9375035E-1,2.7245164E-2,1.6130535E-1,-1.942732E-1,-3.1423298E-1,-2.1948291E-1,-4.4213183E-2,-1.848255E-1,-1.1172046E-1,-1.0877283E-1,4.3825936E-3,9.91948E-2,-1.00917764E-1,-1.0396241E-1,8.338008E-3,-5.938151E-2,-2.6890203E-1,-1.8714392E-1,-3.1144645E-2,-3.2379292E-2,-1.3142116E-1,8.675857E-2,-4.7114756E-2,2.296103E-1,9.405913E-2,2.0546801E-3,-1.471334E-1,1.0167712E-1,2.5881076E-1,3.4380406E-1,2.411071E-1,4.1839685E-2,-2.1492253E-1,2.3836085E-1,1.04135156E-1],"categories":[],"categories_nodes":[],"categories_segments":[],"categories_sizes":[],"default_left":[true,true,true,true,true,true,true,true,true,true,true,true,true,true,true,true,true,true,true,true,true,true,true,true,true,true,true,true,true,true,true,false,false,false,false,false,false,false,false,false,false,false,false,false,false,false,false,false,false,false,false,false,false,false,false,false,false,false,false,false,false,false,false],"id":16,"left_children":[1,3,5,7,9,11,13,15,17,19,21,23,25,27,29,31,33,35,37,39,41,43,45,47,49,51,53,55,57,59,61,-1,-1,-1,-1,-1,-1,-1,-1,-1,-1,-1,-1,-1,-1,-1,-1,-1,-1,-1,-1,-1,-1,-1,-1,-1,-1,-1,-1,-1,-1,-1,-1],"loss_changes":[2.9892388E3,1.8215002E2,5.2181616E2,1.656643E2,2.6214554E1,1.6522119E2,5.24307E2,1.19430786E2,5.180591E1,2.453607E1,2.7004753E1,1.01168396E2,8.541728E1,1.4212317E2,3.0578183E2,1.0893494E2,9.119411E1,2.1973328E1,2.5153803E1,2.2635342E1,1.5972183E1,1.0167816E1,2.2940084E1,6.058452E1,8.074936E1,4.305835E1,1.6877295E1,1.144483E2,3.8400757E1,1.8661594E2,1.10567505E2,0E0,0E0,0E0,0E0,0E0,0E0,0E0,0E0,0E0,0E0,0E0,0E0,0E0,0E0,0E0,0E0,0E0,0E0,0E0,0E0,0E0,0E0,0E0,0E0,0E0,0E0,0E0,0E0,0E0,0E0,0E0,0E0],"parents":[2147483647,0,0,1,1,2,2,3,3,4,4,5,5,6,6,7,7,8,8,9,9,10,10,11,11,12,12,13,13,14,14,15,15,16,16,17,17,18,18,19,19,20,20,21,21,22,22,23,23,24,24,25,25,26,26,27,27,28,28,29,29,30,30],"right_children":[2,4,6,8,10,12,14,16,18,20,22,24,26,28,30,32,34,36,38,40,42,44,46,48,50,52,54,56,58,60,62,-1,-1,-1,-1,-1,-1,-1,-1,-1,-1,-1,-1,-1,-1,-1,-1,-1,-1,-1,-1,-1,-1,-1,-1,-1,-1,-1,-1,-1,-1,-1,-1],"split_conditions":[1.765E-2,5E-1,8.385E-2,5E-1,1.5E0,5E-1,2.6E0,1.15E1,2.15E-3,4.581748E0,1.5E0,1.25E1,5.120416E0,9.5E0,5E-1,1.5E0,1.5E0,1.5E0,1.0102041E0,1.5E0,1.5E0,5E-5,2.5E0,1.5E0,5.00579E0,2.25E0,5.7348933E0,2.6E-1,2.0149999E0,5.92463E0,4.1000004E0,-2.1370051E-2,-3.4565628E-2,-2.414312E-2,-4.8634503E-3,-2.0330803E-2,-1.228925E-2,-1.1965011E-2,4.8208528E-4,1.0911428E-2,-1.1100954E-2,-1.14358645E-2,9.171809E-4,-6.5319664E-3,-2.9579224E-2,-2.0585831E-2,-3.4259108E-3,-3.561722E-3,-1.4456328E-2,9.543442E-3,-5.182623E-3,2.5257133E-2,1.0346505E-2,2.2601482E-4,-1.6184673E-2,1.1184483E-2,2.8469183E-2,3.7818447E-2,2.6521781E-2,4.602365E-3,-2.3641478E-2,2.6219694E-2,1.1454867E-2],"split_indices":[9,11,9,21,33,11,8,22,9,38,30,22,38,22,11,33,30,30,26,31,30,24,5,33,38,8,38,9,8,38,8,0,0,0,0,0,0,0,0,0,0,0,0,0,0,0,0,0,0,0,0,0,0,0,0,0,0,0,0,0,0,0,0],"split_type":[0,0,0,0,0,0,0,0,0,0,0,0,0,0,0,0,0,0,0,0,0,0,0,0,0,0,0,0,0,0,0,0,0,0,0,0,0,0,0,0,0,0,0,0,0,0,0,0,0,0,0,0,0,0,0,0,0,0,0,0,0,0,0],"sum_hessian":[2.5354419E5,8.164677E4,1.7189742E5,6.676296E4,1.4883808E4,5.993378E4,1.1196363E5,4.2297754E4,2.4465207E4,8.448E3,6.435808E3,4.389088E4,1.6042901E4,3.406261E4,7.790102E4,3.042295E4,1.1874806E4,1.6547912E4,7.9172944E3,3.0807466E3,5.367253E3,1.4292444E3,5.006564E3,2.5739361E4,1.8151518E4,1.1543531E4,4.4993706E3,1.9458746E4,1.4603861E4,5.279752E4,2.5103508E4,1.6196254E4,1.4226696E4,5.9543193E3,5.920487E3,7.670567E3,8.877346E3,3.6123237E3,4.3049707E3,2.3360613E3,7.4468524E2,3.320436E3,2.0468171E3,2.9160443E2,1.13764E3,1.2586565E3,3.7479075E3,1.5449622E4,1.0289739E4,9.846928E3,8.304589E3,3.2702214E3,8.27331E3,3.5350122E3,9.6435864E2,1.1839866E4,7.6188804E3,7.4832134E3,7.1206484E3,4.9797254E4,3.000263E3,1.0690883E4,1.4412625E4],"tree_param":{"num_deleted":"0","num_feature":"42","num_nodes":"63","size_leaf_vector":"0"}},{"base_weights":[-1.7409169E-4,-1.1579615E-1,9.392591E-2,-1.7437734E-1,-4.4947382E-2,1.3378398E-1,1.5265055E-2,-1.9366765E-1,-7.45892E-2,-7.43528E-2,3.9635066E-2,1.8349692E-1,4.5704033E-2,3.817987E-2,-1.2767754E-1,-2.3353368E-1,-1.2684715E-1,-5.6851503E-2,-2.2959307E-1,-4.6082817E-2,-1.2680413E-1,8.200572E-2,-3.1090192E-2,1.4646384E-1,2.718496E-1,-8.073573E-2,7.800943E-2,-2.47941E-2,8.989527E-2,-1.424595E-1,3.6548495E-1,2.179108E-1,-2.390521E-1,-9.494287E-2,-1.7550762E-1,-5.067254E-2,-3.9700472E-1,-3.3579928E-1,-1.1441843E-1,-8.8943355E-2,2.804616E-2,-2.407152E-1,-9.585417E-2,1.3131127E-1,3.0566517E-3,4.304093E-2,-7.966633E-2,1.8311198E-1,5.758262E-2,3.3597714E-1,1.9763555E-1,-1.4009632E-1,2.2519996E-2,9.567912E-3,1.2180746E-1,1.3855812E-1,-5.430319E-2,1.9032723E-1,5.219854E-2,-2.0704617E-1,-5.228573E-2,1.1389806E-2,5.967707E-1],"categories":[],"categories_nodes":[],"categories_segments":[],"categories_sizes":[],"default_left":[true,true,true,true,true,true,true,true,true,true,true,true,true,true,true,false,true,true,true,true,true,true,true,true,true,true,true,true,true,true,true,false,false,false,false,false,false,false,false,false,false,false,false,false,false,false,false,false,false,false,false,false,false,false,false,false,false,false,false,false,false,false,false],"id":17,"left_children":[1,3,5,7,9,11,13,15,17,19,21,23,25,27,29,31,33,35,37,39,41,43,45,47,49,51,53,55,57,59,61,-1,-1,-1,-1,-1,-1,-1,-1,-1,-1,-1,-1,-1,-1,-1,-1,-1,-1,-1,-1,-1,-1,-1,-1,-1,-1,-1,-1,-1,-1,-1,-1],"loss_changes":[2.7538975E3,4.713529E2,4.375089E2,1.19653076E2,1.2785429E2,4.0552893E2,1.5372514E2,1.3874524E2,2.7680195E1,5.6553635E1,3.9742516E1,1.9366553E2,1.3649698E2,1.317275E2,4.7320587E1,8.133569E1,3.0208313E1,1.8979012E1,1.2609024E1,7.8755066E1,4.7071213E1,3.228251E1,1.7896835E1,1.358797E2,8.314368E1,4.16865E1,7.9781784E1,8.792685E1,8.407262E1,3.665796E1,1.5469946E1,0E0,0E0,0E0,0E0,0E0,0E0,0E0,0E0,0E0,0E0,0E0,0E0,0E0,0E0,0E0,0E0,0E0,0E0,0E0,0E0,0E0,0E0,0E0,0E0,0E0,0E0,0E0,0E0,0E0,0E0,0E0,0E0],"parents":[2147483647,0,0,1,1,2,2,3,3,4,4,5,5,6,6,7,7,8,8,9,9,10,10,11,11,12,12,13,13,14,14,15,15,16,16,17,17,18,18,19,19,20,20,21,21,22,22,23,23,24,24,25,25,26,26,27,27,28,28,29,29,30,30],"right_children":[2,4,6,8,10,12,14,16,18,20,22,24,26,28,30,32,34,36,38,40,42,44,46,48,50,52,54,56,58,60,62,-1,-1,-1,-1,-1,-1,-1,-1,-1,-1,-1,-1,-1,-1,-1,-1,-1,-1,-1,-1,-1,-1,-1,-1,-1,-1,-1,-1,-1,-1,-1,-1],"split_conditions":[4.675E-2,6.05E-3,5.082491E0,5E-1,5E-1,1.5E0,5.854269E0,5E-1,5.46654E0,1.5E0,4.905534E0,5E-1,3.25E0,5.395E0,-5.2086E0,9.583333E-5,1.5E0,2.6E-1,5E-1,1.5E0,1.5E0,1.5E0,7.0429254E-1,1.5E0,3.65E0,8.712122E-2,1.23050004E-1,2.1399999E0,3.35E0,6.0150003E0,4.5E0,2.3970187E-2,-2.629573E-2,-1.0443715E-2,-1.9305838E-2,-5.573979E-3,-4.367052E-2,-3.693792E-2,-1.2586027E-2,-9.783769E-3,3.0850775E-3,-2.6478672E-2,-1.0543958E-2,1.4444239E-2,3.362317E-4,4.7345026E-3,-8.7632965E-3,2.0142319E-2,6.3340883E-3,3.6957484E-2,2.173991E-2,-1.5410596E-2,2.4771995E-3,1.0524703E-3,1.3398821E-2,1.5241393E-2,-5.973351E-3,2.0935996E-2,5.7418393E-3,-2.2775078E-2,-5.7514305E-3,1.2528787E-3,6.564478E-2],"split_indices":[9,9,38,11,11,31,38,21,38,31,38,11,6,10,25,24,31,37,21,30,30,31,23,33,8,23,9,8,8,10,5,0,0,0,0,0,0,0,0,0,0,0,0,0,0,0,0,0,0,0,0,0,0,0,0,0,0,0,0,0,0,0,0],"split_type":[0,0,0,0,0,0,0,0,0,0,0,0,0,0,0,0,0,0,0,0,0,0,0,0,0,0,0,0,0,0,0,0,0,0,0,0,0,0,0,0,0,0,0,0,0,0,0,0,0,0,0,0,0,0,0,0,0,0,0,0,0,0,0],"sum_hessian":[2.5311273E5,1.1356882E5,1.395439E5,6.2165723E4,5.1403098E4,9.261464E4,4.692927E4,5.2094297E4,1.0071426E4,3.8142746E4,1.3260352E4,5.9200426E4,3.3414215E4,4.0446168E4,6.4831045E3,3.262643E4,1.946787E4,9.038483E3,1.032942E3,2.4785727E4,1.3357019E4,8.292347E3,4.968005E3,4.171726E4,1.7483164E4,6.7996465E3,2.661457E4,1.8238104E4,2.2208062E4,6.2951265E3,1.8797777E2,3.9354218E2,3.2232887E4,1.176022E4,7.7076494E3,8.878355E3,1.6012837E2,5.363974E2,4.9654462E2,1.5705047E4,9.08068E3,2.852316E3,1.0504702E4,5.104071E3,3.188276E3,1.96673E3,3.0012751E3,2.9537205E4,1.2180057E4,9.37704E3,8.106123E3,4.3173135E3,2.482333E3,1.0385995E4,1.6228575E4,2.7899885E3,1.5448115E4,6.0597026E3,1.614836E4,3.6672058E3,2.6279207E3,7.468514E1,1.13292625E2],"tree_param":{"num_deleted":"0","num_feature":"42","num_nodes":"63","size_leaf_vector":"0"}},{"base_weights":[5.6698185E-4,-1.1239047E-1,9.216444E-2,-1.6832808E-1,-4.4863593E-2,1.5499899E-1,4.5331128E-2,-2.1389084E-1,-1.297652E-1,-6.984002E-2,2.7010523E-2,1.1189948E-1,2.5131664E-1,4.5614922E-3,1.23522036E-1,-1.8807036E-1,-3.289512E-1,-6.1701328E-2,-1.8713531E-1,-1.173083E-1,-3.675239E-2,3.9355528E-2,-1.3361293E-1,-4.9804106E-2,1.3510418E-1,2.225713E-1,3.7386397E-1,-4.5567553E-2,6.0672034E-2,1.6845858E-1,5.2664686E-2,-1.5956035E-1,-3.1718004E-1,-3.6893436E-1,-2.589258E-1,-8.04493E-2,1.1483374E-1,-1.7644891E-1,-5.58197E-1,-7.827594E-2,-1.7401725E-1,-1.0700865E-2,-1.0285787E-1,7.179552E-2,-6.103466E-3,6.022348E-1,-1.510782E-1,-8.192668E-2,1.0321292E-1,1.058164E-1,2.4875902E-1,2.857576E-1,1.6703448E-1,3.1172898E-1,4.322599E-1,-1.8933808E-2,-2.0061636E-1,1.5562628E-1,-1.9603873E-2,2.1616639E-1,8.766586E-2,3.453064E-3,1.2514047E-1],"categories":[],"categories_nodes":[],"categories_segments":[],"categories_sizes":[],"default_left":[true,true,true,true,true,true,true,true,true,true,true,true,true,true,true,true,true,true,true,true,true,true,true,true,true,true,true,true,true,true,true,false,false,false,false,false,false,false,false,false,false,false,false,false,false,false,false,false,false,false,false,false,false,false,false,false,false,false,false,false,false,false,false],"id":18,"left_children":[1,3,5,7,9,11,13,15,17,19,21,23,25,27,29,31,33,35,37,39,41,43,45,47,49,51,53,55,57,59,61,-1,-1,-1,-1,-1,-1,-1,-1,-1,-1,-1,-1,-1,-1,-1,-1,-1,-1,-1,-1,-1,-1,-1,-1,-1,-1,-1,-1,-1,-1,-1,-1],"loss_changes":[2.602609E3,4.2545825E2,4.0875342E2,1.0821411E2,9.161557E1,2.4621619E2,2.5370818E2,8.383081E1,1.302851E2,5.9479706E1,2.6103415E1,1.5378418E2,6.4511475E1,1.471453E2,8.683923E1,8.4849365E1,1.4391113E1,5.0525253E1,7.169714E1,3.4418457E1,3.843473E1,1.8025616E1,1.2166412E1,2.5291431E1,1.1927295E2,5.2082214E1,1.2501251E1,1.1409263E2,1.881575E2,6.431268E1,3.7757652E1,0E0,0E0,0E0,0E0,0E0,0E0,0E0,0E0,0E0,0E0,0E0,0E0,0E0,0E0,0E0,0E0,0E0,0E0,0E0,0E0,0E0,0E0,0E0,0E0,0E0,0E0,0E0,0E0,0E0,0E0,0E0,0E0],"parents":[2147483647,0,0,1,1,2,2,3,3,4,4,5,5,6,6,7,7,8,8,9,9,10,10,11,11,12,12,13,13,14,14,15,15,16,16,17,17,18,18,19,19,20,20,21,21,22,22,23,23,24,24,25,25,26,26,27,27,28,28,29,29,30,30],"right_children":[2,4,6,8,10,12,14,16,18,20,22,24,26,28,30,32,34,36,38,40,42,44,46,48,50,52,54,56,58,60,62,-1,-1,-1,-1,-1,-1,-1,-1,-1,-1,-1,-1,-1,-1,-1,-1,-1,-1,-1,-1,-1,-1,-1,-1,-1,-1,-1,-1,-1,-1,-1,-1],"split_conditions":[4.665E-2,6.05E-3,2.97E0,1.5E0,5E-1,2.1985E-1,5E-1,1.5E0,1.5E0,1.0240998E0,5.6897173E0,3.25E0,5E-1,1.5E0,5.067929E0,5.462411E0,5E-1,4E0,5.15E-1,1.5E0,5.1618385E0,1.5E0,2.1495E3,5E-1,5E-1,2.0149999E0,3.3789998E-1,1.5E0,1.5E0,1.5E0,1.5E0,-1.7551638E-2,-3.4889802E-2,-4.058278E-2,-2.8481837E-2,-8.849422E-3,1.2631712E-2,-1.940938E-2,-6.1401673E-2,-8.610354E-3,-1.9141898E-2,-1.1770951E-3,-1.1314366E-2,7.897507E-3,-6.7138125E-4,6.6245824E-2,-1.6618602E-2,-9.0119345E-3,1.1353421E-2,1.1639804E-2,2.7363492E-2,3.1433336E-2,1.8373793E-2,3.4290187E-2,4.754859E-2,-2.082719E-3,-2.20678E-2,1.7118892E-2,-2.156426E-3,2.3778303E-2,9.643245E-3,3.7983703E-4,1.3765452E-2],"split_indices":[9,9,8,30,11,9,11,31,31,26,38,6,11,30,38,38,21,8,37,33,38,33,4,11,11,8,9,31,31,31,30,0,0,0,0,0,0,0,0,0,0,0,0,0,0,0,0,0,0,0,0,0,0,0,0,0,0,0,0,0,0,0,0],"split_type":[0,0,0,0,0,0,0,0,0,0,0,0,0,0,0,0,0,0,0,0,0,0,0,0,0,0,0,0,0,0,0,0,0,0,0,0,0,0,0,0,0,0,0,0,0,0,0,0,0,0,0,0,0,0,0,0,0,0,0,0,0,0,0],"sum_hessian":[2.5154003E5,1.1263677E5,1.3890325E5,6.1604027E4,5.103275E4,5.9317207E4,7.958604E4,2.8236975E4,3.336705E4,3.7872125E4,1.3160625E4,4.0981344E4,1.8335863E4,5.231136E4,2.7274684E4,2.3063887E4,5.1730884E3,1.5262136E4,1.8104916E4,1.5554594E4,2.231753E4,1.2222034E4,9.385916E2,5.1427295E3,3.5838613E4,1.4854361E4,3.4815022E3,2.7628395E4,2.4682963E4,1.6689258E4,1.0585426E4,1.8893959E4,4.169928E3,3.2901865E3,1.882902E3,1.37974E4,1.4647355E3,1.7599533E4,5.0538287E2,9.214618E3,6.339976E3,1.6009503E4,6.3080273E3,7.1319927E3,5.090041E3,2.0984623E1,9.17607E2,4.250826E3,8.919033E2,2.8497107E4,7.341507E3,6.9466978E3,7.9076636E3,1.6898208E3,1.7916814E3,2.3579168E4,4.0492258E3,1.1307255E4,1.3375709E4,1.049206E4,6.1971987E3,6.3051963E3,4.2802295E3],"tree_param":{"num_deleted":"0","num_feature":"42","num_nodes":"63","size_leaf_vector":"0"}},{"base_weights":[8.207685E-4,-1.5164211E-1,6.3916944E-2,-1.8273647E-1,-9.791073E-2,-3.07698E-3,1.0976229E-1,-2.2115728E-1,-9.730179E-2,-1.2217474E-1,-3.6497805E-2,-8.809351E-2,2.6396658E-2,1.7506841E-1,4.85235E-2,2.4385208E-1,-2.2694913E-1,-1.8119381E-1,-2.1220857E-2,-1.4236338E-1,-5.295866E-2,3.0041458E-3,-1.08972505E-1,-5.2916106E-2,-1.4381117E-1,5.372397E-2,-7.198175E-2,1.4629449E-1,2.885568E-1,1.11281965E-2,1.7135713E-1,-3.3218488E-1,5.88145E-1,-1.9089597E-1,-2.8193897E-1,-1.1032925E-1,-3.0873844E-1,-5.3962316E-2,1.6866077E-1,2.1442907E-1,-1.4626032E-1,-1.5211509E-1,2.6262285E-2,5.9106965E-2,-6.044689E-2,-1.9278595E-1,-3.8007338E-2,-6.6729025E-3,-1.1499777E-1,-6.5063685E-2,-1.9931917E-1,9.032745E-2,-1.1724584E-2,-7.738411E-2,6.499912E-1,2.4862652E-1,1.1239901E-1,2.5386226E-1,3.8534692E-1,2.7357178E-2,-2.1187845E-1,9.012101E-2,2.5269243E-1],"categories":[],"categories_nodes":[],"categories_segments":[],"categories_sizes":[],"default_left":[true,true,true,true,true,true,true,false,true,true,true,true,true,true,true,true,true,true,true,false,true,true,true,true,true,true,true,true,true,true,true,false,false,false,false,false,false,false,false,false,false,false,false,false,false,false,false,false,false,false,false,false,false,false,false,false,false,false,false,false,false,false,false],"id":19,"left_children":[1,3,5,7,9,11,13,15,17,19,21,23,25,27,29,31,33,35,37,39,41,43,45,47,49,51,53,55,57,59,61,-1,-1,-1,-1,-1,-1,-1,-1,-1,-1,-1,-1,-1,-1,-1,-1,-1,-1,-1,-1,-1,-1,-1,-1,-1,-1,-1,-1,-1,-1,-1,-1],"loss_changes":[2.4058418E3,1.222876E2,5.432861E2,1.5218274E2,3.998523E1,1.8008655E2,4.199956E2,8.619714E1,9.181416E1,2.6872253E1,2.1762909E1,3.6255585E1,1.43479E2,1.6591724E2,2.4895697E2,7.8326584E1,6.2577393E1,6.180223E1,4.691761E1,2.0736603E1,3.41373E1,1.7521137E1,1.594264E1,3.256294E1,3.1283112E1,1.0005935E2,4.5302708E1,1.4060535E2,3.4417297E1,1.503857E2,8.355588E1,0E0,0E0,0E0,0E0,0E0,0E0,0E0,0E0,0E0,0E0,0E0,0E0,0E0,0E0,0E0,0E0,0E0,0E0,0E0,0E0,0E0,0E0,0E0,0E0,0E0,0E0,0E0,0E0,0E0,0E0,0E0,0E0],"parents":[2147483647,0,0,1,1,2,2,3,3,4,4,5,5,6,6,7,7,8,8,9,9,10,10,11,11,12,12,13,13,14,14,15,15,16,16,17,17,18,18,19,19,20,20,21,21,22,22,23,23,24,24,25,25,26,26,27,27,28,28,29,29,30,30],"right_children":[2,4,6,8,10,12,14,16,18,20,22,24,26,28,30,32,34,36,38,40,42,44,46,48,50,52,54,56,58,60,62,-1,-1,-1,-1,-1,-1,-1,-1,-1,-1,-1,-1,-1,-1,-1,-1,-1,-1,-1,-1,-1,-1,-1,-1,-1,-1,-1,-1,-1,-1,-1,-1],"split_conditions":[1.295E-2,5E-1,9.315E-2,1.15E1,2.15E-3,5.5E0,3.415E0,8.75E-5,1.5E0,1.55E1,1.5E0,1.5E0,5.28201E0,5E-1,4.95E1,-5E-1,1.5E0,5.278446E0,3.65E1,7.916667E-5,1.5E0,4.897915E0,3.75E0,4.7915254E0,1.875E2,1.5E0,1.205E2,1.7E0,3.0479997E-1,5.8624372E0,1.5E0,-3.6540337E-2,6.4695954E-2,-2.0998556E-2,-3.1013286E-2,-1.2136217E-2,-3.396123E-2,-5.9358547E-3,1.8552685E-2,2.3587197E-2,-1.6088635E-2,-1.673266E-2,2.8888513E-3,6.501766E-3,-6.6491575E-3,-2.1206453E-2,-4.180807E-3,-7.3401927E-4,-1.2649754E-2,-7.1570054E-3,-2.1925109E-2,9.93602E-3,-1.2897042E-3,-8.512252E-3,7.1499035E-2,2.7348917E-2,1.2363891E-2,2.7924849E-2,4.238816E-2,3.0092895E-3,-2.3306629E-2,9.913311E-3,2.7796168E-2],"split_indices":[9,21,9,22,9,22,8,24,30,1,31,31,38,11,22,9,31,38,22,24,30,38,6,38,2,31,22,8,9,38,30,0,0,0,0,0,0,0,0,0,0,0,0,0,0,0,0,0,0,0,0,0,0,0,0,0,0,0,0,0,0,0,0],"split_type":[0,0,0,0,0,0,0,0,0,0,0,0,0,0,0,0,0,0,0,0,0,0,0,0,0,0,0,0,0,0,0,0,0,0,0,0,0,0,0,0,0,0,0,0,0,0,0,0,0,0,0,0,0,0,0,0,0,0,0,0,0,0,0],"sum_hessian":[2.5009003E5,7.3203305E4,1.7688672E5,4.6367836E4,2.683547E4,7.186749E4,1.05019234E5,3.1983127E4,1.438471E4,1.9234861E4,7.600608E3,1.850061E4,5.3366883E4,5.082098E4,5.419825E4,3.9295447E2,3.1590172E4,6.8405127E3,7.5441978E3,1.4890585E4,4.344277E3,4.9199653E3,2.6806426E3,1.1341862E4,7.1587476E3,4.176575E4,1.1601133E4,4.0543777E4,1.0277205E4,4.1549934E4,1.2648315E4,1.4701639E2,2.459381E2,1.9083121E4,1.2507052E4,4.398529E3,2.4419841E3,6.4352734E3,1.1089242E3,1.602963E2,1.4730289E4,1.9289713E3,2.4153057E3,2.6112185E3,2.3087468E3,1.2282733E3,1.4523693E3,6.5007275E3,4.841135E3,2.960686E3,4.1980615E3,2.6785191E4,1.4980561E4,1.1515855E4,8.527759E1,1.0086333E4,3.0457443E4,7.568049E3,2.7091565E3,3.8732137E4,2.8177969E3,6.329072E3,6.319244E3],"tree_param":{"num_deleted":"0","num_feature":"42","num_nodes":"63","size_leaf_vector":"0"}},{"base_weights":[1.8865813E-4,-1.4487912E-1,6.0255148E-2,-1.6385306E-1,-5.4884065E-2,-5.158868E-3,9.9557936E-2,-1.9870034E-1,-1.05361775E-1,-2.0396724E-2,-9.891473E-2,-6.2440977E-2,3.3334855E-2,1.4453009E-1,2.5617866E-2,-2.2714141E-1,-1.2328336E-1,-7.5431E-2,-1.525551E-1,2.7709682E-2,-9.789071E-2,-2.0080286E-1,-7.01935E-2,-2.4026193E-2,-1.1773988E-1,7.907449E-2,-3.6195822E-2,5.7124995E-2,1.9155842E-1,4.522764E-2,-1.4901479E-1,-1.783807E-1,-2.8277212E-1,-2.0464614E-1,-4.1758966E-2,-1.11382134E-1,-1.9301211E-2,-1.6541272E-1,8.869913E-2,-3.0534714E-2,8.777347E-2,-2.0616946E-1,-1.3616818E-2,-2.7859935E-1,-5.593774E-2,-6.122777E-2,-3.9638793E-1,2.3411116E-2,-6.297689E-2,-1.9173658E-2,-1.4813612E-1,1.2731345E-1,9.589019E-4,-4.2460274E-2,5.0650436E-1,1.6595897E-1,7.2948043E-3,2.3679031E-1,1.0538275E-1,-9.9466955E-3,9.86118E-2,-2.3809618E-1,-5.735683E-2],"categories":[],"categories_nodes":[],"categories_segments":[],"categories_sizes":[],"default_left":[true,true,true,true,true,true,true,true,true,true,true,true,true,true,true,true,true,true,true,true,true,true,true,true,true,true,true,true,true,true,true,false,false,false,false,false,false,false,false,false,false,false,false,false,false,false,false,false,false,false,false,false,false,false,false,false,false,false,false,false,false,false,false],"id":20,"left_children":[1,3,5,7,9,11,13,15,17,19,21,23,25,27,29,31,33,35,37,39,41,43,45,47,49,51,53,55,57,59,61,-1,-1,-1,-1,-1,-1,-1,-1,-1,-1,-1,-1,-1,-1,-1,-1,-1,-1,-1,-1,-1,-1,-1,-1,-1,-1,-1,-1,-1,-1,-1,-1],"loss_changes":[2.1733372E3,1.24698975E2,4.5347284E2,1.2291821E2,1.9310505E1,1.4597717E2,3.663789E2,8.104236E1,3.1799484E1,2.6595118E1,1.633226E1,5.6520065E1,1.2592705E2,2.8160645E2,1.4271173E2,7.439563E1,6.8660034E1,2.7810188E1,2.7122437E1,1.5402211E1,2.4929928E1,1.3821892E1,1.2724228E1,2.9014494E1,3.2674194E1,8.999945E1,5.343825E1,1.2998532E2,1.7360242E2,1.1035316E2,3.433824E1,0E0,0E0,0E0,0E0,0E0,0E0,0E0,0E0,0E0,0E0,0E0,0E0,0E0,0E0,0E0,0E0,0E0,0E0,0E0,0E0,0E0,0E0,0E0,0E0,0E0,0E0,0E0,0E0,0E0,0E0,0E0,0E0],"parents":[2147483647,0,0,1,1,2,2,3,3,4,4,5,5,6,6,7,7,8,8,9,9,10,10,11,11,12,12,13,13,14,14,15,15,16,16,17,17,18,18,19,19,20,20,21,21,22,22,23,23,24,24,25,25,26,26,27,27,28,28,29,29,30,30],"right_children":[2,4,6,8,10,12,14,16,18,20,22,24,26,28,30,32,34,36,38,40,42,44,46,48,50,52,54,56,58,60,62,-1,-1,-1,-1,-1,-1,-1,-1,-1,-1,-1,-1,-1,-1,-1,-1,-1,-1,-1,-1,-1,-1,-1,-1,-1,-1,-1,-1,-1,-1,-1,-1],"split_conditions":[1.295E-2,5E-1,8.385E-2,5E-1,1.5E0,8.5E0,5.035556E0,1.15E1,1.5E0,4.9408565E0,1.5E0,1.5E0,5.0099683E0,6.5E0,5.9209347E0,1.5E0,1.5E0,1.5E0,4.685E0,9.5E0,2.5763402E0,5E-1,2.857E1,4.6738095E0,1.5E0,1.5E0,1.11E2,2.0149999E0,1.5E0,2.05E1,5.9449997E0,-1.9621877E-2,-3.1104933E-2,-2.2511076E-2,-4.5934864E-3,-1.2252035E-2,-2.1231333E-3,-1.81954E-2,9.756904E-3,-3.3588186E-3,9.655082E-3,-2.267864E-2,-1.4978499E-3,-3.064593E-2,-6.1531514E-3,-6.7350543E-3,-4.360267E-2,2.5752226E-3,-6.9274576E-3,-2.1091022E-3,-1.6294973E-2,1.4004479E-2,1.0547921E-4,-4.67063E-3,5.571548E-2,1.8255487E-2,8.0242846E-4,2.6046934E-2,1.1592102E-2,-1.0941365E-3,1.0847298E-2,-2.6190579E-2,-6.3092513E-3],"split_indices":[9,11,9,21,33,22,38,22,31,38,30,33,38,22,38,33,30,30,8,22,29,21,36,38,8,31,22,8,31,22,10,0,0,0,0,0,0,0,0,0,0,0,0,0,0,0,0,0,0,0,0,0,0,0,0,0,0,0,0,0,0,0,0],"split_type":[0,0,0,0,0,0,0,0,0,0,0,0,0,0,0,0,0,0,0,0,0,0,0,0,0,0,0,0,0,0,0,0,0,0,0,0,0,0,0,0,0,0,0,0,0,0,0,0,0,0,0,0,0,0,0,0,0,0,0,0,0,0,0],"sum_hessian":[2.4941375E5,7.30318E4,1.7638195E5,6.031464E4,1.2717152E4,6.6200805E4,1.1018115E5,3.779511E4,2.2519533E4,7.132238E3,5.584915E3,2.6606832E4,3.9593973E4,6.851046E4,4.1670688E4,2.7443621E4,1.0351488E4,1.3781609E4,8.737923E3,4.400905E3,2.7313333E3,1.2268151E3,4.3581E3,1.5701099E4,1.0905732E4,2.3882873E4,1.57111E4,2.3967525E4,4.4542934E4,3.746448E4,4.2062046E3,1.4627084E4,1.2816537E4,5.180123E3,5.171365E3,8.400259E3,5.3813506E3,8.296098E3,4.4182553E2,2.2345413E3,2.1663633E3,1.1947809E3,1.5365524E3,7.9757336E2,4.292417E2,4.2426743E3,1.1542578E2,7.0795044E3,8.621595E3,2.5708481E3,8.334885E3,1.4764608E4,9.118265E3,1.5532726E4,1.7837436E2,7.526528E3,1.6440998E4,2.920963E4,1.5333304E4,1.842374E4,1.9040742E4,2.1322734E3,2.0739312E3],"tree_param":{"num_deleted":"0","num_feature":"42","num_nodes":"63","size_leaf_vector":"0"}},{"base_weights":[1.9921488E-3,-9.920335E-2,8.493245E-2,-1.5849897E-1,-4.3410916E-2,1.10428125E-1,-1.6550029E-2,-2.0190142E-1,-1.21569216E-1,-6.390129E-2,8.255631E-2,-3.993875E-2,1.309391E-1,-3.818318E-2,1.3966493E-1,-1.7740329E-1,-3.1739664E-1,-2.0070761E-1,-8.0405675E-2,-8.3647355E-2,2.776167E-3,2.2758627E-1,3.7679102E-2,-6.315764E-2,1.6566432E-1,1.6355185E-1,6.1850905E-2,3.123022E-2,-9.030047E-2,7.2889894E-1,1.2257664E-1,-1.4946432E-1,-3.0188808E-1,-4.1604063E-1,-1.9364463E-1,-1.0901223E-1,-2.3912907E-1,-9.267404E-2,1.4550291E-1,-1.1164201E-1,-2.6960216E-2,3.577086E-2,-5.952186E-2,2.675268E-1,7.890609E-2,4.6153165E-2,-3.3300957E-1,3.7407886E-2,-1.17210664E-1,2.954079E-1,6.876919E-2,1.2084394E-1,2.2906052E-1,-4.5466557E-2,8.599603E-2,-9.086918E-2,7.578885E-2,-1.6645151E-1,-4.202152E-2,7.823939E-1,-6.785797E-1,1.7476775E-1,-6.500057E-2],"categories":[],"categories_nodes":[],"categories_segments":[],"categories_sizes":[],"default_left":[true,true,true,true,true,true,true,true,true,true,true,true,true,true,true,true,true,true,true,true,true,false,true,true,true,true,true,true,true,true,true,false,false,false,false,false,false,false,false,false,false,false,false,false,false,false,false,false,false,false,false,false,false,false,false,false,false,false,false,false,false,false,false],"id":21,"left_children":[1,3,5,7,9,11,13,15,17,19,21,23,25,27,29,31,33,35,37,39,41,43,45,47,49,51,53,55,57,59,61,-1,-1,-1,-1,-1,-1,-1,-1,-1,-1,-1,-1,-1,-1,-1,-1,-1,-1,-1,-1,-1,-1,-1,-1,-1,-1,-1,-1,-1,-1,-1,-1],"loss_changes":[2.0815305E3,3.6955005E2,3.5264587E2,8.677466E1,1.4856241E2,3.359591E2,9.24906E1,7.037781E1,9.5304535E1,6.5177536E1,5.2403484E1,6.243255E1,2.1596326E2,8.6967514E1,3.3431534E1,7.139075E1,5.3082275E1,3.5245117E1,5.3366493E1,6.0606934E1,2.3253088E1,1.1278244E1,1.9337255E1,6.3874123E1,1.6663258E1,1.8214807E2,7.965543E1,5.6097515E1,5.0472725E1,7.580147E0,3.1696152E1,0E0,0E0,0E0,0E0,0E0,0E0,0E0,0E0,0E0,0E0,0E0,0E0,0E0,0E0,0E0,0E0,0E0,0E0,0E0,0E0,0E0,0E0,0E0,0E0,0E0,0E0,0E0,0E0,0E0,0E0,0E0,0E0],"parents":[2147483647,0,0,1,1,2,2,3,3,4,4,5,5,6,6,7,7,8,8,9,9,10,10,11,11,12,12,13,13,14,14,15,15,16,16,17,17,18,18,19,19,20,20,21,21,22,22,23,23,24,24,25,25,26,26,27,27,28,28,29,29,30,30],"right_children":[2,4,6,8,10,12,14,16,18,20,22,24,26,28,30,32,34,36,38,40,42,44,46,48,50,52,54,56,58,60,62,-1,-1,-1,-1,-1,-1,-1,-1,-1,-1,-1,-1,-1,-1,-1,-1,-1,-1,-1,-1,-1,-1,-1,-1,-1,-1,-1,-1,-1,-1,-1,-1],"split_conditions":[4.755E-2,3.15E-3,5.3378267E0,1.5E0,2.85E1,3.25E0,6.95E1,5.4626236E0,2.5E0,5E-1,4.6141796E0,2.85E1,1.5E0,3.77E0,7.75E1,1.5E0,5E-1,1.5E0,3.85E1,5E-1,4.914161E0,1.0083E-1,6.238317E0,2.35E0,1.5E0,1.5E0,1.5E0,5.205E0,5.525E0,4E0,4.5E0,-1.6441075E-2,-3.320769E-2,-4.576447E-2,-2.1300908E-2,-1.1991345E-2,-2.6304197E-2,-1.0194144E-2,1.600532E-2,-1.2280621E-2,-2.9656237E-3,3.9347946E-3,-6.547405E-3,2.942795E-2,8.679669E-3,5.076848E-3,-3.663105E-2,4.1148677E-3,-1.2893173E-2,3.249487E-2,7.5646103E-3,1.3292833E-2,2.5196657E-2,-5.0013214E-3,9.4595635E-3,-9.9956095E-3,8.336773E-3,-1.8309666E-2,-4.622367E-3,8.6063325E-2,-7.464377E-2,1.9224452E-2,-7.150063E-3],"split_indices":[9,9,38,30,22,6,22,38,5,11,38,22,31,8,3,31,21,33,22,21,38,24,38,8,31,30,30,10,10,32,5,0,0,0,0,0,0,0,0,0,0,0,0,0,0,0,0,0,0,0,0,0,0,0,0,0,0,0,0,0,0,0,0],"split_type":[0,0,0,0,0,0,0,0,0,0,0,0,0,0,0,0,0,0,0,0,0,0,0,0,0,0,0,0,0,0,0,0,0,0,0,0,0,0,0,0,0,0,0,0,0,0,0,0,0,0,0,0,0,0,0,0,0,0,0,0,0,0,0],"sum_hessian":[2.4800044E5,1.11706766E5,1.3629367E5,5.4152355E4,5.755441E4,1.0892748E5,2.7366191E4,2.4892484E4,2.925987E4,4.9502598E4,8.0518135E3,1.30747705E4,9.58527E4,2.4038076E4,3.3281145E3,2.0538516E4,4.353969E3,1.0010482E4,1.9249389E4,3.819204E4,1.1310559E4,1.9017722E3,6.1500415E3,1.1748678E4,1.3260929E3,6.5114395E4,3.073831E4,1.0308675E4,1.3729401E4,9.262401E1,3.2354905E3,1.6775645E4,3.7628704E3,2.4214468E3,1.9325223E3,2.9570708E3,7.053411E3,1.8258422E4,9.9096606E2,2.5565615E4,1.2626422E4,7.394605E3,3.9159539E3,1.4984408E3,4.0333133E2,6.0134478E3,1.3659383E2,4.1073223E3,7.6413555E3,5.660702E2,7.600227E2,3.941858E4,2.5695818E4,5.6454014E3,2.5092908E4,2.7559072E3,7.5527676E3,5.326071E3,8.403331E3,8.966035E1,2.9636607E0,2.5312646E3,7.0422577E2],"tree_param":{"num_deleted":"0","num_feature":"42","num_nodes":"63","size_leaf_vector":"0"}},{"base_weights":[-3.2951086E-4,-1.0988603E-1,7.015067E-2,-1.4511248E-1,-3.992685E-2,9.290653E-2,-3.3748496E-2,-1.7687215E-1,-9.195797E-2,-7.13505E-2,5.4131713E-2,2.4320994E-2,1.3818789E-1,-5.4232713E-2,1.6122949E-1,-2.0133536E-1,-6.1236653E-2,-8.554466E-2,-2.3711656E-1,-1.0241454E-1,-3.2900836E-2,9.786964E-2,-3.4080535E-2,8.051486E-2,-5.377285E-2,8.105623E-2,1.740897E-1,-2.4215203E-2,-1.6304436E-1,-7.219091E-3,3.134434E-1,2.307131E-1,-2.061641E-1,-3.7690047E-2,-2.2389233E-1,-1.0079329E-1,-2.4732376E-2,-3.0689502E-1,-1.0889029E-1,-2.7671224E-2,-1.2998341E-1,3.7000503E-2,-8.650282E-2,4.6339966E-2,1.628145E-1,-7.645482E-2,1.1260684E-1,4.116126E-2,1.8244764E-1,3.5976455E-2,-1.0999479E-1,1.2656285E-1,4.4182867E-2,2.6528865E-1,1.418707E-1,-8.259647E-2,3.441315E-2,-2.59342E-1,-7.4548855E-2,-1.1173881E-1,1.8513171E-1,8.317312E-1,2.8322756E-1],"categories":[],"categories_nodes":[],"categories_segments":[],"categories_sizes":[],"default_left":[true,true,true,true,true,true,true,true,true,true,true,true,true,true,true,false,true,true,true,true,true,true,true,true,true,true,true,true,true,true,true,false,false,false,false,false,false,false,false,false,false,false,false,false,false,false,false,false,false,false,false,false,false,false,false,false,false,false,false,false,false,false,false],"id":22,"left_children":[1,3,5,7,9,11,13,15,17,19,21,23,25,27,29,31,33,35,37,39,41,43,45,47,49,51,53,55,57,59,61,-1,-1,-1,-1,-1,-1,-1,-1,-1,-1,-1,-1,-1,-1,-1,-1,-1,-1,-1,-1,-1,-1,-1,-1,-1,-1,-1,-1,-1,-1,-1,-1],"loss_changes":[1.9108508E3,2.3874304E2,3.5604736E2,1.0875891E2,9.59027E1,3.8365186E2,1.0807399E2,1.1408252E2,2.2417084E1,2.9045738E1,3.1354261E1,2.155939E2,1.5260767E2,7.9971924E1,6.596422E1,6.949902E1,2.6970636E1,2.1402847E1,9.086025E0,2.7715591E1,4.073139E1,1.817292E1,1.6755194E1,1.1459837E2,1.0373869E2,4.8179886E1,1.3422461E2,6.569467E1,4.5096115E1,2.4591398E1,2.0928726E1,0E0,0E0,0E0,0E0,0E0,0E0,0E0,0E0,0E0,0E0,0E0,0E0,0E0,0E0,0E0,0E0,0E0,0E0,0E0,0E0,0E0,0E0,0E0,0E0,0E0,0E0,0E0,0E0,0E0,0E0,0E0,0E0],"parents":[2147483647,0,0,1,1,2,2,3,3,4,4,5,5,6,6,7,7,8,8,9,9,10,10,11,11,12,12,13,13,14,14,15,15,16,16,17,17,18,18,19,19,20,20,21,21,22,22,23,23,24,24,25,25,26,26,27,27,28,28,29,29,30,30],"right_children":[2,4,6,8,10,12,14,16,18,20,22,24,26,28,30,32,34,36,38,40,42,44,46,48,50,52,54,56,58,60,62,-1,-1,-1,-1,-1,-1,-1,-1,-1,-1,-1,-1,-1,-1,-1,-1,-1,-1,-1,-1,-1,-1,-1,-1,-1,-1,-1,-1,-1,-1,-1,-1],"split_conditions":[3.1549998E-2,8.15E-3,5.3783984E0,5E-1,1.95E1,8.5E0,7.85E1,5E-1,1.5E0,4.915E0,5.1585093E0,1.5E0,1.1005E-1,5.916216E0,3.785569E-1,8.333333E-5,5.2970915E0,2.25E-3,2.5E0,4.2046185E0,4.9487247E0,3.25E1,6.978261E-1,2.6265E-1,2.35E0,2.8E0,2.6750002E0,5.575E0,2.5E0,1.5E0,6.95E1,2.5378441E-2,-2.2678051E-2,-4.1459054E-3,-2.4628157E-2,-1.1087261E-2,-2.7205613E-3,-3.375845E-2,-1.19779315E-2,-3.0438346E-3,-1.4298175E-2,4.070055E-3,-9.515311E-3,5.097396E-3,1.7909594E-2,-8.41003E-3,1.2386752E-2,4.527739E-3,2.006924E-2,3.95741E-3,-1.2099427E-2,1.3921914E-2,4.8601152E-3,2.9181752E-2,1.56057775E-2,-9.085612E-3,3.7854468E-3,-2.8527621E-2,-8.200374E-3,-1.2291268E-2,2.0364488E-2,9.149043E-2,3.1155031E-2],"split_indices":[9,9,38,21,22,22,22,11,35,10,38,33,9,38,27,24,38,9,13,38,38,22,27,9,8,8,8,10,13,30,3,0,0,0,0,0,0,0,0,0,0,0,0,0,0,0,0,0,0,0,0,0,0,0,0,0,0,0,0,0,0,0,0],"split_type":[0,0,0,0,0,0,0,0,0,0,0,0,0,0,0,0,0,0,0,0,0,0,0,0,0,0,0,0,0,0,0,0,0,0,0,0,0,0,0,0,0,0,0,0,0,0,0,0,0,0,0,0,0,0,0,0,0,0,0,0,0,0,0],"sum_hessian":[2.474674E5,9.687752E4,1.5058989E5,6.4432723E4,3.2444799E4,1.235338E5,2.7056092E4,4.0332094E4,2.410063E4,2.4320053E4,8.124747E3,4.9126195E4,7.44076E4,2.4484494E4,2.5715977E3,3.328893E4,7.0431636E3,2.3082406E4,1.0182247E3,1.3451071E4,1.086898E4,5.431539E3,2.693208E3,2.856889E4,2.0557305E4,2.8715316E4,4.5692285E4,1.9191438E4,5.2930557E3,1.2211528E3,1.3504447E3,3.6742194E2,3.2921508E4,6.1535815E3,8.895824E2,1.8454338E4,4.6280684E3,6.584918E2,3.5973288E2,3.6250437E3,9.826027E3,4.7174077E3,6.1515728E3,3.0295188E3,2.40202E3,2.0899524E3,6.0325574E2,2.0612385E4,7.9565044E3,7.9179414E3,1.2639363E4,1.2851913E4,1.5863402E4,1.1926356E4,