{"learner":{"attributes":{"best_iteration":"109","best_ntree_limit":"110","scikit_learn":"{\"n_estimators\": 110, \"objective\": \"rank:pairwise\", \"max_depth\": 6, \"max_leaves\": null, \"max_bin\": null, \"grow_policy\": null, \"learning_rate\": 0.1, \"verbosity\": null, \"booster\": \"gbtree\", \"tree_method\": null, \"gamma\": null, \"min_child_weight\": null, \"max_delta_step\": null, \"subsample\": 0.75, \"sampling_method\": null, \"colsample_bytree\": 0.9, \"colsample_bylevel\": null, \"colsample_bynode\": null, \"reg_alpha\": null, \"reg_lambda\": null, \"scale_pos_weight\": null, \"base_score\": null, \"missing\": NaN, \"num_parallel_tree\": null, \"random_state\": 42, \"n_jobs\": null, \"monotone_constraints\": null, \"interaction_constraints\": null, \"importance_type\": null, \"gpu_id\": null, \"validate_parameters\": null, \"predictor\": null, \"enable_categorical\": false, \"max_cat_to_onehot\": null, \"eval_metric\": null, \"early_stopping_rounds\": null, \"callbacks\": null, \"kwargs\": {\"eta\": 0.05}, \"_estimator_type\": \"ranker\"}"},"feature_names":["srch_id","site_id","visitor_location_country_id","prop_country_id","prop_id","prop_starrating","prop_review_score","prop_brand_bool","prop_location_score1","prop_log_historical_price","price_usd","promotion_flag","srch_destination_id","srch_length_of_stay","srch_booking_window","srch_adults_count","srch_children_count","srch_room_count","srch_saturday_night_bool","random_bool","Comp_cheaper_and_in_150percent","Competitor_Available_count","Competitor_Cheaper_count","month","day","hour"],"feature_types":["int","int","int","int","int","int","float","int","float","float","float","int","int","int","int","int","int","int","int","int","int","int","int","int","int","int"],"gradient_booster":{"model":{"gbtree_model_param":{"num_parallel_tree":"1","num_trees":"110","size_leaf_vector":"0"},"tree_info":[0,0,0,0,0,0,0,0,0,0,0,0,0,0,0,0,0,0,0,0,0,0,0,0,0,0,0,0,0,0,0,0,0,0,0,0,0,0,0,0,0,0,0,0,0,0,0,0,0,0,0,0,0,0,0,0,0,0,0,0,0,0,0,0,0,0,0,0,0,0,0,0,0,0,0,0,0,0,0,0,0,0,0,0,0,0,0,0,0,0,0,0,0,0,0,0,0,0,0,0,0,0,0,0,0,0,0,0,0,0],"trees":[{"base_weights":[1.7557486E-3,-6.609974E-2,1.929565E-1,-2.8130975E-1,-2.6051756E-2,2.3793484E-1,-2.229172E-2,-5.382439E-1,-2.5993368E-1,-2.237254E-3,-2.7305448E-1,4.650417E-2,2.654167E-1,4.951957E-2,-1.8795721E-1,-3.7798068E-1,-6.3998026E-1,-3.1272215E-1,-1.7005107E-1,-7.170166E-2,1.11748606E-1,-3.2890546E-1,-1.8372421E-1,-7.1904756E-2,1.2748346E-1,3.027003E-1,1.793867E-1,-2.0710502E-2,9.443525E-2,-2.8376517E-1,-7.0174E-2,1.5082957E-1,-4.143354E-1,-6.990755E-1,-4.9942738E-1,-4.147317E-1,-2.624809E-1,-1.5363379E-1,-4.145322E-1,-3.199343E-2,-1.6729315E-1,2.3698476E-1,1.984801E-2,-2.5415546E-1,-4.384521E-1,-8.8531494E-2,-2.380118E-1,1.7146906E-1,-9.787906E-2,1.5799473E-1,2.1628145E-2,2.3371048E-1,3.5372013E-1,6.582638E-2,2.1799289E-1,7.470691E-2,-8.328073E-2,-2.5465053E-2,1.2308489E-1,-1.803318E-2,-3.1080917E-1,-2.1566258E-1,4.984548E-2,-2.1640736E-1,5.68438E-1,-3.6076543E-1,-6.754118E-1,-7.4204296E-1,-5.935279E-1,8.239701E-2,-5.335611E-1,-5.3491807E-1,-3.58963E-1,-1.9255245E-1,-3.0361414E-1,-2.1479887E-1,-9.542652E-2,-4.9907827E-1,-3.117445E-1,-1.5123418E-1,2.2882706E-2,-2.4197146E-1,-9.7445905E-2,1.6640656E-1,3.175334E-1,7.134338E-2,-4.736826E-2,-3.0143875E-1,-7.6272205E-2,-4.0312138E-1,-5.9700584E-1,-2.9338843E-1,-5.2753653E-2,-1.438801E-1,-2.9944366E-1,2.3880596E-1,-1.9234642E-1,-1.9290641E-1,-4.8668504E-2,1.9076857E-1,5.9885677E-2,-4.883721E-1,3.520892E-2,1.0392314E-1,2.8662202E-1,2.9996353E-1,4.4275737E-1,4.0194247E-2,2.6145875E-1,1.8772586E-1,2.7094978E-1,1.6627635E-1,1.4578587E-2,-2.3247288E-1,-1.8939761E-2,-6.3125E-1,-7.4384008E-3,9.449856E-2,2.067811E-1,-2.1609537E-1,1.6759777E-1,-3.241348E-1,1.9092627E-1,-3.337108E-1,-8.0569945E-2,1.0068762E-1,-1.6949153E-1],"categories":[],"categories_nodes":[],"categories_segments":[],"categories_sizes":[],"default_left":[1,1,1,1,1,1,1,1,1,1,1,1,1,1,1,1,1,0,1,1,1,1,1,1,1,1,1,1,1,1,1,1,1,1,1,1,1,1,1,1,1,1,1,1,0,1,1,1,1,1,1,1,1,1,1,1,1,1,1,1,1,1,1,0,0,0,0,0,0,0,0,0,0,0,0,0,0,0,0,0,0,0,0,0,0,0,0,0,0,0,0,0,0,0,0,0,0,0,0,0,0,0,0,0,0,0,0,0,0,0,0,0,0,0,0,0,0,0,0,0,0,0,0,0,0,0,0],"id":0,"left_children":[1,3,5,7,9,11,13,15,17,19,21,23,25,27,29,31,33,35,37,39,41,43,45,47,49,51,53,55,57,59,61,63,65,67,69,71,73,75,77,79,81,83,85,87,89,91,93,95,97,99,101,103,105,107,109,111,113,115,117,119,121,123,125,-1,-1,-1,-1,-1,-1,-1,-1,-1,-1,-1,-1,-1,-1,-1,-1,-1,-1,-1,-1,-1,-1,-1,-1,-1,-1,-1,-1,-1,-1,-1,-1,-1,-1,-1,-1,-1,-1,-1,-1,-1,-1,-1,-1,-1,-1,-1,-1,-1,-1,-1,-1,-1,-1,-1,-1,-1,-1,-1,-1,-1,-1,-1,-1],"loss_changes":[3.8669016E4,1.8959508E4,7.5582773E3,1.8954082E3,1.09096455E4,3.3972188E3,1.6053198E3,4.3195215E2,1.51175E3,1.3393892E4,8.1363574E2,7.773435E2,1.8111875E3,2.9694284E2,4.6044128E2,1.9799097E2,1.3431592E2,1.0286641E3,4.7312915E2,3.989562E3,7.3719976E3,8.216123E2,3.2422388E2,2.0815422E2,1.554895E2,1.3865742E3,7.485083E2,2.1923822E2,1.9722943E2,1.6169678E2,3.196341E2,1.0180151E2,1.3448914E2,5.131201E1,9.542078E1,4.4377637E2,3.8680176E2,3.9330566E2,6.430908E1,4.85912E3,1.6089658E3,1.5411201E3,1.2787299E3,5.0169165E2,2.2775293E2,1.6700917E2,2.3100977E2,7.783999E1,1.3911664E2,1.2015332E2,7.4633125E1,1.1501318E3,1.0838301E3,2.1720898E2,2.0417871E2,8.007288E1,2.1288591E2,1.2092643E2,1.1085675E2,7.6492096E1,1.3660571E2,1.319302E2,1.1187841E2,0E0,0E0,0E0,0E0,0E0,0E0,0E0,0E0,0E0,0E0,0E0,0E0,0E0,0E0,0E0,0E0,0E0,0E0,0E0,0E0,0E0,0E0,0E0,0E0,0E0,0E0,0E0,0E0,0E0,0E0,0E0,0E0,0E0,0E0,0E0,0E0,0E0,0E0,0E0,0E0,0E0,0E0,0E0,0E0,0E0,0E0,0E0,0E0,0E0,0E0,0E0,0E0,0E0,0E0,0E0,0E0,0E0,0E0,0E0,0E0,0E0,0E0,0E0,0E0],"parents":[2147483647,0,0,1,1,2,2,3,3,4,4,5,5,6,6,7,7,8,8,9,9,10,10,11,11,12,12,13,13,14,14,15,15,16,16,17,17,18,18,19,19,20,20,21,21,22,22,23,23,24,24,25,25,26,26,27,27,28,28,29,29,30,30,31,31,32,32,33,33,34,34,35,35,36,36,37,37,38,38,39,39,40,40,41,41,42,42,43,43,44,44,45,45,46,46,47,47,48,48,49,49,50,50,51,51,52,52,53,53,54,54,55,55,56,56,57,57,58,58,59,59,60,60,61,61,62,62],"right_children":[2,4,6,8,10,12,14,16,18,20,22,24,26,28,30,32,34,36,38,40,42,44,46,48,50,52,54,56,58,60,62,64,66,68,70,72,74,76,78,80,82,84,86,88,90,92,94,96,98,100,102,104,106,108,110,112,114,116,118,120,122,124,126,-1,-1,-1,-1,-1,-1,-1,-1,-1,-1,-1,-1,-1,-1,-1,-1,-1,-1,-1,-1,-1,-1,-1,-1,-1,-1,-1,-1,-1,-1,-1,-1,-1,-1,-1,-1,-1,-1,-1,-1,-1,-1,-1,-1,-1,-1,-1,-1,-1,-1,-1,-1,-1,-1,-1,-1,-1,-1,-1,-1,-1,-1,-1,-1],"split_conditions":[5E-1,3.25E0,2.0282501E2,5E-1,2.83985E2,2.5E0,3.01115E2,9.95E1,5E-1,3.5E0,5E-1,3.25E0,1.35375E2,5.535E0,3.5E0,5.123E1,5E-1,2.25E0,2.3585E2,1.29465E2,1.40775E2,3.78335E2,3.16E0,3.9065002E1,5E-1,2.155E2,3.5E0,1.69E0,1.5E0,1.87E0,5.9849997E0,3.28E0,1.89545E2,2.75E0,4.4885E3,2.5E0,4.5E0,2.5E0,5.355E0,2.5E0,5.065E0,2.175E2,1.9916501E2,6.0150003E0,4.75E0,3.5E0,3.43335E2,2.18525E4,2.75E0,3.065E0,1.40405E4,3.75E0,3.5E0,5.505E0,5.535E0,2.27705E2,5.275E0,1.25E3,5.415E0,1.7045E4,2.779225E3,5E-1,5.21325E2,-2.1640737E-2,5.68438E-2,-3.6076542E-2,-6.754118E-2,-7.4204296E-2,-5.9352793E-2,8.2397E-3,-5.335611E-2,-5.349181E-2,-3.58963E-2,-1.9255245E-2,-3.0361414E-2,-2.1479888E-2,-9.542652E-3,-4.990783E-2,-3.1174451E-2,-1.51234185E-2,2.2882705E-3,-2.4197146E-2,-9.744591E-3,1.6640656E-2,3.1753343E-2,7.134338E-3,-4.736826E-3,-3.0143876E-2,-7.6272204E-3,-4.0312137E-2,-5.9700586E-2,-2.9338842E-2,-5.2753654E-3,-1.438801E-2,-2.9944366E-2,2.3880597E-2,-1.9234642E-2,-1.9290641E-2,-4.8668506E-3,1.9076858E-2,5.9885676E-3,-4.883721E-2,3.5208918E-3,1.0392315E-2,2.8662203E-2,2.9996354E-2,4.427574E-2,4.019425E-3,2.6145875E-2,1.8772585E-2,2.7094979E-2,1.6627636E-2,1.4578587E-3,-2.3247289E-2,-1.8939761E-3,-6.312501E-2,-7.4384006E-4,9.449856E-3,2.067811E-2,-2.1609537E-2,1.6759777E-2,-3.241348E-2,1.9092627E-2,-3.337108E-2,-8.0569945E-3,1.0068762E-2,-1.6949153E-2],"split_indices":[11,6,10,5,10,5,10,3,19,5,19,6,10,9,13,10,19,6,10,10,10,10,8,10,19,3,5,9,13,8,9,8,10,6,4,5,14,5,9,5,9,3,10,9,6,5,10,12,6,8,0,6,5,8,9,10,9,12,8,12,10,19,10,0,0,0,0,0,0,0,0,0,0,0,0,0,0,0,0,0,0,0,0,0,0,0,0,0,0,0,0,0,0,0,0,0,0,0,0,0,0,0,0,0,0,0,0,0,0,0,0,0,0,0,0,0,0,0,0,0,0,0,0,0,0,0,0],"split_type":[0,0,0,0,0,0,0,0,0,0,0,0,0,0,0,0,0,0,0,0,0,0,0,0,0,0,0,0,0,0,0,0,0,0,0,0,0,0,0,0,0,0,0,0,0,0,0,0,0,0,0,0,0,0,0,0,0,0,0,0,0,0,0,0,0,0,0,0,0,0,0,0,0,0,0,0,0,0,0,0,0,0,0,0,0,0,0,0,0,0,0,0,0,0,0,0,0,0,0,0,0,0,0,0,0,0,0,0,0,0,0,0,0,0,0,0,0,0,0,0,0,0,0,0,0,0,0],"sum_hessian":[2.980494E6,2.1998035E6,7.806905E5,3.45131E5,1.8546725E6,6.457535E5,1.34937E5,2.65065E4,3.186245E5,1.6915815E6,1.63091E5,8.1067E4,5.646865E5,9.41335E4,4.08035E4,1.02945E4,1.6212E4,2.007315E5,1.17893E5,1.0510555E6,6.40526E5,1.003485E5,6.27425E4,3.29245E4,4.81425E4,3.93953E5,1.707335E5,3.67195E4,5.7414E4,2.25E4,1.83035E4,6.62E2,9.6325E3,1.14105E4,4.8015E3,6.6237E4,1.344945E5,1.10476E5,7.417E3,7.42589E5,3.084665E5,2.710945E5,3.694315E5,5.96495E4,4.0699E4,2.27875E4,3.9955E4,3.1745E3,2.975E4,3.73705E4,1.0772E4,1.67484E5,2.26469E5,4.33175E4,1.27416E5,1.45425E4,2.2177E4,1.1073E4,4.6341E4,2.0785E3,2.04215E4,8.2735E3,1.003E4,3.525E2,3.095E2,7.9945E3,1.638E3,8.105E3,3.3055E3,2.66E2,4.5355E3,2.0991E4,4.5246E4,4.9814E4,8.46805E4,5.3868E4,5.6608E4,4.0675E3,3.3495E3,2.3404E5,5.08549E5,1.490765E5,1.5939E5,1.444915E5,1.26603E5,2.091775E5,1.60254E5,4.7123E4,1.25265E4,3.32855E4,7.4135E3,3.387E3,1.94005E4,1.57795E4,2.41755E4,2.679E3,4.955E2,1.0149E4,1.9601E4,2.8012E4,9.3585E3,2.785E2,1.04935E4,4.8506E4,1.18978E5,1.412145E5,8.52545E4,3.83005E4,5.017E3,8.108E4,4.6336E4,5.7635E3,8.779E3,6.6815E3,1.54955E4,3.19E2,1.0754E4,3.45445E4,1.17965E4,1.0055E3,1.073E3,1.98935E4,5.28E2,4.4145E3,3.859E3,8.143E3,1.887E3],"tree_param":{"num_deleted":"0","num_feature":"26","num_nodes":"127","size_leaf_vector":"0"}},{"base_weights":[-5.331471E-4,-6.5255806E-2,1.8224539E-1,-2.7071396E-1,-2.7007377E-2,2.236582E-1,-3.1619217E-2,-3.311854E-1,-1.9548766E-1,1.2849286E-3,-2.207919E-1,2.9286738E-2,2.4829815E-1,3.7866473E-2,-1.7666659E-1,-4.0469533E-1,-2.1877111E-1,-1.8893339E-1,-5.594772E-1,-3.7807733E-2,4.7279887E-2,-1.4859758E-1,-3.2850415E-1,-5.8804173E-2,8.446401E-2,2.8721505E-1,1.5722376E-1,-3.9300058E-2,8.4779404E-2,-2.671921E-1,-6.5219074E-2,-4.8372155E-1,-3.366966E-1,-1.9392052E-1,-4.1190016E-1,-1.959443E-1,8.685973E-2,-6.395933E-1,-7.786237E-2,2.4142382E-3,-1.1195696E-1,1.22305356E-1,-2.0812515E-2,-1.8118376E-1,4.879435E-2,-4.0155122E-1,-2.50426E-1,1.5866183E-2,-1.2225543E-1,1.9653058E-1,4.6217166E-2,2.1530771E-1,3.118689E-1,1.0568599E-1,2.1472734E-1,5.3637892E-2,-1.0319285E-1,2.1496162E-1,5.6315593E-2,-2.8041777E-1,2.1091902E-1,4.214409E-2,-1.56153E-1,-4.7238532E-1,-7.677856E-1,-3.2653254E-1,-8.3424693E-1,-2.101072E-1,5.042126E-2,-5.5942035E-1,-3.6631423E-1,-2.1378064E-1,-9.27976E-2,2.2822085E-1,-1.591662E-1,-6.5045714E-1,7.909606E-1,-7.293936E-1,8.421555E-2,-8.448699E-2,4.1479908E-2,-2.241498E-2,-1.843543E-1,1.0875711E-1,2.6804948E-1,-9.000435E-2,4.7731876E-2,-2.2658329E-1,-1.3845098E-1,1.9073006E-2,2.9690146E-1,-4.5817468E-1,-2.8830108E-1,-3.346634E-1,-1.6549388E-1,-1.2392847E-1,7.431264E-2,-2.5557118E-2,-2.039422E-1,1.7711042E-1,7.650249E-1,1.7053439E-1,1.04155345E-2,2.746428E-1,1.7855662E-1,3.3069733E-1,2.4484135E-1,1.5706427E-1,5.6660566E-2,3.3914065E-1,1.9727698E-1,1.9705671E-1,6.9826986E-3,-2.8445867E-1,-4.4207674E-2,1.5875615E-1,3.4958312E-1,1.276839E-2,1.284495E-1,-3.63999E-2,-3.0344963E-1,5.661482E-1,-1.9420926E-2,6.6675946E-2,-3.6398187E-1,-2.371442E-1,-3.7922844E-2],"categories":[],"categories_nodes":[],"categories_segments":[],"categories_sizes":[],"default_left":[1,1,1,1,1,1,1,1,1,1,1,0,1,1,1,1,1,1,1,1,1,1,1,1,1,0,1,1,1,1,1,1,1,1,1,1,1,1,1,0,1,1,1,1,1,1,1,1,0,1,1,1,1,1,1,1,1,1,1,1,1,1,1,0,0,0,0,0,0,0,0,0,0,0,0,0,0,0,0,0,0,0,0,0,0,0,0,0,0,0,0,0,0,0,0,0,0,0,0,0,0,0,0,0,0,0,0,0,0,0,0,0,0,0,0,0,0,0,0,0,0,0,0,0,0,0,0],"id":1,"left_children":[1,3,5,7,9,11,13,15,17,19,21,23,25,27,29,31,33,35,37,39,41,43,45,47,49,51,53,55,57,59,61,63,65,67,69,71,73,75,77,79,81,83,85,87,89,91,93,95,97,99,101,103,105,107,109,111,113,115,117,119,121,123,125,-1,-1,-1,-1,-1,-1,-1,-1,-1,-1,-1,-1,-1,-1,-1,-1,-1,-1,-1,-1,-1,-1,-1,-1,-1,-1,-1,-1,-1,-1,-1,-1,-1,-1,-1,-1,-1,-1,-1,-1,-1,-1,-1,-1,-1,-1,-1,-1,-1,-1,-1,-1,-1,-1,-1,-1,-1,-1,-1,-1,-1,-1,-1,-1],"loss_changes":[3.516478E4,1.7250871E4,6.8846133E3,1.5671953E3,1.0146543E4,3.118916E3,1.2709791E3,1.5781816E3,3.6617822E2,2.9037048E3,1.8333789E3,3.5613052E2,2.0484375E3,3.0865756E2,4.1205652E2,6.2037305E2,3.6234766E2,2.9163623E2,1.0471808E2,2.60352E3,3.790387E3,9.08001E2,5.3951074E2,1.3369836E2,1.9308493E2,7.1778906E2,5.1277686E2,1.9143002E2,1.9647186E2,1.4257117E2,1.7874756E2,1.7161523E2,3.1363574E2,2.6463892E2,5.7683838E1,2.705747E2,1.3009479E2,3.669226E1,4.1075607E1,1.921337E3,1.9901509E3,6.9700684E2,1.8446735E3,2.3502686E2,1.4749402E2,3.133125E2,3.2714673E2,1.05931755E2,1.2049609E2,1.2641461E2,1.4949316E2,2.2540381E2,3.804707E2,2.2983936E2,1.7748584E2,8.788086E1,2.0424637E2,7.192636E1,1.3668248E2,1.2324634E2,4.96965E1,8.367783E1,9.4910934E1,0E0,0E0,0E0,0E0,0E0,0E0,0E0,0E0,0E0,0E0,0E0,0E0,0E0,0E0,0E0,0E0,0E0,0E0,0E0,0E0,0E0,0E0,0E0,0E0,0E0,0E0,0E0,0E0,0E0,0E0,0E0,0E0,0E0,0E0,0E0,0E0,0E0,0E0,0E0,0E0,0E0,0E0,0E0,0E0,0E0,0E0,0E0,0E0,0E0,0E0,0E0,0E0,0E0,0E0,0E0,0E0,0E0,0E0,0E0,0E0,0E0,0E0,0E0,0E0],"parents":[2147483647,0,0,1,1,2,2,3,3,4,4,5,5,6,6,7,7,8,8,9,9,10,10,11,11,12,12,13,13,14,14,15,15,16,16,17,17,18,18,19,19,20,20,21,21,22,22,23,23,24,24,25,25,26,26,27,27,28,28,29,29,30,30,31,31,32,32,33,33,34,34,35,35,36,36,37,37,38,38,39,39,40,40,41,41,42,42,43,43,44,44,45,45,46,46,47,47,48,48,49,49,50,50,51,51,52,52,53,53,54,54,55,55,56,56,57,57,58,58,59,59,60,60,61,61,62,62],"right_children":[2,4,6,8,10,12,14,16,18,20,22,24,26,28,30,32,34,36,38,40,42,44,46,48,50,52,54,56,58,60,62,64,66,68,70,72,74,76,78,80,82,84,86,88,90,92,94,96,98,100,102,104,106,108,110,112,114,116,118,120,122,124,126,-1,-1,-1,-1,-1,-1,-1,-1,-1,-1,-1,-1,-1,-1,-1,-1,-1,-1,-1,-1,-1,-1,-1,-1,-1,-1,-1,-1,-1,-1,-1,-1,-1,-1,-1,-1,-1,-1,-1,-1,-1,-1,-1,-1,-1,-1,-1,-1,-1,-1,-1,-1,-1,-1,-1,-1,-1,-1,-1,-1,-1,-1,-1,-1],"split_conditions":[5E-1,3.25E0,2.0841501E2,2.75E0,2.4860501E2,3.25E0,3.01265E2,5E-1,2.58305E2,4.965E0,3.4014502E2,2.75E0,1.35375E2,5.535E0,3.5E0,2.1399999E0,2.07015E2,1.38443E5,2.59755E4,1.09604996E2,1.43555E2,5.995E0,2.5E0,1.14155E4,2.5249E4,3.75E0,5.4049997E0,1.69E0,2.6750002E0,2.779225E3,3.415E0,2.59765E2,3.917E2,5.1949997E0,2.5E0,3.98E0,8.4645004E1,5.5E0,1.59E2,3.75E0,3.8850002E0,5.475E0,5.375E0,5.525E0,1.5E0,5E-1,5.9849997E0,1.28E2,5E-1,2.52025E4,2.5E0,7.5E0,5E-1,1.58845E2,2.25E0,2.2138E2,5.245E0,6.0150003E0,3.5E0,1.87E0,4.565E0,7.8851E2,5E-1,-4.7238532E-2,-7.677856E-2,-3.2653254E-2,-8.3424695E-2,-2.1010721E-2,5.042126E-3,-5.5942036E-2,-3.6631424E-2,-2.1378065E-2,-9.2797605E-3,2.2822086E-2,-1.5916621E-2,-6.5045714E-2,7.9096064E-2,-7.293936E-2,8.421555E-3,-8.4486995E-3,4.147991E-3,-2.241498E-3,-1.8435432E-2,1.0875711E-2,2.6804948E-2,-9.000435E-3,4.773188E-3,-2.265833E-2,-1.3845098E-2,1.9073006E-3,2.9690146E-2,-4.581747E-2,-2.883011E-2,-3.346634E-2,-1.6549388E-2,-1.2392848E-2,7.4312645E-3,-2.555712E-3,-2.039422E-2,1.7711041E-2,7.6502495E-2,1.7053438E-2,1.0415534E-3,2.746428E-2,1.7855663E-2,3.3069734E-2,2.4484135E-2,1.5706427E-2,5.6660566E-3,3.3914067E-2,1.9727698E-2,1.9705672E-2,6.9826987E-4,-2.8445868E-2,-4.4207675E-3,1.5875615E-2,3.4958314E-2,1.276839E-3,1.284495E-2,-3.6399902E-3,-3.0344963E-2,5.6614824E-2,-1.9420926E-3,6.667595E-3,-3.6398187E-2,-2.3714421E-2,-3.7922845E-3],"split_indices":[11,6,10,6,10,6,10,19,10,9,10,6,10,9,13,8,10,4,12,10,10,9,13,12,4,6,9,9,8,10,8,10,10,8,23,8,10,17,2,6,9,9,9,9,16,19,9,3,6,4,14,14,19,10,8,10,9,9,13,8,9,10,19,0,0,0,0,0,0,0,0,0,0,0,0,0,0,0,0,0,0,0,0,0,0,0,0,0,0,0,0,0,0,0,0,0,0,0,0,0,0,0,0,0,0,0,0,0,0,0,0,0,0,0,0,0,0,0,0,0,0,0,0,0,0,0,0],"split_type":[0,0,0,0,0,0,0,0,0,0,0,0,0,0,0,0,0,0,0,0,0,0,0,0,0,0,0,0,0,0,0,0,0,0,0,0,0,0,0,0,0,0,0,0,0,0,0,0,0,0,0,0,0,0,0,0,0,0,0,0,0,0,0,0,0,0,0,0,0,0,0,0,0,0,0,0,0,0,0,0,0,0,0,0,0,0,0,0,0,0,0,0,0,0,0,0,0,0,0,0,0,0,0,0,0,0,0,0,0,0,0,0,0,0,0,0,0,0,0,0,0,0,0,0,0,0,0],"sum_hessian":[2.972529E6,2.1951998E6,7.77329E5,3.445238E5,1.850676E6,6.5122544E5,1.26103586E5,1.9099061E5,1.5353319E5,1.6149031E6,2.357729E5,7.326657E4,5.779589E5,8.5260055E4,4.084353E4,1.1547598E5,7.551463E4,1.5081895E5,2.7142422E3,8.72952E5,7.419511E5,1.4116152E5,9.461138E4,2.8217332E4,4.504924E4,4.0492753E5,1.7303134E5,3.2235848E4,5.3024207E4,2.2536445E4,1.8307086E4,5.3404555E4,6.207142E4,6.690743E4,8.607209E3,1.4708033E5,3.7386223E3,2.326846E3,3.873962E2,5.6595356E5,3.0699844E5,3.53004E5,3.8894716E5,1.2116006E5,2.0001459E4,4.88784E4,4.573298E4,1.2963017E4,1.5254315E4,1.14616045E4,3.3587633E4,1.03387914E5,3.0153962E5,9.125056E4,8.178078E4,1.3132938E4,1.9102908E4,9.512273E3,4.351193E4,2.1930217E4,6.0622797E2,8.395402E3,9.911684E3,5.1357668E4,2.0468866E3,6.083042E4,1.2409983E3,6.275059E4,4.1568374E3,2.0292144E3,6.577994E3,1.2539557E5,2.1684758E4,2.3744104E3,1.3642119E3,2.3098499E3,1.6996054E1,7.6475365E1,3.1092084E2,1.7551681E5,3.9043675E5,1.3724872E5,1.6974972E5,3.2298162E5,3.0022354E4,1.9355928E5,1.9538786E5,5.874489E4,6.2415168E4,1.7862717E4,2.138741E3,3.2583877E4,1.6294522E4,2.295892E4,2.2774062E4,3.821493E3,9.141524E3,6.985914E3,8.268401E3,1.108427E4,3.7733502E2,7.5091553E3,2.6078479E4,3.95414E4,6.384652E4,2.3540822E5,6.613141E4,4.455502E4,4.669554E4,1.0057414E4,7.172337E4,3.222794E3,9.910145E3,4.6891084E3,1.4413801E4,6.712101E3,2.8001729E3,2.7132957E4,1.6378975E4,1.891606E3,2.0038611E4,2.3789287E2,3.683351E2,7.9179575E3,4.7744485E2,5.881603E3,4.0300803E3],"tree_param":{"num_deleted":"0","num_feature":"26","num_nodes":"127","size_leaf_vector":"0"}},{"base_weights":[1.8600932E-3,-6.003794E-2,1.7665759E-1,-2.593889E-1,-2.3106862E-2,2.240313E-1,-3.7326613E-3,-4.8394263E-1,-2.3728156E-1,-2.0905237E-3,-2.6717463E-1,3.862699E-2,2.5179335E-1,5.4327354E-2,-1.7511408E-1,-3.1649205E-1,-5.896265E-1,-2.8232083E-1,-1.59855E-1,-6.830294E-2,1.0468844E-1,-3.226607E-1,-1.7971224E-1,-7.958124E-2,1.1919735E-1,2.8172818E-1,1.6875006E-1,3.762916E-2,1.9669428E-1,-2.6334745E-1,-6.6822805E-2,-1.3220677E-1,-4.070368E-1,-6.232656E-1,-5.134142E-1,-3.5306758E-1,-2.0840599E-1,-1.4197606E-1,-3.4616616E-1,-3.521945E-2,-1.8396941E-1,2.2636904E-1,1.8446185E-2,-2.6924723E-1,-4.6925172E-1,-8.60852E-2,-2.332427E-1,2.0146239E-1,-9.6797094E-2,1.3350515E-1,-8.339227E-2,2.1747813E-1,3.293896E-1,4.528447E-2,2.1249348E-1,7.552985E-2,-1.8534066E-2,-3.7540358E-2,2.4087372E-1,-3.2049185E-1,-1.451913E-1,-1.8536709E-1,4.8923023E-2,-3.6427414E-1,3.6118317E-2,-5.3227264E-1,-2.752672E-1,-6.697487E-1,-5.673833E-1,-5.6273407E-1,-3.2735887E-1,-3.6291286E-1,3.1552143E-2,-1.6662626E-1,-2.8755504E-1,-1.9275296E-1,-9.334547E-2,-4.1662553E-1,-2.4751362E-1,-1.4789116E-1,1.2822135E-2,-2.6909676E-1,-1.15512036E-1,1.5714905E-1,3.048805E-1,6.966292E-2,-4.312064E-2,-3.0414537E-1,-1.243283E-1,-5.5177826E-1,-3.57622E-1,-2.5906855E-1,-5.6385573E-2,-1.589566E-1,-3.0069476E-1,4.618735E-1,7.737583E-2,-2.6414065E-2,-1.6397907E-1,1.6262934E-1,3.3165142E-2,-7.870393E-3,-2.5411907E-1,-1.1632551E-2,2.4553965E-1,2.771341E-1,4.157053E-1,2.5192475E-2,2.2920717E-1,1.6869162E-1,2.5919503E-1,5.452033E-2,1.9359557E-1,-1.1941963E-1,9.0141315E-3,-7.2592527E-1,8.111312E-3,3.3352444E-1,1.8148129E-1,-2.621387E-1,-4.4858354E-1,-4.6870676E-1,-1.14836045E-1,-2.8323933E-1,-7.395578E-2,8.830626E-2,-3.0126345E-1],"categories":[],"categories_nodes":[],"categories_segments":[],"categories_sizes":[],"default_left":[1,1,1,1,1,1,1,1,1,1,1,1,1,1,1,1,1,1,1,1,1,1,1,1,1,1,1,1,1,1,1,1,1,1,1,1,1,1,1,1,1,1,1,1,1,1,1,1,1,1,1,1,1,1,1,1,1,1,1,1,1,1,1,0,0,0,0,0,0,0,0,0,0,0,0,0,0,0,0,0,0,0,0,0,0,0,0,0,0,0,0,0,0,0,0,0,0,0,0,0,0,0,0,0,0,0,0,0,0,0,0,0,0,0,0,0,0,0,0,0,0,0,0,0,0,0,0],"id":2,"left_children":[1,3,5,7,9,11,13,15,17,19,21,23,25,27,29,31,33,35,37,39,41,43,45,47,49,51,53,55,57,59,61,63,65,67,69,71,73,75,77,79,81,83,85,87,89,91,93,95,97,99,101,103,105,107,109,111,113,115,117,119,121,123,125,-1,-1,-1,-1,-1,-1,-1,-1,-1,-1,-1,-1,-1,-1,-1,-1,-1,-1,-1,-1,-1,-1,-1,-1,-1,-1,-1,-1,-1,-1,-1,-1,-1,-1,-1,-1,-1,-1,-1,-1,-1,-1,-1,-1,-1,-1,-1,-1,-1,-1,-1,-1,-1,-1,-1,-1,-1,-1,-1,-1,-1,-1,-1,-1],"loss_changes":[3.2230959E4,1.6196326E4,6.6573066E3,1.7068477E3,9.520542E3,3.17575E3,1.6123022E3,5.451753E2,1.0915742E3,1.2082215E4,7.140654E2,7.653213E2,1.3339609E3,2.8771667E2,3.917577E2,1.9894702E2,4.811328E1,1.0348301E3,3.8344214E2,4.0364614E3,6.8640063E3,7.048281E2,2.8626025E2,1.5761047E2,1.3852301E2,1.2078164E3,7.6792725E2,2.3058896E2,1.3148773E2,1.5250305E2,2.5261542E2,1.535549E2,1.3181433E2,3.365332E1,5.295349E1,3.8291992E2,3.200171E2,2.593772E2,6.996155E1,4.439831E3,1.3671494E3,1.4743633E3,1.2070258E3,3.3370605E2,2.2129736E2,1.06742325E2,1.8204956E2,6.0724922E1,1.4511954E2,1.3042883E2,4.064933E1,1.0800488E3,1.0213008E3,1.3745953E2,2.1472754E2,1.604273E2,1.2130951E2,6.3391033E1,5.876007E1,1.1370154E2,7.2291046E1,9.915549E1,1.2850577E2,0E0,0E0,0E0,0E0,0E0,0E0,0E0,0E0,0E0,0E0,0E0,0E0,0E0,0E0,0E0,0E0,0E0,0E0,0E0,0E0,0E0,0E0,0E0,0E0,0E0,0E0,0E0,0E0,0E0,0E0,0E0,0E0,0E0,0E0,0E0,0E0,0E0,0E0,0E0,0E0,0E0,0E0,0E0,0E0,0E0,0E0,0E0,0E0,0E0,0E0,0E0,0E0,0E0,0E0,0E0,0E0,0E0,0E0,0E0,0E0,0E0,0E0,0E0,0E0],"parents":[2147483647,0,0,1,1,2,2,3,3,4,4,5,5,6,6,7,7,8,8,9,9,10,10,11,11,12,12,13,13,14,14,15,15,16,16,17,17,18,18,19,19,20,20,21,21,22,22,23,23,24,24,25,25,26,26,27,27,28,28,29,29,30,30,31,31,32,32,33,33,34,34,35,35,36,36,37,37,38,38,39,39,40,40,41,41,42,42,43,43,44,44,45,45,46,46,47,47,48,48,49,49,50,50,51,51,52,52,53,53,54,54,55,55,56,56,57,57,58,58,59,59,60,60,61,61,62,62],"right_children":[2,4,6,8,10,12,14,16,18,20,22,24,26,28,30,32,34,36,38,40,42,44,46,48,50,52,54,56,58,60,62,64,66,68,70,72,74,76,78,80,82,84,86,88,90,92,94,96,98,100,102,104,106,108,110,112,114,116,118,120,122,124,126,-1,-1,-1,-1,-1,-1,-1,-1,-1,-1,-1,-1,-1,-1,-1,-1,-1,-1,-1,-1,-1,-1,-1,-1,-1,-1,-1,-1,-1,-1,-1,-1,-1,-1,-1,-1,-1,-1,-1,-1,-1,-1,-1,-1,-1,-1,-1,-1,-1,-1,-1,-1,-1,-1,-1,-1,-1,-1,-1,-1,-1,-1,-1,-1],"split_conditions":[5E-1,3.25E0,1.88015E2,1.5E0,2.94835E2,2.5E0,3.01535E2,9.95E1,5E-1,3.5E0,5E-1,3.25E0,1.35375E2,5.995E0,3.5E0,8.2005005E1,5E-1,2.75E0,2.06005E2,1.43185E2,1.40775E2,4.39005E2,3.16E0,3.5965E1,1.5E0,2.155E2,3.5E0,2.3307501E2,1.5E0,5E-1,6.0150003E0,1.25E0,5E-1,2.25E0,5E-1,5.645E0,1.85E1,2.5E0,5.3450003E0,2.5E0,5.075E0,2.18E2,1.99095E2,6.0950003E0,6.1549997E0,3.5E0,3.7276E2,2.5E0,8.5E0,5E-1,8.11E1,3.25E0,3.5E0,5.645E0,5.415E0,5.415E0,1.5E0,3.7E1,2.3876E2,4.0234998E2,3.5E0,5E-1,6.2715E2,-3.6427416E-2,3.6118317E-3,-5.3227264E-2,-2.7526721E-2,-6.697487E-2,-5.673833E-2,-5.627341E-2,-3.2735888E-2,-3.6291286E-2,3.1552145E-3,-1.6662626E-2,-2.8755505E-2,-1.9275296E-2,-9.334547E-3,-4.1662555E-2,-2.4751363E-2,-1.4789117E-2,1.2822136E-3,-2.6909677E-2,-1.1551204E-2,1.5714904E-2,3.048805E-2,6.9662924E-3,-4.312064E-3,-3.0414537E-2,-1.243283E-2,-5.5177826E-2,-3.5762202E-2,-2.5906855E-2,-5.6385575E-3,-1.5895661E-2,-3.0069476E-2,4.6187352E-2,7.737583E-3,-2.6414066E-3,-1.6397906E-2,1.6262934E-2,3.3165142E-3,-7.870393E-4,-2.5411908E-2,-1.1632552E-3,2.4553966E-2,2.7713409E-2,4.157053E-2,2.5192476E-3,2.2920718E-2,1.6869163E-2,2.5919503E-2,5.452033E-3,1.9359557E-2,-1.1941963E-2,9.0141315E-4,-7.259253E-2,8.111312E-4,3.3352446E-2,1.814813E-2,-2.621387E-2,-4.4858355E-2,-4.6870675E-2,-1.1483605E-2,-2.8323933E-2,-7.395578E-3,8.8306265E-3,-3.0126346E-2],"split_indices":[11,6,10,5,10,5,10,3,19,5,19,6,10,9,13,10,19,6,10,10,10,10,8,10,17,3,5,10,15,19,9,6,19,6,5,8,14,5,9,5,9,3,10,9,9,5,10,14,14,19,10,6,5,8,9,8,13,3,10,10,5,19,10,0,0,0,0,0,0,0,0,0,0,0,0,0,0,0,0,0,0,0,0,0,0,0,0,0,0,0,0,0,0,0,0,0,0,0,0,0,0,0,0,0,0,0,0,0,0,0,0,0,0,0,0,0,0,0,0,0,0,0,0,0,0,0,0],"split_type":[0,0,0,0,0,0,0,0,0,0,0,0,0,0,0,0,0,0,0,0,0,0,0,0,0,0,0,0,0,0,0,0,0,0,0,0,0,0,0,0,0,0,0,0,0,0,0,0,0,0,0,0,0,0,0,0,0,0,0,0,0,0,0,0,0,0,0,0,0,0,0,0,0,0,0,0,0,0,0,0,0,0,0,0,0,0,0,0,0,0,0,0,0,0,0,0,0,0,0,0,0,0,0,0,0,0,0,0,0,0,0,0,0,0,0,0,0,0,0,0,0,0,0,0,0,0,0],"sum_hessian":[2.978934E6,2.1999162E6,7.790179E5,3.4384778E5,1.8560684E6,6.16986E5,1.6203183E5,3.0815967E4,3.130318E5,1.7089169E6,1.4715145E5,8.035445E4,5.3663156E5,1.2103028E5,4.1001547E4,1.1925163E4,1.8890805E4,1.9790639E5,1.15125414E5,1.0548296E6,6.540874E5,9.003234E4,5.7119117E4,3.2569848E4,4.7784605E4,3.9444328E5,1.421883E5,1.0832601E5,1.2704274E4,2.2592355E4,1.8409191E4,3.929642E3,7.9955215E3,1.3101008E4,5.7897964E3,1.0111835E5,9.678804E4,1.0504662E5,1.0078797E4,8.202259E5,2.3460369E5,2.7130172E5,3.8278562E5,6.5990266E4,2.4042076E4,2.0778773E4,3.6340344E4,1.8793484E3,3.06905E4,4.4632777E4,3.1518281E3,1.6798989E5,2.2645339E5,3.71983E4,1.0498999E5,6.4678566E4,4.3647445E4,2.0159702E3,1.0688305E4,1.5226555E4,7.365801E3,9.0943545E3,9.314836E3,1.6515331E3,2.2781091E3,4.097836E3,3.8976853E3,7.145978E3,5.95503E3,4.575018E3,1.2147784E3,9.859464E4,2.5237166E3,6.335074E4,3.34373E4,5.138783E4,5.365879E4,5.877652E3,4.2011455E3,2.4518723E5,5.750386E5,1.0456868E5,1.3003501E5,1.4418412E5,1.2711759E5,2.0895675E5,1.7382888E5,5.3182273E4,1.2807993E4,1.382067E4,1.0221405E4,3.0436326E3,1.773514E4,1.7295676E4,1.9044668E4,6.05632E2,1.2737164E3,1.4988856E4,1.5701643E4,3.4591734E4,1.0041042E4,2.185921E3,9.659072E2,1.8330396E4,1.496595E5,1.4105992E5,8.539346E4,3.353592E4,3.6623777E3,5.4179305E4,5.0810688E4,5.4909086E4,9.76948E3,9.361374E3,3.428607E4,1.2445175E2,1.8915186E3,4.173357E3,6.5149478E3,1.0463069E4,4.763486E3,6.3060406E2,6.735197E3,4.8405244E3,4.2538306E3,8.373833E3,9.410038E2],"tree_param":{"num_deleted":"0","num_feature":"26","num_nodes":"127","size_leaf_vector":"0"}},{"base_weights":[4.8709306E-4,-5.9672907E-2,1.7027637E-1,-2.1518569E-1,-1.7580038E-2,2.0635805E-1,-4.47394E-2,-3.585681E-1,-1.8833208E-1,1.2571444E-2,-2.2050054E-1,3.27126E-2,2.3043008E-1,2.0337427E-2,-1.5768208E-1,-3.8291362E-1,-1.3499533E-1,-1.797517E-1,-3.8660526E-1,-5.095836E-2,9.930027E-2,-1.6468243E-1,-3.3025488E-1,8.664417E-2,-1.6264452E-2,2.6468548E-1,1.3861033E-1,-6.656071E-2,6.88912E-2,-2.3273215E-1,-4.4385295E-2,-4.3254292E-1,-2.7560124E-1,-2.358971E-2,-4.042872E-1,-2.2721934E-1,-1.4988491E-1,-3.2342052E-1,-5.5438983E-1,5.3262925E-3,-1.3642512E-1,1.8844068E-1,2.2249052E-2,-1.9796029E-1,4.3196743E-3,-4.0464538E-1,-2.3133203E-1,1.6826394E-1,4.8921328E-2,6.882574E-3,-1.0959674E-1,2.1224245E-1,3.1635317E-1,3.1206384E-2,1.713089E-1,-1.7193852E-1,-3.2849096E-2,-4.859933E-2,9.667377E-2,-2.903353E-1,-1.1002184E-1,-9.409248E-3,-2.2961304E-1,-5.111732E-1,-3.3716202E-1,-2.5278294E-1,-4.312724E-1,1.2191411E-1,-1.58066E-1,-3.2168698E-1,-6.7818266E-1,-1.7040315E-1,-2.547419E-1,-9.682634E-3,-1.6258402E-1,-2.3852204E-1,-4.126648E-1,-7.036213E-1,-4.9998537E-1,-6.816319E-2,3.8505476E-2,-2.1504156E-1,-7.5331084E-2,1.0946684E-1,2.875497E-1,-1.6663779E-2,7.667345E-2,-2.3574285E-1,-1.2845424E-1,1.4474984E-1,-5.6923434E-2,-3.1954795E-1,-4.549406E-1,-3.1803983E-1,-1.5133029E-1,-3.191628E-1,1.8907802E-1,1.9155845E-2,1.4653717E-1,-6.6983597E-3,2.8614494E-1,-1.2937662E-1,3.7773693E-1,1.13309175E-1,2.5547993E-1,2.5576004E-1,3.9035928E-1,2.7177127E-3,2.2065689E-1,1.3157998E-1,2.2457094E-1,-3.7551153E-1,-1.10627286E-1,1.2532404E-1,-5.79098E-2,-6.721141E-1,-2.7979745E-2,-2.3850251E-2,1.2155094E-1,-3.081503E-1,1.3358817E-1,-5.405028E-3,-3.0283406E-1,-1.412261E-1,6.343462E-2,-2.704836E-1,2.3814757E-1],"categories":[],"categories_nodes":[],"categories_segments":[],"categories_sizes":[],"default_left":[1,1,1,1,1,1,1,1,1,1,1,1,1,1,1,1,1,1,1,1,1,1,1,1,1,1,1,1,1,1,1,1,1,1,1,1,1,1,1,1,1,1,1,1,1,1,1,1,1,1,1,1,1,1,1,1,1,1,1,1,1,1,1,0,0,0,0,0,0,0,0,0,0,0,0,0,0,0,0,0,0,0,0,0,0,0,0,0,0,0,0,0,0,0,0,0,0,0,0,0,0,0,0,0,0,0,0,0,0,0,0,0,0,0,0,0,0,0,0,0,0,0,0,0,0,0,0],"id":3,"left_children":[1,3,5,7,9,11,13,15,17,19,21,23,25,27,29,31,33,35,37,39,41,43,45,47,49,51,53,55,57,59,61,63,65,67,69,71,73,75,77,79,81,83,85,87,89,91,93,95,97,99,101,103,105,107,109,111,113,115,117,119,121,123,125,-1,-1,-1,-1,-1,-1,-1,-1,-1,-1,-1,-1,-1,-1,-1,-1,-1,-1,-1,-1,-1,-1,-1,-1,-1,-1,-1,-1,-1,-1,-1,-1,-1,-1,-1,-1,-1,-1,-1,-1,-1,-1,-1,-1,-1,-1,-1,-1,-1,-1,-1,-1,-1,-1,-1,-1,-1,-1,-1,-1,-1,-1,-1,-1],"loss_changes":[3.0370223E4,1.4370854E4,6.0348047E3,1.8005254E3,1.0570846E4,2.784254E3,8.215598E2,4.014619E2,6.7002246E2,8.288053E3,1.3692207E3,2.1421332E2,1.8399609E3,2.9921893E2,3.4743115E2,3.5416797E2,2.1735812E2,5.352119E2,1.73021E2,4.1766E3,4.368208E3,8.332615E2,5.543906E2,1.1882843E2,9.182025E1,1.1543555E3,5.582156E2,9.0301926E1,1.4851422E2,1.737063E2,1.05488846E2,3.409541E2,7.4624756E1,1.003232E2,4.7749084E1,2.2795801E2,4.1259473E2,8.9841064E1,3.592273E1,1.2764329E3,1.6557935E3,2.3078633E3,7.22443E2,3.250464E2,2.0964659E2,1.8391895E2,2.2431384E2,1.2382916E2,7.669922E1,1.2916695E2,8.146444E1,9.044326E2,9.622578E2,2.0022621E2,2.5781348E2,7.685814E1,7.635646E1,1.1185442E2,1.1032822E2,1.26362915E2,1.5841884E2,1.3153658E2,4.950824E1,0E0,0E0,0E0,0E0,0E0,0E0,0E0,0E0,0E0,0E0,0E0,0E0,0E0,0E0,0E0,0E0,0E0,0E0,0E0,0E0,0E0,0E0,0E0,0E0,0E0,0E0,0E0,0E0,0E0,0E0,0E0,0E0,0E0,0E0,0E0,0E0,0E0,0E0,0E0,0E0,0E0,0E0,0E0,0E0,0E0,0E0,0E0,0E0,0E0,0E0,0E0,0E0,0E0,0E0,0E0,0E0,0E0,0E0,0E0,0E0,0E0,0E0,0E0,0E0],"parents":[2147483647,0,0,1,1,2,2,3,3,4,4,5,5,6,6,7,7,8,8,9,9,10,10,11,11,12,12,13,13,14,14,15,15,16,16,17,17,18,18,19,19,20,20,21,21,22,22,23,23,24,24,25,25,26,26,27,27,28,28,29,29,30,30,31,31,32,32,33,33,34,34,35,35,36,36,37,37,38,38,39,39,40,40,41,41,42,42,43,43,44,44,45,45,46,46,47,47,48,48,49,49,50,50,51,51,52,52,53,53,54,54,55,55,56,56,57,57,58,58,59,59,60,60,61,61,62,62],"right_children":[2,4,6,8,10,12,14,16,18,20,22,24,26,28,30,32,34,36,38,40,42,44,46,48,50,52,54,56,58,60,62,64,66,68,70,72,74,76,78,80,82,84,86,88,90,92,94,96,98,100,102,104,106,108,110,112,114,116,118,120,122,124,126,-1,-1,-1,-1,-1,-1,-1,-1,-1,-1,-1,-1,-1,-1,-1,-1,-1,-1,-1,-1,-1,-1,-1,-1,-1,-1,-1,-1,-1,-1,-1,-1,-1,-1,-1,-1,-1,-1,-1,-1,-1,-1,-1,-1,-1,-1,-1,-1,-1,-1,-1,-1,-1,-1,-1,-1,-1,-1,-1,-1,-1,-1,-1,-1],"split_conditions":[5E-1,2.5E0,2.18995E2,5E-1,2.5488501E2,2.5E0,3.02195E2,5.145E0,1.69005E2,3.5E0,3.74995E2,8.5E0,1.45815E2,5.535E0,5E-1,5E-1,1.8905E2,1.87E0,2.3304001E2,1.19705E2,1.40775E2,6.0150003E0,5E-1,5.109E1,1.01205E2,3.5E0,3.5E0,3.5E0,1.5E0,6.085E0,3.5E0,5E-1,2.0645999E2,4.895E0,3.2879498E2,3.5E0,5E-1,5E-1,1.05E1,2.165E2,5.005E0,2.175E2,5.455E0,5E-1,2.93925E2,1.375E2,5.9849997E0,1.13E2,4.745E0,4.855E0,5.565E0,2.155E2,2.155E2,5.545E0,5.535E0,1.28E2,3.877E4,1.575E3,1.5E0,1.529745E3,4.30005E2,1.575E2,2.95E1,-5.111732E-2,-3.37162E-2,-2.5278294E-2,-4.312724E-2,1.2191411E-2,-1.58066E-2,-3.2168698E-2,-6.781827E-2,-1.7040316E-2,-2.547419E-2,-9.682634E-4,-1.6258402E-2,-2.3852205E-2,-4.1266482E-2,-7.0362136E-2,-4.9998537E-2,-6.8163187E-3,3.8505476E-3,-2.1504156E-2,-7.5331083E-3,1.09466845E-2,2.875497E-2,-1.6663779E-3,7.667345E-3,-2.3574285E-2,-1.2845424E-2,1.4474983E-2,-5.6923437E-3,-3.1954795E-2,-4.549406E-2,-3.1803984E-2,-1.513303E-2,-3.191628E-2,1.8907802E-2,1.9155846E-3,1.4653717E-2,-6.69836E-4,2.8614495E-2,-1.2937662E-2,3.7773695E-2,1.13309175E-2,2.5547994E-2,2.5576005E-2,3.9035928E-2,2.7177128E-4,2.206569E-2,1.3157998E-2,2.2457095E-2,-3.7551153E-2,-1.1062729E-2,1.2532405E-2,-5.79098E-3,-6.721141E-2,-2.7979745E-3,-2.3850251E-3,1.2155094E-2,-3.081503E-2,1.33588165E-2,-5.405028E-4,-3.0283406E-2,-1.412261E-2,6.3434625E-3,-2.7048362E-2,2.3814758E-2],"split_indices":[11,5,10,5,10,5,10,8,10,5,10,14,10,9,19,19,10,8,10,10,10,9,19,10,10,5,5,5,13,9,21,7,10,9,10,14,14,21,14,3,9,3,9,19,10,3,9,3,9,8,9,3,3,8,9,2,0,12,15,10,10,2,1,0,0,0,0,0,0,0,0,0,0,0,0,0,0,0,0,0,0,0,0,0,0,0,0,0,0,0,0,0,0,0,0,0,0,0,0,0,0,0,0,0,0,0,0,0,0,0,0,0,0,0,0,0,0,0,0,0,0,0,0,0,0,0,0],"split_type":[0,0,0,0,0,0,0,0,0,0,0,0,0,0,0,0,0,0,0,0,0,0,0,0,0,0,0,0,0,0,0,0,0,0,0,0,0,0,0,0,0,0,0,0,0,0,0,0,0,0,0,0,0,0,0,0,0,0,0,0,0,0,0,0,0,0,0,0,0,0,0,0,0,0,0,0,0,0,0,0,0,0,0,0,0,0,0,0,0,0,0,0,0,0,0,0,0,0,0,0,0,0,0,0,0,0,0,0,0,0,0,0,0,0,0,0,0,0,0,0,0,0,0,0,0,0,0],"sum_hessian":[2.9732372E6,2.1953708E6,7.778665E5,4.6764497E5,1.7277258E6,6.660904E5,1.1177616E5,7.376593E4,3.9387903E5,1.5042185E6,2.2350736E5,8.109659E4,5.8499375E5,7.091577E4,4.086038E4,6.652149E4,7.2444375E3,3.7754256E5,1.6336467E4,8.6823056E5,6.359879E5,1.4815978E5,7.534757E4,3.859574E4,4.2500855E4,4.26046E5,1.5894778E5,2.5420168E4,4.549561E4,2.457822E4,1.628216E4,4.5483477E4,2.1038014E4,5.1252266E3,2.119211E3,1.458055E5,2.3173706E5,1.1869535E4,4.4669307E3,5.2348638E5,3.4474422E5,2.9486162E5,3.4112625E5,1.2378531E5,2.4374477E4,4.3004715E4,3.2342854E4,1.219858E4,2.6397158E4,3.405573E4,8.445121E3,2.1143912E5,2.1460686E5,3.7097324E4,1.2185045E5,6.160185E3,1.9259982E4,8.700607E3,3.6795E4,1.6725504E4,7.852717E3,1.3696868E4,2.5852913E3,2.4928518E4,2.055496E4,1.8350777E4,2.6872363E3,2.461725E3,2.6635017E3,1.6298595E3,4.8935138E2,4.7583582E4,9.8221914E4,1.9246885E4,2.1249019E5,6.0847534E3,5.7847817E3,1.1902206E3,3.2767102E3,1.628296E5,3.6065678E5,1.5075219E5,1.9399202E5,1.6410144E5,1.3076017E5,1.9890914E5,1.4221711E5,8.019174E4,4.3593566E4,7.4015024E3,1.6972975E4,1.5977983E4,2.7026732E4,1.5519487E4,1.6823365E4,4.989835E2,1.1699597E4,2.0229791E4,6.1673677E3,3.2477291E4,1.5784417E3,8.116427E3,3.286948E2,6.4304715E4,1.471344E5,1.1799879E5,9.660807E4,3.2248902E4,4.8484233E3,6.979375E4,5.20567E4,1.4246766E3,4.7355083E3,2.633621E3,1.6626361E4,2.7750647E2,8.423102E3,6.2953853E3,3.0499615E4,1.6051239E4,6.7426514E2,5.091292E3,2.7614248E3,4.874724E3,8.822145E3,2.3779404E3,2.0735081E2],"tree_param":{"num_deleted":"0","num_feature":"26","num_nodes":"127","size_leaf_vector":"0"}},{"base_weights":[1.2554684E-4,-5.806149E-2,1.6386124E-1,-2.0883128E-1,-1.7257895E-2,1.1757276E-2,1.8079755E-1,-4.3487692E-1,-1.8085946E-1,-1.9034028E-1,2.03536E-4,-7.241918E-2,7.470556E-2,2.1257035E-1,1.182723E-1,-5.051337E-1,-3.226811E-1,-2.9718947E-1,-1.6232865E-1,-2.3809877E-1,-1.0194766E-1,1.1008591E-2,-1.723971E-1,-2.26693E-1,-4.8341487E-2,-4.4479363E-2,2.212688E-1,2.2396255E-1,7.385153E-2,1.3188273E-1,-1.0011789E-2,-5.283416E-1,-3.6440405E-1,-3.8355598E-1,-1.5035692E-1,-1.7412056E-1,-3.4396118E-1,-2.083015E-1,-1.3736221E-1,-3.05003E-1,-1.476518E-1,-1.8071094E-1,-4.1397765E-2,-3.4529943E-2,5.7294298E-2,-1.4556001E-1,-2.833858E-1,-1.5330574E-2,-3.218176E-1,-2.1539262E-1,-2.6497532E-2,4.8874184E-2,-8.150017E-2,3.0277925E-2,2.618219E-1,1.853039E-1,2.6341197E-1,1.1354299E-1,-1.3319308E-1,7.358889E-2,1.5498644E-1,-6.9697425E-2,5.784917E-2,-6.6439134E-1,-5.070242E-1,-4.7710806E-1,-1.6493331E-1,-3.8714644E-1,7.5251144E-1,-2.3130272E-1,-4.6498906E-3,-2.369034E-1,-7.474939E-2,-4.5633677E-1,-2.8494638E-1,-4.47269E-2,-2.2509587E-1,-1.7489558E-1,-1.1835522E-1,-3.631744E-1,-2.2834809E-1,-1.7300665E-1,-7.915643E-2,-8.9483686E-2,-2.5665337E-1,-7.871353E-3,-2.1424286E-1,-2.6596516E-2,-1.0784274E-1,8.7768935E-2,-5.7713214E-2,-2.6380345E-1,-1.3223298E-1,-1.6076633E-1,-3.8449585E-1,2.4039371E-1,-1.4590465E-1,6.474918E-2,-3.863693E-1,-6.291343E-2,-4.861043E-1,-3.291214E-3,-1.8641013E-1,7.026004E-2,-2.6640728E-1,2.1529809E-2,-1.1978284E-1,-1.5780653E-1,3.2800367E-1,2.6898405E-1,-4.8003075E-1,2.1352845E-1,9.259283E-2,2.8603318E-1,1.8131852E-1,-8.784196E-2,1.4033309E-1,-1.9143254E-1,1.6528388E-2,4.8447777E-2,1.7819753E-1,2.1243685E-1,1.414621E-1,9.339861E-2,-1.2648484E-1,1.401731E-1,-2.5594573E-2],"categories":[],"categories_nodes":[],"categories_segments":[],"categories_sizes":[],"default_left":[1,1,1,1,1,1,1,1,1,1,0,1,1,1,1,1,1,1,0,1,1,1,1,1,1,1,0,1,1,1,1,1,0,1,1,1,0,1,1,0,1,1,1,1,1,1,1,1,1,1,1,1,1,1,1,1,1,1,1,1,1,0,1,0,0,0,0,0,0,0,0,0,0,0,0,0,0,0,0,0,0,0,0,0,0,0,0,0,0,0,0,0,0,0,0,0,0,0,0,0,0,0,0,0,0,0,0,0,0,0,0,0,0,0,0,0,0,0,0,0,0,0,0,0,0,0,0],"id":4,"left_children":[1,3,5,7,9,11,13,15,17,19,21,23,25,27,29,31,33,35,37,39,41,43,45,47,49,51,53,55,57,59,61,63,65,67,69,71,73,75,77,79,81,83,85,87,89,91,93,95,97,99,101,103,105,107,109,111,113,115,117,119,121,123,125,-1,-1,-1,-1,-1,-1,-1,-1,-1,-1,-1,-1,-1,-1,-1,-1,-1,-1,-1,-1,-1,-1,-1,-1,-1,-1,-1,-1,-1,-1,-1,-1,-1,-1,-1,-1,-1,-1,-1,-1,-1,-1,-1,-1,-1,-1,-1,-1,-1,-1,-1,-1,-1,-1,-1,-1,-1,-1,-1,-1,-1,-1,-1,-1],"loss_changes":[2.8289223E4,1.3477385E4,2.0055547E3,2.9502695E3,5.210808E3,4.1332376E2,1.3916465E3,4.0485352E2,8.950625E2,6.6697266E2,2.92079E3,1.2396062E2,7.795998E2,7.340254E2,4.12125E2,1.0299609E2,2.075249E2,3.2835352E2,4.1108008E2,6.206763E2,2.643172E2,3.10661E3,2.7478564E2,9.057825E1,1.0534321E2,8.5071945E1,1.5502039E2,6.5456836E2,2.897176E2,2.873938E2,9.170981E1,7.831543E1,1.0054462E2,5.9934814E1,6.0942917E1,9.801898E1,2.7403955E2,3.4628125E2,1.6557568E2,2.6283252E2,7.57348E1,1.6686523E2,1.8158931E2,4.3210394E2,2.5618167E3,1.1705408E2,2.2266797E2,4.6761505E1,7.755466E1,1.3777264E2,9.4750984E1,4.714975E1,6.95215E1,1.9642145E2,8.785193E1,5.6727686E2,3.9446973E2,1.5961188E2,4.9456123E1,1.5929538E2,1.1871289E2,1.11587585E2,7.278998E1,0E0,0E0,0E0,0E0,0E0,0E0,0E0,0E0,0E0,0E0,0E0,0E0,0E0,0E0,0E0,0E0,0E0,0E0,0E0,0E0,0E0,0E0,0E0,0E0,0E0,0E0,0E0,0E0,0E0,0E0,0E0,0E0,0E0,0E0,0E0,0E0,0E0,0E0,0E0,0E0,0E0,0E0,0E0,0E0,0E0,0E0,0E0,0E0,0E0,0E0,0E0,0E0,0E0,0E0,0E0,0E0,0E0,0E0,0E0,0E0,0E0,0E0,0E0,0E0],"parents":[2147483647,0,0,1,1,2,2,3,3,4,4,5,5,6,6,7,7,8,8,9,9,10,10,11,11,12,12,13,13,14,14,15,15,16,16,17,17,18,18,19,19,20,20,21,21,22,22,23,23,24,24,25,25,26,26,27,27,28,28,29,29,30,30,31,31,32,32,33,33,34,34,35,35,36,36,37,37,38,38,39,39,40,40,41,41,42,42,43,43,44,44,45,45,46,46,47,47,48,48,49,49,50,50,51,51,52,52,53,53,54,54,55,55,56,56,57,57,58,58,59,59,60,60,61,61,62,62],"right_children":[2,4,6,8,10,12,14,16,18,20,22,24,26,28,30,32,34,36,38,40,42,44,46,48,50,52,54,56,58,60,62,64,66,68,70,72,74,76,78,80,82,84,86,88,90,92,94,96,98,100,102,104,106,108,110,112,114,116,118,120,122,124,126,-1,-1,-1,-1,-1,-1,-1,-1,-1,-1,-1,-1,-1,-1,-1,-1,-1,-1,-1,-1,-1,-1,-1,-1,-1,-1,-1,-1,-1,-1,-1,-1,-1,-1,-1,-1,-1,-1,-1,-1,-1,-1,-1,-1,-1,-1,-1,-1,-1,-1,-1,-1,-1,-1,-1,-1,-1,-1,-1,-1,-1,-1,-1,-1],"split_conditions":[5E-1,2.5E0,3.25E0,2.25E0,3.25E0,2.5E0,4.165E0,5E-1,5E-1,2.165E2,4.75E0,1.245E0,2.175E2,5.785E0,5.9049997E0,3.795E0,1.55E1,9.95E1,3.25E0,5E-1,2.1399999E0,3.5E0,5.825E0,2.5E0,2.25E0,7.5E0,2.25E0,3.5E0,3.77E0,3.5E0,1.26615E4,3.9575E3,1.25E0,4.5E0,4.705E0,5.01E0,3.75E0,5E-1,1.7E0,2.25E0,4.035E0,4.615E0,2.195E2,5E-1,5.685E0,3.45E-1,2.175E2,9.5E0,2.155E2,5E-1,4.135E0,3.043285E5,1.05E1,4.79E0,1.985E2,5E-1,1.55E1,1.5E0,6.0150003E0,5.575E0,5.65E1,4.25E0,4.5E0,-6.643914E-2,-5.0702423E-2,-4.7710806E-2,-1.6493332E-2,-3.8714644E-2,7.525115E-2,-2.3130273E-2,-4.6498908E-4,-2.3690341E-2,-7.474939E-3,-4.5633677E-2,-2.849464E-2,-4.47269E-3,-2.2509588E-2,-1.7489558E-2,-1.1835522E-2,-3.631744E-2,-2.283481E-2,-1.7300665E-2,-7.915643E-3,-8.948369E-3,-2.5665337E-2,-7.8713533E-4,-2.1424286E-2,-2.6596517E-3,-1.0784275E-2,8.776894E-3,-5.7713217E-3,-2.6380345E-2,-1.3223298E-2,-1.6076634E-2,-3.8449585E-2,2.4039371E-2,-1.45904645E-2,6.474918E-3,-3.863693E-2,-6.2913434E-3,-4.861043E-2,-3.291214E-4,-1.8641014E-2,7.026004E-3,-2.6640728E-2,2.152981E-3,-1.1978284E-2,-1.5780654E-2,3.280037E-2,2.6898405E-2,-4.8003074E-2,2.1352846E-2,9.259283E-3,2.860332E-2,1.8131852E-2,-8.784196E-3,1.4033309E-2,-1.9143254E-2,1.6528389E-3,4.8447778E-3,1.7819753E-2,2.1243686E-2,1.4146211E-2,9.339861E-3,-1.2648485E-2,1.4017311E-2,-2.5594574E-3],"split_indices":[11,5,6,6,6,5,8,19,5,3,6,8,3,9,9,8,1,3,6,19,8,5,9,14,6,14,6,5,8,5,12,12,6,16,9,8,6,14,8,6,8,9,3,20,9,8,3,24,3,7,8,0,25,8,14,19,1,13,9,8,3,6,5,0,0,0,0,0,0,0,0,0,0,0,0,0,0,0,0,0,0,0,0,0,0,0,0,0,0,0,0,0,0,0,0,0,0,0,0,0,0,0,0,0,0,0,0,0,0,0,0,0,0,0,0,0,0,0,0,0,0,0,0,0,0,0,0],"split_type":[0,0,0,0,0,0,0,0,0,0,0,0,0,0,0,0,0,0,0,0,0,0,0,0,0,0,0,0,0,0,0,0,0,0,0,0,0,0,0,0,0,0,0,0,0,0,0,0,0,0,0,0,0,0,0,0,0,0,0,0,0,0,0,0,0,0,0,0,0,0,0,0,0,0,0,0,0,0,0,0,0,0,0,0,0,0,0,0,0,0,0,0,0,0,0,0,0,0,0,0,0,0,0,0,0,0,0,0,0,0,0,0,0,0,0,0,0,0,0,0,0,0,0,0,0,0,0],"sum_hessian":[2.9692795E6,2.1907495E6,7.785298E5,4.6661122E5,1.7241384E6,7.800178E4,7.0052806E5,5.138058E4,4.1523066E5,1.579991E5,1.5661392E6,3.337351E4,4.4628273E4,4.644904E5,2.3603762E5,3.1593375E4,1.9787205E4,5.7053496E4,3.5817716E5,1.0257576E5,5.5423344E4,1.4738735E6,9.226573E4,4.5043335E3,2.8869178E4,2.46134E4,2.0014871E4,4.292388E5,3.5251605E4,2.1339703E5,2.264059E4,2.711848E4,4.4748955E3,1.4620995E4,5.1662095E3,1.5713021E4,4.1340473E4,1.2605457E5,2.3212258E5,5.896017E4,4.3615582E4,2.408787E4,3.1335475E4,7.429333E5,7.309402E5,7.430184E4,1.7963889E4,1.3983735E3,3.1059597E3,3.3374263E3,2.5531752E4,6.9890747E3,1.7624326E4,3.5057527E3,1.650912E4,2.1679503E5,2.1244377E5,2.95812E4,5.6704077E3,6.0571367E4,1.5282567E5,1.2045875E4,1.0594715E4,3.6694495E3,2.3449031E4,2.858441E3,1.6164546E3,1.4575589E4,4.5406E1,3.3207947E3,1.8454149E3,9.628401E3,6.08462E3,1.4232433E4,2.7108041E4,1.1737431E4,1.1431714E5,7.8029164E4,1.5409342E5,3.3519406E4,2.5440766E4,3.1831152E4,1.1784431E4,1.0943713E4,1.3144156E4,2.6245695E4,5.0897793E3,6.7038956E5,7.254378E4,5.778279E5,1.5311233E5,7.5242754E3,6.677756E4,8.1195864E3,9.844303E3,4.7238486E2,9.2598865E2,4.4443927E2,2.6615205E3,2.1357122E3,1.201714E3,2.229705E4,3.2346997E3,6.545841E3,4.432338E2,4.7746826E3,1.2849644E4,2.1487666E3,1.356986E3,1.6351889E4,1.5723068E2,1.6619733E5,5.0597703E4,1.6654819E5,4.5895582E4,3.4728687E3,2.610833E4,4.0822092E3,1.5881984E3,4.8835867E4,1.1735502E4,2.9118338E4,1.2370733E5,3.1108188E3,8.935057E3,5.3328003E3,5.2619146E3],"tree_param":{"num_deleted":"0","num_feature":"26","num_nodes":"127","size_leaf_vector":"0"}},{"base_weights":[-2.534737E-4,-1.6822034E-1,3.783393E-2,-4.0135768E-1,-1.4203785E-1,9.643409E-2,-8.51965E-2,-4.7187132E-1,-2.8886524E-1,-5.085892E-2,-1.725849E-1,2.4061857E-2,2.0403777E-1,-3.6243144E-2,-2.367652E-1,-5.745227E-1,-4.196389E-1,-2.523256E-1,-5.077924E-1,-1.2796101E-1,2.130241E-2,-1.5562092E-1,-3.0470788E-1,1.1630793E-1,-3.1227838E-2,-5.9848048E-2,2.2079605E-1,-1.6393389E-1,1.1419605E-2,-2.92387E-1,-1.5173994E-1,-4.079219E-1,-6.394919E-1,-4.5936546E-1,-3.126037E-1,-3.032694E-1,-1.0792648E-1,-3.553746E-1,-6.648498E-1,8.3520256E-2,-1.6121502E-1,-2.4745452E-1,4.100638E-2,-2.284764E-1,-1.256864E-1,-3.675933E-1,-2.301421E-1,-1.6327668E-3,1.852243E-1,-8.353446E-2,1.8555738E-2,-2.071347E-1,1.0206804E-2,2.7214366E-1,1.6544795E-1,-2.2694167E-1,-8.197297E-2,-4.7712874E-2,5.5931255E-2,-2.4337006E-1,-4.362904E-1,-2.2080147E-1,-7.203454E-2,-3.218775E-1,-6.885105E-1,-6.5536016E-1,-2.1521127E-1,-5.8167076E-1,-4.141446E-1,-1.2557292E-1,-3.6753336E-1,-3.68393E-1,-1.9513449E-1,-1.9482382E-2,-2.391263E-1,-2.7757835E-1,-8.8495255E-1,-7.1735144E-1,-4.4852994E-2,2.3044424E-1,-2.8173715E-2,-1.3973051E-1,-3.981419E-1,-6.47556E-2,-4.270817E-1,-6.613701E-2,6.762206E-2,-2.4059951E-1,6.1402287E-2,-1.8379757E-1,-9.306036E-2,-4.336714E-1,-2.6313752E-1,-1.742137E-1,-3.8200432E-1,-1.4133577E-1,6.476215E-2,2.5584245E-1,1.4939067E-1,-2.937099E-1,-7.083448E-2,6.448786E-2,-3.520415E-2,-2.9331926E-1,-7.889724E-2,-4.4872623E-2,1.8246469E-1,2.0425832E-1,3.5252228E-1,1.2719731E-1,2.5232512E-1,-2.6603073E-1,-1.5475596E-1,-1.673656E-2,-1.3776144E-1,4.2327133E-4,-1.2069704E-1,1.1273652E-1,6.8249945E-3,-2.884334E-1,-7.8301474E-2,-4.5753846E-1,7.08106E-3,-1.6354169E-1,-3.1435126E-1,-1.8277714E-2,-1.9509986E-1],"categories":[],"categories_nodes":[],"categories_segments":[],"categories_sizes":[],"default_left":[1,1,1,1,1,1,1,1,1,0,1,1,1,1,1,1,1,1,1,1,1,0,1,1,1,1,1,1,1,1,1,1,1,1,1,1,1,1,1,1,1,1,1,1,1,1,1,1,1,0,1,1,1,1,1,1,1,1,1,1,1,1,1,0,0,0,0,0,0,0,0,0,0,0,0,0,0,0,0,0,0,0,0,0,0,0,0,0,0,0,0,0,0,0,0,0,0,0,0,0,0,0,0,0,0,0,0,0,0,0,0,0,0,0,0,0,0,0,0,0,0,0,0,0,0,0,0],"id":5,"left_children":[1,3,5,7,9,11,13,15,17,19,21,23,25,27,29,31,33,35,37,39,41,43,45,47,49,51,53,55,57,59,61,63,65,67,69,71,73,75,77,79,81,83,85,87,89,91,93,95,97,99,101,103,105,107,109,111,113,115,117,119,121,123,125,-1,-1,-1,-1,-1,-1,-1,-1,-1,-1,-1,-1,-1,-1,-1,-1,-1,-1,-1,-1,-1,-1,-1,-1,-1,-1,-1,-1,-1,-1,-1,-1,-1,-1,-1,-1,-1,-1,-1,-1,-1,-1,-1,-1,-1,-1,-1,-1,-1,-1,-1,-1,-1,-1,-1,-1,-1,-1,-1,-1,-1,-1,-1,-1],"loss_changes":[1.8972248E4,3.3460234E3,1.7428795E4,4.3887988E2,1.372625E3,1.2752005E4,5.7870513E3,1.8215967E2,1.7048328E2,6.881045E2,8.2733887E2,4.993272E3,2.9119531E3,3.588004E3,9.004453E2,1.2388696E2,9.574341E1,1.3443335E2,7.276453E1,4.20498E2,3.3831943E2,7.1344385E2,1.9687134E2,2.982126E3,1.5939954E3,4.0571698E2,1.7595801E3,8.275039E2,1.1299543E3,8.118203E2,4.1449536E2,7.7536316E1,5.540332E1,9.0707275E1,6.2696533E1,9.507849E1,5.532957E1,6.3603775E1,4.8818848E1,1.3333997E2,2.6294214E2,1.4318768E2,1.6974384E2,3.3481787E2,4.3960815E2,1.5714966E2,1.6317218E2,1.2551617E3,5.859658E2,7.967456E2,7.744506E2,1.4005194E2,2.5283556E2,1.7524668E3,9.901577E2,2.5559082E2,2.5347745E2,6.477245E2,6.832306E2,6.3866895E2,2.7551172E2,2.1606177E2,2.3127205E2,0E0,0E0,0E0,0E0,0E0,0E0,0E0,0E0,0E0,0E0,0E0,0E0,0E0,0E0,0E0,0E0,0E0,0E0,0E0,0E0,0E0,0E0,0E0,0E0,0E0,0E0,0E0,0E0,0E0,0E0,0E0,0E0,0E0,0E0,0E0,0E0,0E0,0E0,0E0,0E0,0E0,0E0,0E0,0E0,0E0,0E0,0E0,0E0,0E0,0E0,0E0,0E0,0E0,0E0,0E0,0E0,0E0,0E0,0E0,0E0,0E0,0E0,0E0,0E0],"parents":[2147483647,0,0,1,1,2,2,3,3,4,4,5,5,6,6,7,7,8,8,9,9,10,10,11,11,12,12,13,13,14,14,15,15,16,16,17,17,18,18,19,19,20,20,21,21,22,22,23,23,24,24,25,25,26,26,27,27,28,28,29,29,30,30,31,31,32,32,33,33,34,34,35,35,36,36,37,37,38,38,39,39,40,40,41,41,42,42,43,43,44,44,45,45,46,46,47,47,48,48,49,49,50,50,51,51,52,52,53,53,54,54,55,55,56,56,57,57,58,58,59,59,60,60,61,61,62,62],"right_children":[2,4,6,8,10,12,14,16,18,20,22,24,26,28,30,32,34,36,38,40,42,44,46,48,50,52,54,56,58,60,62,64,66,68,70,72,74,76,78,80,82,84,86,88,90,92,94,96,98,100,102,104,106,108,110,112,114,116,118,120,122,124,126,-1,-1,-1,-1,-1,-1,-1,-1,-1,-1,-1,-1,-1,-1,-1,-1,-1,-1,-1,-1,-1,-1,-1,-1,-1,-1,-1,-1,-1,-1,-1,-1,-1,-1,-1,-1,-1,-1,-1,-1,-1,-1,-1,-1,-1,-1,-1,-1,-1,-1,-1,-1,-1,-1,-1,-1,-1,-1,-1,-1,-1,-1,-1,-1],"split_conditions":[2.5E0,2.25E0,1.68745E2,5E-1,5.9835E1,3.5E0,2.97025E2,1.5E0,1.54235E2,3.25E0,1.4983499E2,8.9695E1,3.25E0,3.5E0,5E-1,9.95E1,2.915E0,1.55E1,1.815E2,3.9980003E1,1.5E0,3.25E0,5.0150003E0,2.18E2,4.915E0,2.0149999E0,1.19065E2,5.275E0,5.455E0,4.44925E2,5.925E0,4.915E0,5.915E0,7.4635E3,4.491E1,2.6E0,7.704E4,8.5E0,6.075E2,5.5E0,4.615E0,4.225E0,5E-1,5.145E0,1.7E0,5E-1,2.37015E2,3.25E0,6.9244995E1,2.75E0,1.27155E2,5E-1,5E-1,2.155E2,5.4049997E0,5E-1,5E-1,2.1141501E2,2.18995E2,6.0950003E0,3.64175E3,3.87015E2,4.865E0,-3.2187752E-2,-6.8851046E-2,-6.5536015E-2,-2.1521127E-2,-5.8167078E-2,-4.1414462E-2,-1.2557292E-2,-3.6753338E-2,-3.6839303E-2,-1.9513449E-2,-1.9482382E-3,-2.391263E-2,-2.7757837E-2,-8.8495255E-2,-7.173514E-2,-4.4852993E-3,2.3044424E-2,-2.8173716E-3,-1.3973052E-2,-3.981419E-2,-6.4755604E-3,-4.270817E-2,-6.613701E-3,6.762206E-3,-2.4059951E-2,6.140229E-3,-1.8379757E-2,-9.306036E-3,-4.3367144E-2,-2.6313752E-2,-1.742137E-2,-3.8200434E-2,-1.4133577E-2,6.4762156E-3,2.5584245E-2,1.4939067E-2,-2.9370992E-2,-7.083448E-3,6.4487862E-3,-3.520415E-3,-2.9331926E-2,-7.889724E-3,-4.4872626E-3,1.824647E-2,2.0425832E-2,3.525223E-2,1.2719731E-2,2.5232513E-2,-2.6603073E-2,-1.5475596E-2,-1.6736559E-3,-1.3776145E-2,4.2327134E-5,-1.2069704E-2,1.1273652E-2,6.8249943E-4,-2.8843341E-2,-7.830148E-3,-4.5753848E-2,7.0810603E-4,-1.635417E-2,-3.143513E-2,-1.8277714E-3,-1.9509986E-2],"split_indices":[5,6,10,19,10,5,10,5,10,6,10,10,6,5,19,2,8,1,2,10,5,6,9,3,9,8,10,9,9,10,9,9,8,12,10,8,4,23,10,14,9,9,7,8,8,19,10,6,10,6,10,19,7,3,9,19,7,10,10,9,10,10,8,0,0,0,0,0,0,0,0,0,0,0,0,0,0,0,0,0,0,0,0,0,0,0,0,0,0,0,0,0,0,0,0,0,0,0,0,0,0,0,0,0,0,0,0,0,0,0,0,0,0,0,0,0,0,0,0,0,0,0,0,0,0,0,0],"split_type":[0,0,0,0,0,0,0,0,0,0,0,0,0,0,0,0,0,0,0,0,0,0,0,0,0,0,0,0,0,0,0,0,0,0,0,0,0,0,0,0,0,0,0,0,0,0,0,0,0,0,0,0,0,0,0,0,0,0,0,0,0,0,0,0,0,0,0,0,0,0,0,0,0,0,0,0,0,0,0,0,0,0,0,0,0,0,0,0,0,0,0,0,0,0,0,0,0,0,0,0,0,0,0,0,0,0,0,0,0,0,0,0,0,0,0,0,0,0,0,0,0,0,0,0,0,0,0],"sum_hessian":[2.9656068E6,5.481669E5,2.4174398E6,5.534476E4,4.9282212E5,1.6374922E6,7.799475E5,3.4018043E4,2.1326719E4,1.23674016E5,3.6914812E5,9.7902175E5,6.584705E5,5.895402E5,1.9040728E5,1.1468747E4,2.2549297E4,1.8278186E4,3.0485332E3,5.978977E4,6.3884246E4,3.2714622E5,4.2001902E4,3.668924E5,6.121293E5,3.9319527E4,6.19151E5,1.6024197E5,4.2929822E5,1.1510528E5,7.530201E4,3.2197131E3,8.249034E3,1.6443082E4,6.1062134E3,1.3510576E4,4.7676094E3,1.5487737E3,1.4997594E3,8.123877E3,5.1665895E4,4.362967E3,5.952128E4,9.52696E4,2.3187661E5,2.2783447E4,1.9218457E4,1.3531711E5,2.315753E5,2.985003E5,3.1362903E5,1.2673081E4,2.6646445E4,3.2118088E5,2.9797012E5,9.059495E4,6.9647016E4,1.8436905E5,2.4492917E5,8.586148E4,2.9243797E4,4.0343883E4,3.4958125E4,2.465728E3,7.539852E2,7.9511143E3,2.979196E2,4.435331E3,1.2007752E4,1.3869729E3,4.71924E3,8.430779E3,5.0797974E3,2.8485205E3,1.9190891E3,1.3517261E3,1.9704762E2,1.382529E3,1.172303E2,3.508145E3,4.615732E3,4.7371812E4,4.2940825E3,2.1636638E3,2.1993032E3,1.1843383E4,4.7677895E4,9.144541E4,3.8241987E3,8.337334E4,1.4850325E5,1.3953432E4,8.830017E3,1.4047235E4,5.1712217E3,4.359235E4,9.172475E4,7.795044E4,1.5362488E5,1.7007998E4,2.814923E5,1.691274E5,1.4450162E5,7.5785063E3,5.0945747E3,2.0191088E4,6.455357E3,1.7412434E5,1.4705653E5,2.0688458E5,9.108555E4,5.8768652E4,3.1826305E4,3.2105568E4,3.7541445E4,1.1109692E5,7.3272125E4,1.13561695E5,1.3136748E5,6.744767E4,1.8413805E4,2.7906385E4,1.3374128E3,2.5027713E4,1.5316171E4,2.4331084E4,1.0627041E4],"tree_param":{"num_deleted":"0","num_feature":"26","num_nodes":"127","size_leaf_vector":"0"}},{"base_weights":[1.6971413E-3,-5.3218577E-2,1.5659796E-1,-2.243073E-1,-2.147262E-2,1.8606213E-1,-7.8653626E-2,-4.3975532E-1,-2.065662E-1,8.059738E-3,-1.6853054E-1,3.244617E-2,2.0653889E-1,-5.634161E-3,-1.4802234E-1,-2.9429987E-1,-5.322205E-1,-2.5596464E-1,-1.4929861E-1,-5.3529732E-2,1.2595081E-1,-1.1637218E-1,-2.8829554E-1,-5.883333E-2,9.450191E-2,2.524957E-1,1.23234786E-1,-4.9128857E-1,1.0568005E-3,5.289363E-2,-1.8916853E-1,4.290004E-3,-3.4133026E-1,-5.698735E-1,-4.3832806E-1,-3.1484994E-1,-1.6789275E-1,-1.41547E-1,-4.870591E-1,-1.3994688E-1,-2.1991588E-2,1.9746193E-1,5.1489215E-2,-2.5233454E-1,-7.7585034E-2,-3.4392914E-1,-2.072875E-1,-1.4198263E-2,-1.7173311E-1,1.2602796E-1,-3.7788026E-2,1.9762762E-1,2.9327318E-1,1.8673781E-2,1.5498738E-1,-5.746959E-1,4.3748552E-1,-3.8944207E-2,6.833609E-2,-1.3218066E-1,1.1173778E-1,-2.828818E-1,-1.3096978E-1,-3.8407448E-1,1.7896184E-1,-3.1330863E-1,-6.549046E-1,-6.483585E-1,-5.2740633E-1,-1.9722527E-1,-4.8694974E-1,-3.2438973E-1,2.938278E-2,-1.3590392E-1,-2.7820283E-1,-6.491999E-2,-1.7218226E-1,-1.7561445E-1,-5.565427E-1,-9.907349E-2,-1.9753627E-1,5.0677195E-2,-9.297645E-2,1.3385768E-1,2.6963773E-1,9.300245E-2,2.0713996E-2,-3.483525E-1,-2.0657662E-1,-1.0803641E-1,-1.315883E-2,-3.148731E-1,-5.088407E-1,-9.9467844E-2,-2.7016768E-1,-3.107595E-1,9.716974E-3,-1.9195616E-1,1.8583617E-1,6.554059E-3,1.4936443E-1,-1.300676E-2,-4.0114993E-1,8.748459E-2,2.4257706E-1,3.506591E-1,2.3263733E-1,-1.3773633E-2,2.3088229E-1,2.1111718E-1,1.2694883E-1,-8.025335E-1,-1.3951448E-1,6.2070304E-1,-8.2516706E-1,-9.7767717E-1,-3.6167525E-2,-9.454231E-1,7.364669E-2,-9.801327E-2,-9.69999E-1,1.9264932E-1,-1.20778E-2,-2.3251846E-1,-4.429588E-1,-7.4745454E-2,-2.2853634E-1],"categories":[],"categories_nodes":[],"categories_segments":[],"categories_sizes":[],"default_left":[1,1,1,1,1,1,1,1,1,1,1,1,1,1,1,1,1,1,1,1,1,1,1,1,1,1,1,1,1,1,1,1,1,1,1,1,1,1,1,1,1,1,1,1,1,1,1,1,1,1,1,1,1,1,1,1,1,1,1,1,1,1,1,0,0,0,0,0,0,0,0,0,0,0,0,0,0,0,0,0,0,0,0,0,0,0,0,0,0,0,0,0,0,0,0,0,0,0,0,0,0,0,0,0,0,0,0,0,0,0,0,0,0,0,0,0,0,0,0,0,0,0,0,0,0,0,0],"id":6,"left_children":[1,3,5,7,9,11,13,15,17,19,21,23,25,27,29,31,33,35,37,39,41,43,45,47,49,51,53,55,57,59,61,63,65,67,69,71,73,75,77,79,81,83,85,87,89,91,93,95,97,99,101,103,105,107,109,111,113,115,117,119,121,123,125,-1,-1,-1,-1,-1,-1,-1,-1,-1,-1,-1,-1,-1,-1,-1,-1,-1,-1,-1,-1,-1,-1,-1,-1,-1,-1,-1,-1,-1,-1,-1,-1,-1,-1,-1,-1,-1,-1,-1,-1,-1,-1,-1,-1,-1,-1,-1,-1,-1,-1,-1,-1,-1,-1,-1,-1,-1,-1,-1,-1,-1,-1,-1,-1],"loss_changes":[2.5257588E4,1.1905979E4,5.386746E3,1.3112773E3,8.030111E3,2.1724395E3,4.3814532E2,3.508921E2,8.9668945E2,1.118007E4,1.9315801E3,4.6014932E2,2.3330156E3,1.3694135E2,3.6672186E2,1.4248169E2,5.6160156E1,8.8254297E2,3.842871E2,2.756489E3,2.8135234E3,1.1359624E3,4.2271143E2,1.6567207E2,2.0168768E2,8.7865234E2,7.193511E2,4.461757E1,1.1187876E2,8.214028E1,2.007732E2,9.379327E1,7.681622E1,3.76062E1,5.3494812E1,3.3493652E2,2.4059814E2,3.3687695E2,7.116638E1,6.3651514E2,3.8222407E3,1.23729E3,3.3070105E2,2.0999194E2,3.288053E2,2.663252E2,2.589414E2,1.6711671E2,6.7393585E1,1.08880615E2,8.380267E1,8.289697E2,7.838711E2,3.475284E2,2.6153418E2,5.203653E1,1.1561312E1,6.79202E1,8.351915E1,5.1995415E1,5.7329033E1,1.1360974E2,1.2458948E2,0E0,0E0,0E0,0E0,0E0,0E0,0E0,0E0,0E0,0E0,0E0,0E0,0E0,0E0,0E0,0E0,0E0,0E0,0E0,0E0,0E0,0E0,0E0,0E0,0E0,0E0,0E0,0E0,0E0,0E0,0E0,0E0,0E0,0E0,0E0,0E0,0E0,0E0,0E0,0E0,0E0,0E0,0E0,0E0,0E0,0E0,0E0,0E0,0E0,0E0,0E0,0E0,0E0,0E0,0E0,0E0,0E0,0E0,0E0,0E0,0E0,0E0,0E0,0E0],"parents":[2147483647,0,0,1,1,2,2,3,3,4,4,5,5,6,6,7,7,8,8,9,9,10,10,11,11,12,12,13,13,14,14,15,15,16,16,17,17,18,18,19,19,20,20,21,21,22,22,23,23,24,24,25,25,26,26,27,27,28,28,29,29,30,30,31,31,32,32,33,33,34,34,35,35,36,36,37,37,38,38,39,39,40,40,41,41,42,42,43,43,44,44,45,45,46,46,47,47,48,48,49,49,50,50,51,51,52,52,53,53,54,54,55,55,56,56,57,57,58,58,59,59,60,60,61,61,62,62],"right_children":[2,4,6,8,10,12,14,16,18,20,22,24,26,28,30,32,34,36,38,40,42,44,46,48,50,52,54,56,58,60,62,64,66,68,70,72,74,76,78,80,82,84,86,88,90,92,94,96,98,100,102,104,106,108,110,112,114,116,118,120,122,124,126,-1,-1,-1,-1,-1,-1,-1,-1,-1,-1,-1,-1,-1,-1,-1,-1,-1,-1,-1,-1,-1,-1,-1,-1,-1,-1,-1,-1,-1,-1,-1,-1,-1,-1,-1,-1,-1,-1,-1,-1,-1,-1,-1,-1,-1,-1,-1,-1,-1,-1,-1,-1,-1,-1,-1,-1,-1,-1,-1,-1,-1,-1,-1,-1],"split_conditions":[5E-1,3.25E0,2.39005E2,5E-1,2.19595E2,2.5E0,2.95765E2,9.95E1,2.75E0,3.5E0,3.4014502E2,3.25E0,1.3514499E2,2.75E0,2.35E0,6.4795E1,2.75E0,5E-1,2.3807E2,2.5E0,1.40775E2,3.5E0,5E-1,9.6633E4,9.7005005E1,2.155E2,3.5E0,2.195E2,3.5E0,1.95E1,2.5E0,1.31005E4,2.59745E2,1.15E1,3.712E3,5.625E0,1.46005E2,3.5E0,3.95E1,8.9515E1,1.09604996E2,2.18E2,1.69055E2,1.65E1,5E-1,5.84485E2,3.16E0,8.95E-1,1.390485E5,1.245E0,1.5E0,3.75E0,9.0994995E1,5.505E0,1.60995E2,4.5E0,6E1,2.39455E2,2.5E0,2.6165E4,4.3007E2,4.1799E2,5.115E0,-3.840745E-2,1.7896185E-2,-3.1330865E-2,-6.549046E-2,-6.4835854E-2,-5.2740633E-2,-1.9722527E-2,-4.8694976E-2,-3.2438975E-2,2.938278E-3,-1.3590393E-2,-2.7820284E-2,-6.4919996E-3,-1.7218227E-2,-1.7561445E-2,-5.565427E-2,-9.907349E-3,-1.9753627E-2,5.0677196E-3,-9.297646E-3,1.3385768E-2,2.6963774E-2,9.300246E-3,2.0713997E-3,-3.483525E-2,-2.0657662E-2,-1.0803641E-2,-1.315883E-3,-3.1487312E-2,-5.0884068E-2,-9.946785E-3,-2.7016768E-2,-3.1075953E-2,9.716974E-4,-1.9195616E-2,1.8583616E-2,6.554059E-4,1.49364425E-2,-1.300676E-3,-4.0114995E-2,8.74846E-3,2.4257706E-2,3.506591E-2,2.3263734E-2,-1.3773633E-3,2.308823E-2,2.1111717E-2,1.2694883E-2,-8.0253355E-2,-1.3951448E-2,6.2070306E-2,-8.251671E-2,-9.776772E-2,-3.6167526E-3,-9.454232E-2,7.364669E-3,-9.801327E-3,-9.6999906E-2,1.9264933E-2,-1.20778E-3,-2.3251846E-2,-4.429588E-2,-7.4745454E-3,-2.2853633E-2],"split_indices":[11,6,10,5,10,5,10,3,6,5,10,6,10,6,8,10,6,19,10,5,10,5,19,4,10,3,5,3,13,14,13,12,10,24,12,8,10,14,3,10,10,3,10,14,19,10,8,8,4,8,17,6,10,8,10,13,14,10,5,12,10,10,8,0,0,0,0,0,0,0,0,0,0,0,0,0,0,0,0,0,0,0,0,0,0,0,0,0,0,0,0,0,0,0,0,0,0,0,0,0,0,0,0,0,0,0,0,0,0,0,0,0,0,0,0,0,0,0,0,0,0,0,0,0,0,0,0],"split_type":[0,0,0,0,0,0,0,0,0,0,0,0,0,0,0,0,0,0,0,0,0,0,0,0,0,0,0,0,0,0,0,0,0,0,0,0,0,0,0,0,0,0,0,0,0,0,0,0,0,0,0,0,0,0,0,0,0,0,0,0,0,0,0,0,0,0,0,0,0,0,0,0,0,0,0,0,0,0,0,0,0,0,0,0,0,0,0,0,0,0,0,0,0,0,0,0,0,0,0,0,0,0,0,0,0,0,0,0,0,0,0,0,0,0,0,0,0,0,0,0,0,0,0,0,0,0,0],"sum_hessian":[2.9692122E6,2.1920745E6,7.771376E5,3.430839E5,1.8489908E6,6.906385E5,8.649911E4,2.6100115E4,3.1698378E5,1.5397725E6,3.0921816E5,8.123308E4,6.0940544E5,4.2141188E4,4.435792E4,1.0145143E4,1.5954972E4,1.7018253E5,1.4680125E5,1.01139375E6,5.283788E5,2.154085E5,9.380966E4,3.2875562E4,4.8357516E4,3.9273894E5,2.1666648E5,5.7171344E2,4.1569473E4,7.5399956E3,3.6817926E4,1.3806272E3,8.764516E3,1.1384473E4,4.5704985E3,1.0198936E5,6.819317E4,1.4350912E5,3.2921204E3,2.7041922E5,7.4097456E5,2.695285E5,2.588503E5,4.7810543E4,1.6759795E5,5.561317E4,3.819649E4,2.3561586E4,9.313977E3,3.9051254E4,9.306264E3,1.6744256E5,2.2529639E5,5.047018E4,1.661963E5,5.24952E2,4.6761402E1,2.6069959E4,1.5499514E4,1.818687E3,5.7213086E3,1.4103771E4,2.2714154E4,4.2794272E2,9.526846E2,8.0473843E3,7.1713165E2,3.9921577E3,7.392315E3,7.6787164E2,3.8026272E3,9.923919E4,2.7501748E3,5.286506E4,1.5328109E4,4.098865E4,1.0252048E5,6.011461E2,2.690974E3,1.5816572E5,1.1225349E5,3.6614453E5,3.7483003E5,1.432732E5,1.2625529E5,1.1019895E5,1.4865134E5,1.5428633E4,3.238191E4,1.13806195E5,5.3791758E4,4.728488E4,8.328293E3,1.4071276E4,2.4125213E4,1.7573647E3,2.1804223E4,8.815842E3,4.9813443E2,6.3815283E3,3.2669725E4,8.713068E3,5.9319507E2,4.8529645E4,1.1891292E5,1.1574771E5,1.0954868E5,4.37774E4,6.692781E3,5.5361902E4,1.108344E5,3.4400525E2,1.8094678E2,4.127989E1,5.4815154E0,7.584951E1,2.599411E4,7.984878E1,1.5419665E4,1.7484978E3,7.0189186E1,3.4598167E3,2.2614917E3,1.0730271E4,3.3735E3,1.441122E4,8.302935E3],"tree_param":{"num_deleted":"0","num_feature":"26","num_nodes":"127","size_leaf_vector":"0"}},{"base_weights":[1.1591897E-3,-5.1142104E-2,1.4904569E-1,-2.1596684E-1,-2.0569587E-2,1.9102006E-1,-1.0493941E-2,-4.1111386E-1,-1.9698532E-1,1.0356663E-2,-1.4923932E-1,2.8656777E-2,2.1528837E-1,3.5932686E-2,-1.5903033E-1,-2.63011E-1,-5.0711995E-1,-1.8219762E-1,-3.8048312E-1,-4.8871253E-2,1.296644E-1,-1.1187344E-1,-2.9632214E-1,-6.079835E-2,9.008258E-2,2.520877E-1,1.6517694E-1,-2.3821793E-2,7.943539E-2,-2.4112038E-1,-6.0371853E-2,-3.4012014E-1,-1.17486276E-1,-5.6280744E-1,-4.5473355E-1,-2.1827452E-1,-1.1713368E-1,-4.4590226E-1,-2.803091E-1,-6.3689463E-3,-1.0617019E-1,1.9274963E-1,5.6869313E-2,-2.3486362E-1,-7.51927E-2,-3.7024537E-1,-2.2216177E-1,1.5383527E-1,-8.381821E-2,1.2096041E-1,-2.3232624E-3,1.8330441E-1,3.0251873E-1,6.5832876E-2,2.0719135E-1,5.288622E-2,-6.7978196E-2,1.9553967E-1,5.404107E-2,-2.5932258E-1,2.3012613E-1,-1.9722974E-1,5.003548E-2,-3.0794418E-1,-5.8673525E-1,2.185118E-2,-2.9340738E-1,-5.967708E-1,-4.1377863E-1,-4.2606455E-1,-7.280476E-1,-2.66624E-1,-1.6832799E-1,-1.711441E-1,-5.085674E-2,-3.858293E-1,-5.5458504E-1,-7.724409E-2,-3.2418948E-1,-1.04604095E-1,4.9170196E-2,-1.6936672E-1,-4.6579503E-2,1.2816782E-1,2.6531142E-1,1.9541547E-2,1.3336925E-1,-3.1257865E-1,-1.8992145E-1,-9.664709E-2,6.863075E-2,-3.8018605E-1,-3.7397224E-2,-3.184461E-1,-1.3702448E-1,-6.2142704E-2,2.716293E-1,-4.6733223E-2,-1.9994232E-1,9.1923214E-2,2.3305692E-1,2.6791971E-2,-3.256586E-1,-2.2085462E-2,2.1125665E-1,2.6088867E-1,3.8898692E-1,9.752969E-2,-2.405151E-2,1.5266468E-1,2.369367E-1,1.2669307E-1,-8.966849E-3,-1.8477315E-1,-1.4184146E-2,2.5940582E-1,1.18981294E-1,-5.6921E-2,8.1534E-2,-4.9799716E-1,-2.2783418E-1,3.8606316E-1,-1.3303708E-1,-7.178642E-2,-2.9418066E-1,7.148381E-2,-5.634166E-1],"categories":[],"categories_nodes":[],"categories_segments":[],"categories_sizes":[],"default_left":[1,1,1,1,1,1,1,1,1,1,1,1,1,1,1,1,1,1,1,1,1,1,1,1,1,1,1,1,1,1,1,1,1,1,1,0,1,1,1,1,1,1,1,1,1,1,1,1,1,1,1,0,1,1,1,1,1,1,1,1,1,1,1,0,0,0,0,0,0,0,0,0,0,0,0,0,0,0,0,0,0,0,0,0,0,0,0,0,0,0,0,0,0,0,0,0,0,0,0,0,0,0,0,0,0,0,0,0,0,0,0,0,0,0,0,0,0,0,0,0,0,0,0,0,0,0,0],"id":7,"left_children":[1,3,5,7,9,11,13,15,17,19,21,23,25,27,29,31,33,35,37,39,41,43,45,47,49,51,53,55,57,59,61,63,65,67,69,71,73,75,77,79,81,83,85,87,89,91,93,95,97,99,101,103,105,107,109,111,113,115,117,119,121,123,125,-1,-1,-1,-1,-1,-1,-1,-1,-1,-1,-1,-1,-1,-1,-1,-1,-1,-1,-1,-1,-1,-1,-1,-1,-1,-1,-1,-1,-1,-1,-1,-1,-1,-1,-1,-1,-1,-1,-1,-1,-1,-1,-1,-1,-1,-1,-1,-1,-1,-1,-1,-1,-1,-1,-1,-1,-1,-1,-1,-1,-1,-1,-1,-1],"loss_changes":[2.2920875E4,1.10315E4,5.184631E3,1.2687012E3,7.348338E3,2.415211E3,1.1121124E3,4.3158398E2,8.4699316E2,1.0520476E4,1.9666211E3,4.3797656E2,9.8330664E2,3.1938846E2,3.1100543E2,1.3398029E2,5.348047E1,6.780781E2,1.5243335E2,2.422942E3,2.2681387E3,1.2873071E3,3.9732812E2,1.6034271E2,1.3483762E2,1.0664727E3,9.424033E2,1.7533788E2,2.096257E2,1.7985889E2,2.6357025E2,6.1762756E1,1.01441536E2,4.4924805E1,7.410144E1,4.4873633E2,3.6886572E2,9.1720215E1,8.194812E1,3.1164653E3,1.5956216E3,1.239917E3,6.5479755E2,2.2889429E2,6.782306E2,1.201001E2,2.9662122E2,7.999181E1,1.2620174E2,1.15272095E2,1.1144194E2,7.467368E2,6.3846484E2,1.9120267E2,2.573291E2,8.633843E1,2.0641116E2,6.2359375E1,1.7798972E2,1.5156506E2,4.4226562E1,9.470245E1,1.2707698E2,0E0,0E0,0E0,0E0,0E0,0E0,0E0,0E0,0E0,0E0,0E0,0E0,0E0,0E0,0E0,0E0,0E0,0E0,0E0,0E0,0E0,0E0,0E0,0E0,0E0,0E0,0E0,0E0,0E0,0E0,0E0,0E0,0E0,0E0,0E0,0E0,0E0,0E0,0E0,0E0,0E0,0E0,0E0,0E0,0E0,0E0,0E0,0E0,0E0,0E0,0E0,0E0,0E0,0E0,0E0,0E0,0E0,0E0,0E0,0E0,0E0,0E0,0E0,0E0],"parents":[2147483647,0,0,1,1,2,2,3,3,4,4,5,5,6,6,7,7,8,8,9,9,10,10,11,11,12,12,13,13,14,14,15,15,16,16,17,17,18,18,19,19,20,20,21,21,22,22,23,23,24,24,25,25,26,26,27,27,28,28,29,29,30,30,31,31,32,32,33,33,34,34,35,35,36,36,37,37,38,38,39,39,40,40,41,41,42,42,43,43,44,44,45,45,46,46,47,47,48,48,49,49,50,50,51,51,52,52,53,53,54,54,55,55,56,56,57,57,58,58,59,59,60,60,61,61,62,62],"right_children":[2,4,6,8,10,12,14,16,18,20,22,24,26,28,30,32,34,36,38,40,42,44,46,48,50,52,54,56,58,60,62,64,66,68,70,72,74,76,78,80,82,84,86,88,90,92,94,96,98,100,102,104,106,108,110,112,114,116,118,120,122,124,126,-1,-1,-1,-1,-1,-1,-1,-1,-1,-1,-1,-1,-1,-1,-1,-1,-1,-1,-1,-1,-1,-1,-1,-1,-1,-1,-1,-1,-1,-1,-1,-1,-1,-1,-1,-1,-1,-1,-1,-1,-1,-1,-1,-1,-1,-1,-1,-1,-1,-1,-1,-1,-1,-1,-1,-1,-1,-1,-1,-1,-1,-1,-1,-1],"split_conditions":[5E-1,3.25E0,1.8888501E2,1.5E0,2.07015E2,2.5E0,3.07555E2,9.95E1,1.9892E2,3.5E0,3.71515E2,3.25E0,1.15005005E2,5.535E0,5.9849997E0,7.05E1,1.5E0,2.8600001E0,5.3450003E0,1.09384995E2,1.39315E2,3.5E0,5.9849997E0,3.9035E1,3.065E0,2.155E2,3.5E0,1.69E0,2.6750002E0,3.3975E3,3.5E0,5.465E0,9.2585E1,2.915E0,1.045E2,2.75E0,2.175E2,2.8751E2,2.1179E4,2.5E0,4.975E0,2.18E2,5.475E0,5.135E0,6.0150003E0,2.7845E3,2.5E0,2.75E0,1.041915E5,2.6750002E0,1.5E0,3.25E0,3.5E0,1.57245E2,5.225E0,2.21005E2,5.275E0,2.34525E2,1.5E0,3.5E0,4.0200005E0,3.6909E2,8.11635E2,-3.0794417E-2,-5.8673527E-2,2.1851182E-3,-2.9340738E-2,-5.9677083E-2,-4.1377865E-2,-4.2606454E-2,-7.2804764E-2,-2.66624E-2,-1.6832799E-2,-1.711441E-2,-5.085674E-3,-3.8582932E-2,-5.5458505E-2,-7.724409E-3,-3.2418948E-2,-1.0460409E-2,4.9170195E-3,-1.6936673E-2,-4.6579503E-3,1.2816782E-2,2.6531143E-2,1.9541548E-3,1.3336926E-2,-3.1257864E-2,-1.8992146E-2,-9.66471E-3,6.863075E-3,-3.8018607E-2,-3.7397225E-3,-3.1844612E-2,-1.37024475E-2,-6.2142704E-3,2.716293E-2,-4.673322E-3,-1.9994233E-2,9.192321E-3,2.3305692E-2,2.6791971E-3,-3.256586E-2,-2.2085463E-3,2.1125665E-2,2.6088867E-2,3.889869E-2,9.752969E-3,-2.405151E-3,1.5266468E-2,2.3693671E-2,1.2669307E-2,-8.9668494E-4,-1.8477315E-2,-1.4184146E-3,2.5940582E-2,1.1898129E-2,-5.6921E-3,8.1534E-3,-4.9799718E-2,-2.278342E-2,3.8606316E-2,-1.3303707E-2,-7.178642E-3,-2.9418066E-2,7.1483813E-3,-5.634166E-2],"split_indices":[11,6,10,5,10,5,10,3,10,5,10,6,10,9,9,3,13,8,9,10,10,5,9,10,8,3,5,9,8,10,13,9,10,8,14,6,3,10,4,5,9,3,9,9,9,10,13,6,4,8,16,6,5,10,9,10,9,10,13,5,8,10,10,0,0,0,0,0,0,0,0,0,0,0,0,0,0,0,0,0,0,0,0,0,0,0,0,0,0,0,0,0,0,0,0,0,0,0,0,0,0,0,0,0,0,0,0,0,0,0,0,0,0,0,0,0,0,0,0,0,0,0,0,0,0,0,0],"split_type":[0,0,0,0,0,0,0,0,0,0,0,0,0,0,0,0,0,0,0,0,0,0,0,0,0,0,0,0,0,0,0,0,0,0,0,0,0,0,0,0,0,0,0,0,0,0,0,0,0,0,0,0,0,0,0,0,0,0,0,0,0,0,0,0,0,0,0,0,0,0,0,0,0,0,0,0,0,0,0,0,0,0,0,0,0,0,0,0,0,0,0,0,0,0,0,0,0,0,0,0,0,0,0,0,0,0,0,0,0,0,0,0,0,0,0,0,0,0,0,0,0,0,0,0,0,0,0],"sum_hessian":[2.9633975E6,2.1891775E6,7.742202E5,3.425252E5,1.8466522E6,6.129538E5,1.6126634E5,3.0361457E4,3.1216375E5,1.4888118E6,3.5784053E5,7.97047E4,5.332491E5,1.228645E5,3.8401844E4,1.194239E4,1.8419068E4,2.888851E5,2.327865E4,9.9490956E5,4.9390216E5,2.853501E5,7.249044E4,3.2448936E4,4.7255766E4,3.0746103E5,2.257881E5,5.1763543E4,7.110095E4,2.09602E4,1.7441646E4,7.8052744E3,4.137115E3,8.923504E3,9.495563E3,1.8583836E5,1.0304673E5,1.408011E4,9.19854E3,5.7120856E5,4.23701E5,2.6459703E5,2.2930512E5,6.555142E4,2.1979867E5,3.6301266E4,3.618917E4,3.1425552E3,2.930638E4,3.5419777E4,1.1835988E4,1.3006663E5,1.773944E5,6.7109234E4,1.5867886E5,1.8911135E4,3.2852406E4,1.2759069E4,5.8341887E4,2.018114E4,7.79059E2,7.7875845E3,9.654062E3,6.9064375E3,8.988369E2,2.3090884E3,1.8280266E3,7.264854E3,1.6586501E3,8.59641E3,8.991531E2,9.442669E4,9.141167E4,5.677668E4,4.627005E4,9.07086E3,5.00925E3,1.6350039E3,7.563536E3,2.0630488E5,3.649037E5,2.0562828E5,2.1807272E5,1.3999803E5,1.2459899E5,1.5410944E5,7.519568E4,2.4016166E4,4.1535254E4,1.9126731E5,2.853136E4,3.524841E4,1.052853E3,1.698152E4,1.9207654E4,1.1092299E3,2.0333253E3,2.2213695E4,7.0926855E3,2.8133871E4,7.2859053E3,1.0859083E4,9.769059E2,1.5580812E4,1.1448582E5,1.19746516E5,5.764789E4,4.961347E4,1.749577E4,5.601078E4,1.0266808E5,8.621904E3,1.028923E4,1.035901E4,2.2493398E4,6.9548438E3,5.8042256E3,1.1584704E4,4.6757184E4,2.3504524E3,1.7830688E4,5.4498663E2,2.3407242E2,3.3956914E3,4.391893E3,9.32878E3,3.2528183E2],"tree_param":{"num_deleted":"0","num_feature":"26","num_nodes":"127","size_leaf_vector":"0"}},{"base_weights":[1.2937635E-3,-4.936947E-2,1.4435865E-1,-1.8040945E-1,-1.4008338E-2,1.8558113E-1,-8.854803E-3,-3.66234E-1,-1.5747589E-1,1.0704292E-2,-2.1418762E-1,2.9857256E-2,2.0897263E-1,3.5972342E-2,-1.4387555E-1,-3.937516E-1,-2.4674886E-1,-1.4515562E-1,-3.4869856E-1,-4.1411176E-2,7.988323E-2,-1.6881631E-1,-3.2115299E-1,-1.4538646E-1,5.8371264E-2,2.4017718E-1,1.4267783E-1,-7.866741E-2,5.926714E-2,6.331706E-3,-1.9977623E-1,-4.8796612E-1,-3.6457413E-1,3.15714E-2,-3.1945884E-1,-1.939292E-1,-1.13608696E-1,-2.7811694E-1,-4.6061856E-1,2.183944E-2,-1.04732774E-1,1.4788358E-1,-7.1665244E-3,-2.0849186E-1,-1.2936192E-2,-3.9593032E-1,-2.3843807E-1,-7.0663504E-2,-2.2288135E-1,1.095444E-1,1.12938415E-2,1.9492574E-1,2.9133755E-1,3.2765742E-2,1.8397765E-1,-1.4369959E-1,1.5116955E-1,2.2453828E-2,1.3180274E-1,-9.589419E-2,8.7948E-2,-2.5548565E-1,-1.170399E-1,-4.73056E-1,-8.03766E-1,-2.3771757E-1,-3.9363223E-1,2.59657E-1,-1.5534309E-1,-3.9244252E-1,-1.4423619E-1,-2.5918818E-1,-1.6492498E-1,-1.2275612E-1,5.0064042E-2,-2.3690718E-1,-4.8805818E-1,-4.9550268E-1,-2.9667854E-1,-1.0721446E-1,4.7375735E-2,-1.5424633E-1,-4.772457E-2,5.8562662E-2,1.9759528E-1,-5.6703433E-2,4.509516E-2,-3.1506583E-1,-1.8611099E-1,1.953092E-1,-5.8411986E-2,-4.1382578E-1,-4.8493423E-2,-1.3675463E-1,-3.1418276E-1,3.683394E-2,-1.7418183E-1,4.53933E-1,-2.407328E-1,7.411294E-2,1.8646263E-1,-4.670931E-3,1.873691E-1,3.4282126E-2,2.1875454E-1,2.3458996E-1,3.6389643E-1,5.1526576E-2,-7.483106E-2,1.3565081E-1,2.3880978E-1,4.737702E-3,-1.9624579E-1,-5.914274E-3,2.5332147E-1,3.375846E-3,1.670729E-1,1.7340262E-1,6.124601E-2,6.317167E-2,-1.6885684E-1,1.1531165E-1,-3.8868845E-1,-2.6881656E-1,2.4990927E-1,-2.1429807E-1,-1.0147227E-2],"categories":[],"categories_nodes":[],"categories_segments":[],"categories_sizes":[],"default_left":[1,1,1,1,1,1,1,1,1,1,1,1,1,1,1,1,1,1,1,1,1,1,1,1,1,1,1,1,1,1,1,1,1,1,0,0,1,1,1,1,1,1,1,1,1,1,1,1,1,0,1,1,1,1,1,1,1,1,1,1,1,1,1,0,0,0,0,0,0,0,0,0,0,0,0,0,0,0,0,0,0,0,0,0,0,0,0,0,0,0,0,0,0,0,0,0,0,0,0,0,0,0,0,0,0,0,0,0,0,0,0,0,0,0,0,0,0,0,0,0,0,0,0,0,0,0,0],"id":8,"left_children":[1,3,5,7,9,11,13,15,17,19,21,23,25,27,29,31,33,35,37,39,41,43,45,47,49,51,53,55,57,59,61,63,65,67,69,71,73,75,77,79,81,83,85,87,89,91,93,95,97,99,101,103,105,107,109,111,113,115,117,119,121,123,125,-1,-1,-1,-1,-1,-1,-1,-1,-1,-1,-1,-1,-1,-1,-1,-1,-1,-1,-1,-1,-1,-1,-1,-1,-1,-1,-1,-1,-1,-1,-1,-1,-1,-1,-1,-1,-1,-1,-1,-1,-1,-1,-1,-1,-1,-1,-1,-1,-1,-1,-1,-1,-1,-1,-1,-1,-1,-1,-1,-1,-1,-1,-1,-1],"loss_changes":[2.1446143E4,1.0124965E4,4.8871396E3,1.9787686E3,8.5123545E3,2.221037E3,9.9295013E2,1.676211E2,9.7371484E2,5.5220186E3,9.176045E2,3.9791046E2,1.0966035E3,3.2891376E2,3.433454E2,1.1379199E2,1.9329626E2,5.9745557E2,1.9749878E2,3.498706E3,3.8954893E3,8.211345E2,3.4822607E2,6.451369E1,1.6499078E2,8.344082E2,7.7015625E2,3.1092456E2,2.733365E2,9.2546326E1,1.3732458E2,4.5767334E1,1.1661182E2,8.442273E1,9.6789734E1,2.8863184E2,3.530415E2,1.3264124E2,5.517749E1,1.4402416E3,1.232185E3,1.6405415E3,7.4720105E2,2.5237695E2,2.551215E2,1.8386523E2,2.0591516E2,6.3155296E1,6.619769E1,8.942023E1,1.0027523E2,7.3217334E2,6.965049E2,9.3547356E1,3.2675928E2,1.2646442E2,7.362214E1,1.8734726E2,1.0113904E2,5.7162914E1,8.0489174E1,1.2004602E2,1.24681015E2,0E0,0E0,0E0,0E0,0E0,0E0,0E0,0E0,0E0,0E0,0E0,0E0,0E0,0E0,0E0,0E0,0E0,0E0,0E0,0E0,0E0,0E0,0E0,0E0,0E0,0E0,0E0,0E0,0E0,0E0,0E0,0E0,0E0,0E0,0E0,0E0,0E0,0E0,0E0,0E0,0E0,0E0,0E0,0E0,0E0,0E0,0E0,0E0,0E0,0E0,0E0,0E0,0E0,0E0,0E0,0E0,0E0,0E0,0E0,0E0,0E0,0E0,0E0,0E0],"parents":[2147483647,0,0,1,1,2,2,3,3,4,4,5,5,6,6,7,7,8,8,9,9,10,10,11,11,12,12,13,13,14,14,15,15,16,16,17,17,18,18,19,19,20,20,21,21,22,22,23,23,24,24,25,25,26,26,27,27,28,28,29,29,30,30,31,31,32,32,33,33,34,34,35,35,36,36,37,37,38,38,39,39,40,40,41,41,42,42,43,43,44,44,45,45,46,46,47,47,48,48,49,49,50,50,51,51,52,52,53,53,54,54,55,55,56,56,57,57,58,58,59,59,60,60,61,61,62,62],"right_children":[2,4,6,8,10,12,14,16,18,20,22,24,26,28,30,32,34,36,38,40,42,44,46,48,50,52,54,56,58,60,62,64,66,68,70,72,74,76,78,80,82,84,86,88,90,92,94,96,98,100,102,104,106,108,110,112,114,116,118,120,122,124,126,-1,-1,-1,-1,-1,-1,-1,-1,-1,-1,-1,-1,-1,-1,-1,-1,-1,-1,-1,-1,-1,-1,-1,-1,-1,-1,-1,-1,-1,-1,-1,-1,-1,-1,-1,-1,-1,-1,-1,-1,-1,-1,-1,-1,-1,-1,-1,-1,-1,-1,-1,-1,-1,-1,-1,-1,-1,-1,-1,-1,-1,-1,-1,-1],"split_conditions":[5E-1,2.5E0,1.8710501E2,2.25E0,2.69125E2,2.5E0,3.01115E2,3.75E0,1.6948001E2,3.5E0,4.07785E2,2.75E0,1.27024994E2,3.5E0,2.915E0,6.9325E3,4.9725E1,1.87E0,5E-1,1.09595E2,1.59025E2,6.025E0,6.065E0,6.4079E4,8.5E0,3.5E0,3.5E0,5.495E0,3.5E0,6.025E0,3.5E0,2.295E2,9.95E1,1.149785E5,1.75E0,3.25E0,5.105E0,2.35475E4,2.5E0,3.25E0,5.045E0,5E-1,5.455E0,3.5E0,2.94445E2,2.01888E3,3.6750002E0,5E-1,5E-1,3.75E0,4.645E0,9.85E1,2.155E2,1.188575E5,5.4049997E0,2.74E0,5.525E0,5.975E0,2.4453E2,4.125E0,8.1757996E2,2.779225E3,5.9849997E0,-4.73056E-2,-8.03766E-2,-2.3771757E-2,-3.9363224E-2,2.59657E-2,-1.5534309E-2,-3.9244253E-2,-1.4423619E-2,-2.5918817E-2,-1.6492499E-2,-1.2275613E-2,5.006404E-3,-2.369072E-2,-4.8805818E-2,-4.955027E-2,-2.9667854E-2,-1.0721446E-2,4.7375737E-3,-1.5424633E-2,-4.7724573E-3,5.8562662E-3,1.9759528E-2,-5.6703435E-3,4.509516E-3,-3.1506583E-2,-1.86111E-2,1.953092E-2,-5.841199E-3,-4.1382577E-2,-4.849342E-3,-1.3675463E-2,-3.1418275E-2,3.6833938E-3,-1.7418183E-2,4.53933E-2,-2.407328E-2,7.4112937E-3,1.8646263E-2,-4.670931E-4,1.873691E-2,3.4282126E-3,2.1875454E-2,2.3458997E-2,3.6389645E-2,5.1526576E-3,-7.483106E-3,1.3565081E-2,2.3880979E-2,4.7377023E-4,-1.962458E-2,-5.9142744E-4,2.5332147E-2,3.375846E-4,1.6707292E-2,1.7340263E-2,6.1246012E-3,6.317167E-3,-1.6885685E-2,1.1531166E-2,-3.8868845E-2,-2.6881656E-2,2.4990927E-2,-2.1429807E-2,-1.0147227E-3],"split_indices":[11,5,10,6,10,5,10,8,10,5,10,6,10,5,8,12,10,8,21,10,10,9,9,4,14,5,5,8,13,9,13,10,2,0,6,6,8,12,15,6,9,7,9,5,10,10,8,7,5,6,8,3,3,4,9,8,9,9,10,9,10,10,9,0,0,0,0,0,0,0,0,0,0,0,0,0,0,0,0,0,0,0,0,0,0,0,0,0,0,0,0,0,0,0,0,0,0,0,0,0,0,0,0,0,0,0,0,0,0,0,0,0,0,0,0,0,0,0,0,0,0,0,0,0,0,0,0],"split_type":[0,0,0,0,0,0,0,0,0,0,0,0,0,0,0,0,0,0,0,0,0,0,0,0,0,0,0,0,0,0,0,0,0,0,0,0,0,0,0,0,0,0,0,0,0,0,0,0,0,0,0,0,0,0,0,0,0,0,0,0,0,0,0,0,0,0,0,0,0,0,0,0,0,0,0,0,0,0,0,0,0,0,0,0,0,0,0,0,0,0,0,0,0,0,0,0,0,0,0,0,0,0,0,0,0,0,0,0,0,0,0,0,0,0,0,0,0,0,0,0,0,0,0,0,0,0,0],"sum_hessian":[2.95885E6,2.1850602E6,7.737896E5,4.6433625E5,1.7207241E6,6.097379E5,1.6405178E5,5.100896E4,4.1332728E5,1.5316402E6,1.8908384E5,7.962876E4,5.301091E5,1.2316238E5,4.088941E4,4.1458676E4,9.550285E3,3.883106E5,2.5016664E4,8.735545E5,6.5808575E5,1.3276972E5,5.6314125E4,1.1142733E4,6.848602E4,3.6044653E5,1.696626E5,2.079963E4,1.0236275E5,1.1090283E4,2.9799125E4,9.799667E3,3.165901E4,1.9782972E3,7.5719883E3,1.525121E5,2.3579852E5,1.53437295E4,9.672936E3,4.3702253E5,4.3653197E5,3.694686E5,2.886172E5,1.0583231E5,2.693741E4,2.9574188E4,2.673994E4,5.6737964E3,5.4689375E3,3.281491E4,3.5671113E4,1.9127138E5,1.6917516E5,4.6339652E4,1.2332294E5,1.621265E4,4.586981E3,6.790226E4,3.4460492E4,4.923427E3,6.166857E3,1.7806959E4,1.1992167E4,9.360233E3,4.3943427E2,5.9020586E3,2.5756951E4,8.908424E2,1.0874548E3,5.344612E3,2.2273762E3,4.6924594E4,1.055875E5,2.2331786E5,1.2480653E4,1.2827854E4,2.515876E3,7.97413E3,1.6988059E3,7.218992E4,3.6483262E5,2.3362181E5,2.0291017E5,1.3210583E5,2.3736277E5,1.4817116E5,1.4044602E5,1.8365549E4,8.746676E4,4.827544E3,2.2109865E4,2.8125342E4,1.448846E3,1.1416571E4,1.5323368E4,2.783719E3,2.8900776E3,1.3991241E2,5.329025E3,2.2467492E4,1.0347416E4,3.2706576E4,2.9645374E3,2.4707363E4,1.66564E5,9.493314E4,7.4242016E4,3.945986E4,6.879793E3,6.555175E4,5.7771188E4,4.23896E3,1.197369E4,1.8078723E3,2.7791086E3,5.998953E4,7.9127266E3,2.1677871E4,1.2782619E4,1.5482412E3,3.3751858E3,5.832757E3,3.340999E2,1.7349787E4,4.5717078E2,6.278531E3,5.713636E3],"tree_param":{"num_deleted":"0","num_feature":"26","num_nodes":"127","size_leaf_vector":"0"}},{"base_weights":[2.690458E-4,-1.4288518E-1,3.275592E-2,-3.5500878E-1,-1.1956826E-1,-1.6933528E-1,4.2888913E-2,-4.1991672E-1,-2.519674E-1,-2.432823E-1,-1.0255478E-1,-2.2072665E-1,-9.847234E-2,2.8029128E-3,7.8603305E-2,-5.001271E-1,-3.7931943E-1,-2.9456142E-1,-1.2768455E-1,-1.0787403E-1,-3.0110207E-1,-1.5342933E-1,-7.473825E-2,-2.6333228E-1,-1.1439658E-1,-1.4767441E-1,-6.761733E-2,8.586239E-3,-1.269645E-1,1.043812E-1,-1.2093149E-2,-3.844518E-1,-5.891887E-1,-3.550422E-1,-5.052383E-1,-2.9979393E-1,2.7064112E-1,-4.429807E-2,-3.339153E-1,-1.6681604E-1,-2.732982E-2,-4.1465268E-1,-2.4314015E-1,-2.104756E-3,-1.6893806E-1,-1.5076335E-1,-6.3618965E-2,-3.421861E-1,-2.1789448E-1,-1.473668E-1,2.7220356E-1,-2.5366622E-1,-1.23081274E-1,-6.1919153E-2,-4.8685062E-1,-4.0682834E-2,2.0784372E-2,-1.5785605E-1,-2.9602893E-2,1.1198993E-1,-8.646537E-2,3.973764E-3,-1.3995205E-1,-4.76066E-1,-1.9310775E-1,-6.2052315E-1,-3.1710276E-1,-2.1688762E-1,-3.9218557E-1,-2.5192422E-1,-5.851122E-1,-2.5092614E-1,-3.703489E-1,-8.194329E-1,5.122888E-1,1.527483E-1,-1.4986889E-1,-1.9011405E-1,-6.7775416E-1,-1.2873863E-1,-3.2839313E-1,4.1939178E-1,-4.9913604E-2,-1.9293715E-1,-4.3058136E-1,-3.0509725E-1,-1.8736011E-1,1.7404575E-2,-3.5633788E-1,-2.5677758E-1,-1.4392029E-1,-4.483381E-3,-1.8438599E-1,-4.567258E-2,-1.11204416E-1,-3.6532462E-1,-1.794146E-1,-2.5837216E-1,-1.4265928E-1,-3.89511E-2,-2.1554387E-1,-5.763459E-3,4.125505E-1,-2.922468E-1,2.6396397E-1,7.3984414E-2,-1.4542702E-1,-5.4680294E-1,-5.858649E-2,-1.6843385E-1,-7.724557E-1,-3.545862E-2,-1.5690613E-1,3.489245E-2,-1.2163795E-2,-4.871843E-1,-1.4837655E-1,-4.0262446E-1,-1.1858398E-2,7.463248E-2,1.3336566E-1,-1.2308798E-1,1.53326625E-2,5.6879565E-2,-1.8442404E-2,-2.7184573E-4,-1.9541033E-1],"categories":[],"categories_nodes":[],"categories_segments":[],"categories_sizes":[],"default_left":[1,1,1,1,1,1,1,1,1,1,0,1,1,0,1,1,1,1,1,1,0,1,1,1,1,1,1,1,1,0,0,1,1,1,1,1,1,1,1,0,1,1,1,1,1,1,1,0,1,1,1,1,1,1,1,1,1,1,1,1,1,1,1,0,0,0,0,0,0,0,0,0,0,0,0,0,0,0,0,0,0,0,0,0,0,0,0,0,0,0,0,0,0,0,0,0,0,0,0,0,0,0,0,0,0,0,0,0,0,0,0,0,0,0,0,0,0,0,0,0,0,0,0,0,0,0,0],"id":9,"left_children":[1,3,5,7,9,11,13,15,17,19,21,23,25,27,29,31,33,35,37,39,41,43,45,47,49,51,53,55,57,59,61,63,65,67,69,71,73,75,77,79,81,83,85,87,89,91,93,95,97,99,101,103,105,107,109,111,113,115,117,119,121,123,125,-1,-1,-1,-1,-1,-1,-1,-1,-1,-1,-1,-1,-1,-1,-1,-1,-1,-1,-1,-1,-1,-1,-1,-1,-1,-1,-1,-1,-1,-1,-1,-1,-1,-1,-1,-1,-1,-1,-1,-1,-1,-1,-1,-1,-1,-1,-1,-1,-1,-1,-1,-1,-1,-1,-1,-1,-1,-1,-1,-1,-1,-1,-1,-1],"loss_changes":[1.3729705E4,2.70075E3,4.9273447E3,3.6157568E2,1.0354795E3,4.183672E2,3.280317E3,1.0784375E2,1.1061157E2,4.6562915E2,6.1203613E2,3.0164795E2,7.331E1,8.1020703E2,2.8329507E3,1.1459985E2,6.71709E1,4.6116943E1,9.17621E1,8.449458E1,2.742146E2,3.5879126E2,2.3636096E2,1.7026318E2,2.4287598E2,4.848709E1,7.08811E1,6.2113293E2,1.3852917E2,1.370126E3,5.5091364E2,8.4951355E1,5.347583E1,9.4714355E1,7.185797E1,5.3086548E1,3.817009E1,7.910121E1,7.583902E1,6.3189392E1,7.591176E1,4.965576E1,9.531445E1,9.822906E1,3.046975E2,1.7546991E2,2.0831525E2,6.53855E1,9.182349E1,1.2974911E2,5.8420044E1,7.006322E1,6.654732E1,4.7294746E1,3.6056107E1,1.245264E2,3.8507663E2,1.0908667E2,7.343745E1,7.245615E2,1.348689E2,2.8254004E2,2.3190765E2,0E0,0E0,0E0,0E0,0E0,0E0,0E0,0E0,0E0,0E0,0E0,0E0,0E0,0E0,0E0,0E0,0E0,0E0,0E0,0E0,0E0,0E0,0E0,0E0,0E0,0E0,0E0,0E0,0E0,0E0,0E0,0E0,0E0,0E0,0E0,0E0,0E0,0E0,0E0,0E0,0E0,0E0,0E0,0E0,0E0,0E0,0E0,0E0,0E0,0E0,0E0,0E0,0E0,0E0,0E0,0E0,0E0,0E0,0E0,0E0,0E0,0E0,0E0,0E0],"parents":[2147483647,0,0,1,1,2,2,3,3,4,4,5,5,6,6,7,7,8,8,9,9,10,10,11,11,12,12,13,13,14,14,15,15,16,16,17,17,18,18,19,19,20,20,21,21,22,22,23,23,24,24,25,25,26,26,27,27,28,28,29,29,30,30,31,31,32,32,33,33,34,34,35,35,36,36,37,37,38,38,39,39,40,40,41,41,42,42,43,43,44,44,45,45,46,46,47,47,48,48,49,49,50,50,51,51,52,52,53,53,54,54,55,55,56,56,57,57,58,58,59,59,60,60,61,61,62,62],"right_children":[2,4,6,8,10,12,14,16,18,20,22,24,26,28,30,32,34,36,38,40,42,44,46,48,50,52,54,56,58,60,62,64,66,68,70,72,74,76,78,80,82,84,86,88,90,92,94,96,98,100,102,104,106,108,110,112,114,116,118,120,122,124,126,-1,-1,-1,-1,-1,-1,-1,-1,-1,-1,-1,-1,-1,-1,-1,-1,-1,-1,-1,-1,-1,-1,-1,-1,-1,-1,-1,-1,-1,-1,-1,-1,-1,-1,-1,-1,-1,-1,-1,-1,-1,-1,-1,-1,-1,-1,-1,-1,-1,-1,-1,-1,-1,-1,-1,-1,-1,-1,-1,-1,-1,-1,-1,-1],"split_conditions":[2.5E0,2.25E0,2.75E0,5E-1,5E-1,5E-1,3.5E0,1.5E0,1.55E1,9.95E1,3.25E0,2.165E2,9.85E1,4.75E0,5.685E0,1.125E2,8.5E0,1.39804E5,1.61E2,4.785E0,3.75E0,5E-1,8.95E-1,2.1399999E0,5.175E0,3.7350001E0,5.8450003E0,1.5E0,5E-1,4.75E0,4.75E0,5E-1,5.145E0,1.5E0,1.2E2,7.89745E4,9E1,1.01491E5,8.82145E4,4.75E0,3.912E3,6.491E3,5E-1,1.5E0,1.5E0,4.0805E3,3.02E0,2.25E0,1.85E1,4.5550003E0,2.175E2,1.350745E5,2.5E0,4.1475E3,1.35E1,2.25E1,5.085E0,5.475E3,2.02E3,5E-1,6.35E1,3.24E0,9.85E1,-4.76066E-2,-1.9310776E-2,-6.2052317E-2,-3.171028E-2,-2.1688763E-2,-3.9218556E-2,-2.5192423E-2,-5.8511224E-2,-2.5092615E-2,-3.703489E-2,-8.1943296E-2,5.122888E-2,1.527483E-2,-1.4986889E-2,-1.9011406E-2,-6.777542E-2,-1.2873863E-2,-3.2839313E-2,4.193918E-2,-4.9913605E-3,-1.9293716E-2,-4.305814E-2,-3.0509725E-2,-1.873601E-2,1.7404575E-3,-3.5633788E-2,-2.567776E-2,-1.4392029E-2,-4.4833808E-4,-1.8438598E-2,-4.567258E-3,-1.1120441E-2,-3.653246E-2,-1.794146E-2,-2.5837217E-2,-1.42659275E-2,-3.89511E-3,-2.1554386E-2,-5.763459E-4,4.1255053E-2,-2.9224679E-2,2.6396398E-2,7.3984414E-3,-1.4542702E-2,-5.4680295E-2,-5.858649E-3,-1.6843384E-2,-7.724557E-2,-3.5458622E-3,-1.5690614E-2,3.4892452E-3,-1.2163795E-3,-4.871843E-2,-1.4837655E-2,-4.0262446E-2,-1.1858399E-3,7.463248E-3,1.3336566E-2,-1.2308798E-2,1.5332663E-3,5.6879567E-3,-1.8442404E-3,-2.7184573E-5,-1.9541033E-2],"split_indices":[5,6,6,19,5,19,5,5,1,3,6,3,3,6,9,3,23,4,2,8,6,14,8,8,8,9,8,8,16,6,6,21,9,14,2,4,3,0,4,6,4,4,7,16,8,12,8,6,1,9,2,4,14,0,25,1,9,4,12,7,14,8,3,0,0,0,0,0,0,0,0,0,0,0,0,0,0,0,0,0,0,0,0,0,0,0,0,0,0,0,0,0,0,0,0,0,0,0,0,0,0,0,0,0,0,0,0,0,0,0,0,0,0,0,0,0,0,0,0,0,0,0,0,0,0,0,0],"split_type":[0,0,0,0,0,0,0,0,0,0,0,0,0,0,0,0,0,0,0,0,0,0,0,0,0,0,0,0,0,0,0,0,0,0,0,0,0,0,0,0,0,0,0,0,0,0,0,0,0,0,0,0,0,0,0,0,0,0,0,0,0,0,0,0,0,0,0,0,0,0,0,0,0,0,0,0,0,0,0,0,0,0,0,0,0,0,0,0,0,0,0,0,0,0,0,0,0,0,0,0,0,0,0,0,0,0,0,0,0,0,0,0,0,0,0,0,0,0,0,0,0,0,0,0,0,0,0],"sum_hessian":[2.9522208E6,5.460471E5,2.4061738E6,5.4076527E4,4.919706E5,1.1488599E5,2.2912878E6,3.3175504E4,2.0901025E4,5.947594E4,4.3249466E5,6.659076E4,4.8295227E4,1.0795721E6,1.2117156E6,1.1144785E4,2.2030717E4,1.5565183E4,5.335842E3,1.7797889E4,4.167805E4,1.528811E5,2.7961356E5,4.7540273E4,1.9050486E4,1.8612135E4,2.9683094E4,1.0335126E6,4.6059477E4,9.4354075E5,2.6817488E5,4.8503516E3,6.2944336E3,1.8472941E4,3.5577747E3,1.5422871E4,1.4231177E2,3.8004133E3,1.5354286E3,1.0276504E4,7.5213857E3,1.4082844E4,2.7595207E4,1.4211846E4,1.3866925E5,3.5675984E4,2.4393756E5,1.7377107E4,3.0163166E4,1.7554053E4,1.4964347E3,3.5034792E3,1.5108655E4,2.9286188E4,3.969068E2,2.0509955E5,8.2841306E5,3.496494E4,1.1094535E4,9.0736606E5,3.6174715E4,2.382385E5,2.9936385E4,3.2789333E3,1.5714182E3,5.643255E3,6.511791E2,3.915626E3,1.4557316E4,8.538877E2,2.703887E3,9.114526E3,6.308344E3,2.538933E1,1.1692244E2,1.3256537E3,2.4747598E3,1.0837378E3,4.516909E2,8.318059E3,1.9584448E3,3.6109653E2,7.1602896E3,9.4481696E2,1.3138026E4,1.3071595E4,1.4523613E4,1.347089E4,7.409561E2,3.0737602E4,1.0793165E5,6.667823E3,2.900816E4,1.7713484E5,6.680272E4,1.5213247E4,2.1638606E3,1.9610168E4,1.0552998E4,6.777688E3,1.0776364E4,5.0238492E2,9.940498E2,3.2608718E3,2.4260735E2,1.5384912E3,1.3570164E4,1.988003E2,2.9087387E4,1.884247E2,2.0848212E2,1.9627819E5,8.821358E3,5.8004394E5,2.4836914E5,9.768731E2,3.398807E4,5.0281247E2,1.0591723E4,3.3023422E5,5.771318E5,2.6603645E4,9.571069E3,7.090042E4,1.6733808E5,8.508195E3,2.142819E4],"tree_param":{"num_deleted":"0","num_feature":"26","num_nodes":"127","size_leaf_vector":"0"}},{"base_weights":[-1.5411913E-4,-4.9211755E-2,1.3825019E-1,-1.9659919E-1,-2.2013038E-2,1.6458096E-1,-9.071229E-2,-2.3879127E-1,-1.2498103E-1,7.3287785E-3,-1.452711E-1,2.0709706E-2,1.8185152E-1,-2.6498048E-2,-1.6129412E-1,-3.2055998E-1,-1.9536908E-1,-1.1008163E-1,-3.5058042E-1,-4.6805944E-2,1.16295114E-1,-1.02781914E-1,-2.5469545E-1,-4.702138E-2,7.4185945E-2,2.1240084E-1,8.970257E-2,-8.0822684E-2,3.8699925E-2,-2.8205184E-2,-2.1077543E-1,-4.1004854E-1,-2.5966147E-1,-1.0293944E-1,-2.3040159E-1,-1.3458277E-1,-1.9942407E-2,6.756055E-1,-3.5872483E-1,-1.4496846E-2,-1.11150496E-1,1.7438826E-1,4.7249645E-2,-1.6861278E-1,-3.6243755E-2,-3.1241617E-1,-1.7080143E-1,4.8604213E-2,-9.166199E-2,-3.278451E-2,2.0489754E-1,1.6193748E-1,2.6556358E-1,-1.9424675E-2,1.1770252E-1,-6.906733E-2,-4.447386E-1,2.0495228E-1,2.1459924E-2,-1.4376348E-1,5.208684E-2,-2.5961408E-1,-1.2240077E-1,-5.0870746E-1,-3.831613E-1,-1.9752418E-1,-3.6504054E-1,-4.4049495E-1,-8.588957E-2,1.368368E-3,-2.407264E-1,-3.118314E-1,-1.2137915E-1,9.499727E-3,-2.0933336E-1,8.394385E-1,-7.545415E-1,-4.0996587E-1,-1.9417399E-1,-1.045148E-1,3.0239359E-2,-1.8751726E-1,-5.158472E-2,1.18329525E-1,2.3845117E-1,6.0723824E-3,1.07101254E-1,-2.4427187E-1,-1.2446685E-1,-5.995624E-2,8.9877814E-2,-3.7343812E-1,-2.4025431E-1,-2.3831132E-1,-9.808549E-2,3.178989E-1,4.1868426E-3,-5.4560084E-2,-1.8354377E-1,-1.0482123E-2,-2.3214774E-1,3.2767004E-1,1.5849754E-1,2.0409833E-1,8.569902E-2,2.2728603E-1,3.1074768E-1,-5.393743E-2,1.8797378E-1,7.8451306E-2,1.744502E-1,-8.05557E-2,2.9277492E-1,-5.4143524E-1,3.556582E-2,-3.5222632E-1,2.624931E-1,6.294139E-2,-5.4101445E-2,-4.2338632E-2,-3.0148226E-1,-4.9760816E-1,7.176164E-2,-2.7363107E-1,2.5417623E-1,-2.1043983E-1,-5.8797434E-2],"categories":[],"categories_nodes":[],"categories_segments":[],"categories_sizes":[],"default_left":[1,1,1,1,1,1,1,0,1,1,1,1,1,1,1,1,1,1,1,1,1,1,1,1,1,1,1,1,1,1,1,1,1,1,1,1,1,1,1,1,1,1,1,1,1,1,1,1,1,1,1,1,1,1,1,1,1,1,1,1,1,1,1,0,0,0,0,0,0,0,0,0,0,0,0,0,0,0,0,0,0,0,0,0,0,0,0,0,0,0,0,0,0,0,0,0,0,0,0,0,0,0,0,0,0,0,0,0,0,0,0,0,0,0,0,0,0,0,0,0,0,0,0,0,0,0,0],"id":10,"left_children":[1,3,5,7,9,11,13,15,17,19,21,23,25,27,29,31,33,35,37,39,41,43,45,47,49,51,53,55,57,59,61,63,65,67,69,71,73,75,77,79,81,83,85,87,89,91,93,95,97,99,101,103,105,107,109,111,113,115,117,119,121,123,125,-1,-1,-1,-1,-1,-1,-1,-1,-1,-1,-1,-1,-1,-1,-1,-1,-1,-1,-1,-1,-1,-1,-1,-1,-1,-1,-1,-1,-1,-1,-1,-1,-1,-1,-1,-1,-1,-1,-1,-1,-1,-1,-1,-1,-1,-1,-1,-1,-1,-1,-1,-1,-1,-1,-1,-1,-1,-1,-1,-1,-1,-1,-1,-1],"loss_changes":[2.0027477E4,8.730018E3,4.6536416E3,1.0251475E3,6.649053E3,1.7201582E3,3.6083655E2,7.579629E2,4.227356E2,8.759663E3,1.643523E3,2.6874973E2,1.7399688E3,1.476589E2,2.497561E2,4.0343506E2,4.5150928E2,2.6057214E2,6.5362915E1,2.062486E3,1.9769536E3,1.1153438E3,4.7872217E2,1.3974995E2,5.7974866E2,1.2453008E3,4.7023523E2,9.725447E1,5.4306488E1,9.5391785E1,1.1929675E2,7.9342285E1,2.884668E2,2.2055112E2,2.4197656E2,2.170741E2,1.4061638E2,1.5089884E1,6.5106384E1,2.659732E3,1.5085493E3,9.612417E2,5.550359E2,4.2747925E2,3.7873108E2,2.5782568E2,1.9781628E2,1.2462751E2,7.607291E1,1.01385735E2,1.0625134E2,7.654595E2,3.908955E2,2.2494316E2,2.7277966E2,9.1604294E1,3.3060257E1,5.716707E1,5.3819695E1,6.741003E1,6.56449E1,1.2830359E2,5.5101242E1,0E0,0E0,0E0,0E0,0E0,0E0,0E0,0E0,0E0,0E0,0E0,0E0,0E0,0E0,0E0,0E0,0E0,0E0,0E0,0E0,0E0,0E0,0E0,0E0,0E0,0E0,0E0,0E0,0E0,0E0,0E0,0E0,0E0,0E0,0E0,0E0,0E0,0E0,0E0,0E0,0E0,0E0,0E0,0E0,0E0,0E0,0E0,0E0,0E0,0E0,0E0,0E0,0E0,0E0,0E0,0E0,0E0,0E0,0E0,0E0,0E0,0E0,0E0,0E0],"parents":[2147483647,0,0,1,1,2,2,3,3,4,4,5,5,6,6,7,7,8,8,9,9,10,10,11,11,12,12,13,13,14,14,15,15,16,16,17,17,18,18,19,19,20,20,21,21,22,22,23,23,24,24,25,25,26,26,27,27,28,28,29,29,30,30,31,31,32,32,33,33,34,34,35,35,36,36,37,37,38,38,39,39,40,40,41,41,42,42,43,43,44,44,45,45,46,46,47,47,48,48,49,49,50,50,51,51,52,52,53,53,54,54,55,55,56,56,57,57,58,58,59,59,60,60,61,61,62,62],"right_children":[2,4,6,8,10,12,14,16,18,20,22,24,26,28,30,32,34,36,38,40,42,44,46,48,50,52,54,56,58,60,62,64,66,68,70,72,74,76,78,80,82,84,86,88,90,92,94,96,98,100,102,104,106,108,110,112,114,116,118,120,122,124,126,-1,-1,-1,-1,-1,-1,-1,-1,-1,-1,-1,-1,-1,-1,-1,-1,-1,-1,-1,-1,-1,-1,-1,-1,-1,-1,-1,-1,-1,-1,-1,-1,-1,-1,-1,-1,-1,-1,-1,-1,-1,-1,-1,-1,-1,-1,-1,-1,-1,-1,-1,-1,-1,-1,-1,-1,-1,-1,-1,-1,-1,-1,-1,-1],"split_conditions":[5E-1,3.25E0,2.45845E2,5E-1,2.08055E2,3.25E0,3.07555E2,2.25E0,2.39685E2,3.5E0,3.34435E2,2.5E0,1.56595E2,5.7650003E0,2.915E0,2.5E0,2.5E0,3.9E0,2.695E2,1.19325E2,1.40775E2,5.525E0,5E-1,3.5E0,2.175E2,3.5E0,3.5E0,1.359775E5,2.0149999E0,3.5E0,5E-1,8.95E-1,1.2914E2,1.5E0,3.9955E1,5E-1,1.20664E5,4.5E0,4.5E0,2.5E0,4.975E0,2.175E2,5.4049997E0,3.5E0,6.025E0,2.75E1,5.9849997E0,4.0035E1,1.99665E4,1.5845001E2,2.63015E4,9.7015E1,2.155E2,5.545E0,5.605E0,1.335875E5,1.215E2,5.4084E4,9.27425E4,4.1316998E2,3.75E1,3.621E3,3.55E1,-5.0870746E-2,-3.831613E-2,-1.9752419E-2,-3.6504056E-2,-4.4049498E-2,-8.588958E-3,1.3683681E-4,-2.407264E-2,-3.1183142E-2,-1.2137915E-2,9.499727E-4,-2.0933336E-2,8.394385E-2,-7.545415E-2,-4.099659E-2,-1.94174E-2,-1.045148E-2,3.023936E-3,-1.8751726E-2,-5.1584723E-3,1.18329525E-2,2.3845118E-2,6.0723827E-4,1.0710126E-2,-2.4427189E-2,-1.2446686E-2,-5.9956242E-3,8.987782E-3,-3.734381E-2,-2.402543E-2,-2.3831133E-2,-9.80855E-3,3.178989E-2,4.1868427E-4,-5.4560085E-3,-1.8354377E-2,-1.0482123E-3,-2.3214774E-2,3.2767005E-2,1.5849754E-2,2.0409834E-2,8.569903E-3,2.2728603E-2,3.1074768E-2,-5.393743E-3,1.8797379E-2,7.845131E-3,1.744502E-2,-8.055571E-3,2.9277492E-2,-5.4143526E-2,3.556582E-3,-3.522263E-2,2.624931E-2,6.2941387E-3,-5.4101446E-3,-4.233863E-3,-3.0148227E-2,-4.9760815E-2,7.176164E-3,-2.7363107E-2,2.5417624E-2,-2.1043984E-2,-5.8797435E-3],"split_indices":[11,6,10,19,10,6,10,6,10,5,10,5,10,9,8,5,14,8,4,10,10,9,19,14,3,5,5,4,8,13,19,8,10,5,10,5,4,23,5,5,9,3,9,5,9,14,9,10,12,10,4,10,3,8,9,4,14,0,4,10,2,10,14,0,0,0,0,0,0,0,0,0,0,0,0,0,0,0,0,0,0,0,0,0,0,0,0,0,0,0,0,0,0,0,0,0,0,0,0,0,0,0,0,0,0,0,0,0,0,0,0,0,0,0,0,0,0,0,0,0,0,0,0,0,0,0,0],"split_type":[0,0,0,0,0,0,0,0,0,0,0,0,0,0,0,0,0,0,0,0,0,0,0,0,0,0,0,0,0,0,0,0,0,0,0,0,0,0,0,0,0,0,0,0,0,0,0,0,0,0,0,0,0,0,0,0,0,0,0,0,0,0,0,0,0,0,0,0,0,0,0,0,0,0,0,0,0,0,0,0,0,0,0,0,0,0,0,0,0,0,0,0,0,0,0,0,0,0,0,0,0,0,0,0,0,0,0,0,0,0,0,0,0,0,0,0,0,0,0,0,0,0,0,0,0,0,0],"sum_hessian":[2.949645E6,2.1777415E6,7.719035E5,3.3926866E5,1.8384729E6,6.922901E5,7.961336E4,2.1349245E5,1.25776195E5,1.4849731E6,3.5349978E5,7.419723E4,6.1809294E5,4.1687816E4,3.7925547E4,7.404718E4,1.3944528E5,1.1798549E5,7.7907017E3,9.9209744E5,4.9287566E5,2.546297E5,9.887008E4,3.2735604E4,4.146162E4,4.6419962E5,1.5389328E5,2.274001E4,1.8947805E4,1.0279242E4,2.7646305E4,2.998273E4,4.4064445E4,3.8327113E4,1.0111816E5,9.276904E4,2.5216455E4,6.0699398E1,7.7300024E3,6.604629E5,3.3163456E5,2.6766634E5,2.2520933E5,1.2799437E5,1.2663533E5,5.857002E4,4.0300055E4,1.0418285E4,2.2317318E4,2.2801943E4,1.865968E4,2.381479E5,2.2605172E5,3.1423477E4,1.2246981E5,2.2029592E4,7.1041895E2,1.7792153E3,1.716859E4,4.2138184E3,6.065424E3,1.7804846E4,9.841459E3,6.417327E3,2.3565404E4,2.7721314E4,1.6343132E4,1.8416213E3,3.6485492E4,4.3124995E3,9.680566E4,6.4298994E3,8.633914E4,2.1824617E4,3.391838E3,5.4831158E1,5.8682384E0,5.893331E3,1.836671E3,2.1926256E5,4.4120028E5,1.4532167E5,1.8631289E5,1.4275252E5,1.2491381E5,1.3341936E5,9.178998E4,4.716187E4,8.08325E4,1.0659468E5,2.0040654E4,3.1732232E4,2.6837787E4,2.0896941E4,1.9403113E4,1.4742161E3,8.944069E3,1.5898922E4,6.418397E3,2.0508725E4,2.2932195E3,5.116244E3,1.3543435E4,1.5334467E5,8.4803234E4,1.22382164E5,1.03669555E5,2.6941018E4,4.48246E3,7.2396805E4,5.0073004E4,2.1352436E4,6.771556E2,5.912575E2,1.1916139E2,1.6606407E2,1.6131512E3,1.1083932E4,6.0846577E3,2.5653665E3,1.6484521E3,2.0875366E2,5.8566704E3,1.7332457E4,4.723889E2,4.126833E3,5.7146265E3],"tree_param":{"num_deleted":"0","num_feature":"26","num_nodes":"127","size_leaf_vector":"0"}},{"base_weights":[-8.9745247E-4,-4.7341824E-2,1.30594E-1,-1.6428433E-1,-1.5863465E-2,1.57317E-1,-8.3709575E-2,-3.38736E-1,-1.4327767E-1,2.8283358E-2,-1.0917404E-1,2.4693023E-2,1.750289E-1,-5.2521173E-2,-2.02997E-1,-4.071869E-1,-2.3364817E-1,-1.2989536E-1,-3.1232506E-1,-2.3882894E-2,1.2498335E-1,-6.858604E-2,-2.1718104E-1,-8.610849E-3,1.1043166E-1,2.1377194E-1,1.0429008E-1,-1.1310514E-1,-5.0701643E-3,-7.093271E-2,-3.5322338E-1,-3.9799684E-1,-7.0582175E-1,-7.011675E-2,-2.7989376E-1,-5.8939043E-2,-1.5211312E-1,-3.8258895E-1,-2.3451999E-1,2.9519552E-2,-6.8513565E-2,4.5336258E-2,1.6868211E-1,-1.3213313E-1,1.2827822E-2,-2.560566E-1,-1.2925728E-1,4.143432E-2,-5.516027E-2,1.4772901E-1,-3.9140705E-2,1.6556181E-1,2.6417696E-1,1.5148172E-2,1.3129517E-1,-2.451966E-1,-8.254334E-2,-1.2655112E-1,2.1334406E-2,-4.2506766E-1,-3.4933403E-2,-1.8726456E-1,-3.8945466E-1,-4.278588E-1,-3.1204888E-1,-7.174829E-1,9.624827E-1,2.8215276E-2,-2.5739342E-1,-3.6278722E-1,-1.9096196E-1,-1.23610094E-1,4.2400206E-3,-1.8763743E-1,-1.1069689E-1,-4.5319918E-1,-2.7242595E-1,-2.0063534E-1,-4.5809612E-1,-5.6984324E-2,8.015061E-2,-1.1782806E-1,-3.3537664E-3,2.7505339E-3,1.641097E-1,2.8533325E-1,1.3245323E-1,-2.0320933E-1,-8.061558E-2,-1.6306189E-3,1.6723426E-1,-2.1060658E-1,-3.3736002E-1,-2.28553E-2,-2.2095425E-1,-2.0317172E-1,5.8190096E-2,-3.1069024E-2,-1.7075989E-1,1.9322506E-1,4.566653E-2,5.837904E-2,-2.1139309E-1,1.7417882E-2,1.8729177E-1,2.1466167E-1,3.2664883E-1,-5.5530756E-3,1.6987984E-1,9.521402E-2,1.8015139E-1,-6.087113E-1,-1.960523E-1,8.878347E-3,-1.2208065E-1,-1.3853237E-1,7.008892E-1,1.2779695E-1,-1.1531312E-2,-5.105253E-1,3.3133847E-1,-1.5187176E-1,4.6014458E-2,-5.7575244E-1,-7.988494E-2,-4.5924145E-1,-2.944028E-1],"categories":[],"categories_nodes":[],"categories_segments":[],"categories_sizes":[],"default_left":[1,1,1,1,1,1,1,1,1,1,1,1,1,1,1,1,1,1,1,1,1,1,1,1,1,1,1,1,1,1,1,1,1,1,1,0,1,1,1,1,1,1,1,1,1,1,1,1,1,1,1,1,1,1,1,1,1,1,1,1,1,1,1,0,0,0,0,0,0,0,0,0,0,0,0,0,0,0,0,0,0,0,0,0,0,0,0,0,0,0,0,0,0,0,0,0,0,0,0,0,0,0,0,0,0,0,0,0,0,0,0,0,0,0,0,0,0,0,0,0,0,0,0,0,0,0,0],"id":11,"left_children":[1,3,5,7,9,11,13,15,17,19,21,23,25,27,29,31,33,35,37,39,41,43,45,47,49,51,53,55,57,59,61,63,65,67,69,71,73,75,77,79,81,83,85,87,89,91,93,95,97,99,101,103,105,107,109,111,113,115,117,119,121,123,125,-1,-1,-1,-1,-1,-1,-1,-1,-1,-1,-1,-1,-1,-1,-1,-1,-1,-1,-1,-1,-1,-1,-1,-1,-1,-1,-1,-1,-1,-1,-1,-1,-1,-1,-1,-1,-1,-1,-1,-1,-1,-1,-1,-1,-1,-1,-1,-1,-1,-1,-1,-1,-1,-1,-1,-1,-1,-1,-1,-1,-1,-1,-1,-1],"loss_changes":[1.7960914E4,8.000484E3,4.39626E3,1.6891523E3,7.054077E3,1.6033145E3,3.1663892E2,3.5625537E2,9.306631E2,5.8639336E3,2.4109497E3,2.2962253E2,1.6502012E3,1.9396779E2,3.4995288E2,8.204541E1,1.477727E2,6.009966E2,1.6489258E2,1.7996934E3,1.4177607E3,2.068163E3,5.134385E2,1.3492941E2,1.2551181E2,9.453633E2,5.129475E2,1.1961575E2,1.21375244E2,1.1968108E2,4.9548462E1,7.4563965E1,1.8088043E1,7.936806E1,1.12233765E2,3.714357E2,4.2712598E2,1.2321582E2,1.0841864E2,1.505632E3,1.3217408E3,7.299586E2,1.1115786E3,8.2206934E2,3.9122308E2,3.848413E2,4.4937817E2,1.1441153E2,8.356539E1,8.360785E1,7.5453545E1,6.4015137E2,5.8825977E2,1.5869846E2,2.882671E2,9.93479E1,8.6997955E1,6.707543E1,1.08761055E2,5.6165207E1,8.069131E1,6.1723366E1,4.4790894E1,0E0,0E0,0E0,0E0,0E0,0E0,0E0,0E0,0E0,0E0,0E0,0E0,0E0,0E0,0E0,0E0,0E0,0E0,0E0,0E0,0E0,0E0,0E0,0E0,0E0,0E0,0E0,0E0,0E0,0E0,0E0,0E0,0E0,0E0,0E0,0E0,0E0,0E0,0E0,0E0,0E0,0E0,0E0,0E0,0E0,0E0,0E0,0E0,0E0,0E0,0E0,0E0,0E0,0E0,0E0,0E0,0E0,0E0,0E0,0E0,0E0,0E0,0E0,0E0],"parents":[2147483647,0,0,1,1,2,2,3,3,4,4,5,5,6,6,7,7,8,8,9,9,10,10,11,11,12,12,13,13,14,14,15,15,16,16,17,17,18,18,19,19,20,20,21,21,22,22,23,23,24,24,25,25,26,26,27,27,28,28,29,29,30,30,31,31,32,32,33,33,34,34,35,35,36,36,37,37,38,38,39,39,40,40,41,41,42,42,43,43,44,44,45,45,46,46,47,47,48,48,49,49,50,50,51,51,52,52,53,53,54,54,55,55,56,56,57,57,58,58,59,59,60,60,61,61,62,62],"right_children":[2,4,6,8,10,12,14,16,18,20,22,24,26,28,30,32,34,36,38,40,42,44,46,48,50,52,54,56,58,60,62,64,66,68,70,72,74,76,78,80,82,84,86,88,90,92,94,96,98,100,102,104,106,108,110,112,114,116,118,120,122,124,126,-1,-1,-1,-1,-1,-1,-1,-1,-1,-1,-1,-1,-1,-1,-1,-1,-1,-1,-1,-1,-1,-1,-1,-1,-1,-1,-1,-1,-1,-1,-1,-1,-1,-1,-1,-1,-1,-1,-1,-1,-1,-1,-1,-1,-1,-1,-1,-1,-1,-1,-1,-1,-1,-1,-1,-1,-1,-1,-1,-1,-1,-1,-1,-1],"split_conditions":[5E-1,2.5E0,2.39005E2,2.25E0,1.69905E2,2.5E0,3.84695E2,5E-1,1.59485E2,3.5E0,2.94835E2,3.75E0,1.3614499E2,5.705E0,4.035E0,2.791E2,5.2510002E1,5.9885002E1,5.0150003E0,9.9835E1,5E-1,5.455E0,6.065E0,8.5E0,5E-1,3.5E0,3.5E0,3.5E0,1.5E0,1.5E0,6.5E0,2.915E0,3.3E1,5E-1,4.565E0,3.25E0,4.565E0,5E-1,3.03815E2,3.75E0,4.995E0,2.175E2,9.9965E1,3.5E0,6.0150003E0,3.87005E2,4.22005E2,2.25E0,8.5E0,8.4485E1,1.85E1,9.85E1,2.155E2,5.645E0,5.535E0,1.8802E4,3.415E0,6.895E0,2.915E0,5.74371E3,6.0150003E0,3.5E0,4.8316498E2,-4.278588E-2,-3.1204889E-2,-7.1748294E-2,9.624827E-2,2.8215277E-3,-2.5739342E-2,-3.627872E-2,-1.9096196E-2,-1.236101E-2,4.2400206E-4,-1.8763743E-2,-1.1069689E-2,-4.531992E-2,-2.7242595E-2,-2.0063534E-2,-4.580961E-2,-5.6984327E-3,8.015062E-3,-1.1782806E-2,-3.3537665E-4,2.750534E-4,1.6410971E-2,2.8533325E-2,1.3245324E-2,-2.0320933E-2,-8.061558E-3,-1.630619E-4,1.6723426E-2,-2.1060659E-2,-3.3736E-2,-2.28553E-3,-2.2095425E-2,-2.0317173E-2,5.8190096E-3,-3.1069024E-3,-1.707599E-2,1.9322505E-2,4.566653E-3,5.837904E-3,-2.1139309E-2,1.7417882E-3,1.8729178E-2,2.1466168E-2,3.2664884E-2,-5.5530755E-4,1.6987985E-2,9.5214015E-3,1.8015139E-2,-6.087113E-2,-1.960523E-2,8.8783476E-4,-1.2208065E-2,-1.3853237E-2,7.008892E-2,1.2779695E-2,-1.1531312E-3,-5.105253E-2,3.3133846E-2,-1.5187176E-2,4.601446E-3,-5.7575244E-2,-7.988494E-3,-4.5924146E-2,-2.9440282E-2],"split_indices":[11,5,10,6,10,5,10,19,10,5,10,6,10,9,8,10,10,10,9,10,7,9,9,14,19,5,5,5,15,15,14,8,1,7,9,6,9,19,10,6,9,3,10,5,9,10,10,6,23,10,24,3,3,8,9,4,8,8,8,10,9,23,10,0,0,0,0,0,0,0,0,0,0,0,0,0,0,0,0,0,0,0,0,0,0,0,0,0,0,0,0,0,0,0,0,0,0,0,0,0,0,0,0,0,0,0,0,0,0,0,0,0,0,0,0,0,0,0,0,0,0,0,0,0,0,0,0],"split_type":[0,0,0,0,0,0,0,0,0,0,0,0,0,0,0,0,0,0,0,0,0,0,0,0,0,0,0,0,0,0,0,0,0,0,0,0,0,0,0,0,0,0,0,0,0,0,0,0,0,0,0,0,0,0,0,0,0,0,0,0,0,0,0,0,0,0,0,0,0,0,0,0,0,0,0,0,0,0,0,0,0,0,0,0,0,0,0,0,0,0,0,0,0,0,0,0,0,0,0,0,0,0,0,0,0,0,0,0,0,0,0,0,0,0,0,0,0,0,0,0,0,0,0,0,0,0,0],"sum_hessian":[2.941017E6,2.1733605E6,7.6765656E5,4.6094384E5,1.7124166E6,6.825455E5,8.511107E4,4.9537793E4,4.1140606E5,1.1624449E6,5.4997175E5,8.04148E4,6.021307E5,6.747166E4,1.7639422E4,2.999628E4,1.9541512E4,3.8122856E5,3.0177477E4,7.550972E5,4.073477E5,3.997508E5,1.5022094E5,5.7918234E4,2.249656E4,3.8904966E5,2.1308106E5,2.9634223E4,3.783743E4,9.387939E3,8.251482E3,2.9103008E4,8.932721E2,4.3085044E3,1.5233008E4,9.090653E4,2.9032203E5,1.5855151E4,1.4322325E4,3.437666E5,4.113306E5,1.443152E5,2.6303247E5,2.2451017E5,1.7524066E5,1.0416319E5,4.6057758E4,2.7911143E4,3.0007094E4,1.800648E4,4.49008E3,1.9885661E5,1.9019303E5,4.954338E4,1.6353769E5,5.566814E3,2.4067408E4,6.755096E3,3.1082334E4,8.652668E2,8.522672E3,1.4797228E3,6.7717593E3,2.1595746E4,7.507261E3,8.8763763E2,5.634498E0,2.8256892E3,1.4828153E3,7.8825723E3,7.3504355E3,4.492236E4,4.598417E4,1.5627525E5,1.3404678E5,9.660214E3,6.1949375E3,1.2438999E4,1.8833262E3,1.2692069E5,2.168459E5,2.3413262E5,1.7719798E5,1.0622845E5,3.8086746E4,6.2330734E4,2.0070175E5,9.434462E4,1.3016555E5,1.6023722E5,1.5003439E4,6.681566E4,3.734753E4,2.132001E4,2.4737748E4,1.7886562E3,2.6122486E4,2.4833086E4,5.1740073E3,1.2454005E4,5.552475E3,2.8673862E3,1.622694E3,2.543761E4,1.73419E5,1.0610136E5,8.409167E4,4.3698062E4,5.845315E3,9.406904E4,6.946865E4,6.6160596E2,4.905208E3,7.2663286E3,1.680108E4,6.6595E3,9.559624E1,7.331236E3,2.3751098E4,7.777256E2,8.7541176E1,3.4859485E3,5.0367236E3,3.1948798E2,1.1602347E3,3.9026294E3,2.86913E3],"tree_param":{"num_deleted":"0","num_feature":"26","num_nodes":"127","size_leaf_vector":"0"}},{"base_weights":[8.349524E-4,-4.4409353E-2,1.2853321E-1,-1.8268889E-1,-1.8949771E-2,1.7456743E-1,1.397902E-2,-3.66562E-1,-1.6796255E-1,6.13327E-3,-1.5342508E-1,3.344101E-2,1.9808853E-1,5.596395E-2,-1.0082545E-1,-2.4190494E-1,-4.4835958E-1,-2.0535779E-1,-1.0457874E-1,-4.4724118E-2,1.01659164E-1,-1.17317945E-1,-2.4858822E-1,-3.5426687E-2,8.118889E-2,1.5626895E-1,2.3603351E-1,1.5960186E-3,1.1309737E-1,-1.5749754E-2,-1.5745336E-1,-1.630529E-1,-4.6687096E-1,-5.092664E-1,-3.904778E-1,-1.7916001E-1,-3.2419673E-1,-7.579818E-2,-1.6783838E-1,-2.0568617E-2,-1.4448977E-1,1.6459475E-1,3.9401606E-2,-1.8101153E-1,-4.4199996E-2,-3.114043E-1,-1.6161239E-1,2.4621606E-1,-5.3448625E-2,9.6333005E-2,-1.3655345E-1,2.1434854E-1,9.2669904E-2,1.9814743E-1,2.816817E-1,-8.4928334E-2,3.6336955E-2,1.7816752E-1,7.8330606E-2,-1.23212054E-1,8.205339E-2,-8.956786E-2,-2.667893E-1,-2.6030296E-1,1.0105345E-1,-3.9611867E-1,-6.9205695E-1,-4.257027E-1,-5.704482E-1,-3.053561E-1,-4.9849898E-1,-2.3551317E-1,-1.2629022E-1,-2.93799E-1,-5.343357E-1,-1.19887665E-1,-1.8353663E-2,-1.9105694E-1,-1.9208131E-2,-9.462596E-2,1.1141234E-2,-2.0941624E-1,-6.407843E-2,1.1280321E-1,2.2377141E-1,5.984118E-3,1.0105801E-1,-1.646976E-1,-3.1504723E-1,-8.260081E-2,2.8864171E-2,-3.7197328E-1,-2.0786862E-1,-8.313922E-2,-2.438098E-1,3.1392002E-1,-2.0640658E-1,9.716124E-3,-1.14887334E-1,1.2218276E-1,1.62344E-2,-1.6784707E-1,6.1917776E-1,2.426567E-2,2.4919063E-1,-1.1657486E-1,9.8132424E-2,8.175018E-2,2.244443E-1,3.7342376E-1,2.1377404E-1,-7.05004E-2,-4.1746986E-1,1.13762476E-1,-9.3503064E-4,6.5383255E-2,2.0909576E-1,5.3907488E-2,2.1810019E-1,-3.9356294E-1,-9.0834305E-2,-4.0345244E-2,1.4595611E-1,-2.1207038E-1,-6.1845366E-2,-2.743112E-1,3.872955E-1],"categories":[],"categories_nodes":[],"categories_segments":[],"categories_sizes":[],"default_left":[1,1,1,1,1,1,1,1,1,1,1,1,1,1,1,1,1,1,1,1,1,1,1,1,1,1,1,1,1,1,1,1,1,1,1,1,1,1,1,1,1,1,1,1,1,1,1,1,1,1,1,1,1,0,1,1,1,1,1,1,1,1,1,0,0,0,0,0,0,0,0,0,0,0,0,0,0,0,0,0,0,0,0,0,0,0,0,0,0,0,0,0,0,0,0,0,0,0,0,0,0,0,0,0,0,0,0,0,0,0,0,0,0,0,0,0,0,0,0,0,0,0,0,0,0,0,0],"id":12,"left_children":[1,3,5,7,9,11,13,15,17,19,21,23,25,27,29,31,33,35,37,39,41,43,45,47,49,51,53,55,57,59,61,63,65,67,69,71,73,75,77,79,81,83,85,87,89,91,93,95,97,99,101,103,105,107,109,111,113,115,117,119,121,123,125,-1,-1,-1,-1,-1,-1,-1,-1,-1,-1,-1,-1,-1,-1,-1,-1,-1,-1,-1,-1,-1,-1,-1,-1,-1,-1,-1,-1,-1,-1,-1,-1,-1,-1,-1,-1,-1,-1,-1,-1,-1,-1,-1,-1,-1,-1,-1,-1,-1,-1,-1,-1,-1,-1,-1,-1,-1,-1,-1,-1,-1,-1,-1,-1],"loss_changes":[1.6991967E4,7.6451636E3,4.0574053E3,9.142412E2,6.1859487E3,1.8218691E3,1.0631144E3,2.5518286E2,7.409707E2,7.5090024E3,9.905884E2,2.5783197E2,7.464824E2,5.0165158E2,2.8453583E2,1.7592651E2,5.309082E1,6.120781E2,2.111897E2,2.4307112E3,2.1040532E3,9.73345E2,4.3319678E2,1.6296875E2,1.5270331E2,8.2664795E2,4.2649902E2,2.4875395E2,1.7813281E2,2.480856E2,2.6316528E2,1.8876129E2,4.0744385E1,3.7397095E1,7.1152466E1,4.799668E2,2.2669556E2,2.0193466E2,1.2517401E2,1.9069335E3,1.026456E3,8.184204E2,5.562102E2,2.4419531E2,2.7300977E2,2.886621E2,2.1449335E2,5.9238075E1,1.1710217E2,8.963968E1,7.132471E1,7.747002E2,1.2211273E2,4.1254346E2,6.968135E2,1.1371896E2,1.7039572E2,9.5638855E1,1.7519528E2,9.841107E1,9.666263E1,7.428572E1,6.6930725E1,0E0,0E0,0E0,0E0,0E0,0E0,0E0,0E0,0E0,0E0,0E0,0E0,0E0,0E0,0E0,0E0,0E0,0E0,0E0,0E0,0E0,0E0,0E0,0E0,0E0,0E0,0E0,0E0,0E0,0E0,0E0,0E0,0E0,0E0,0E0,0E0,0E0,0E0,0E0,0E0,0E0,0E0,0E0,0E0,0E0,0E0,0E0,0E0,0E0,0E0,0E0,0E0,0E0,0E0,0E0,0E0,0E0,0E0,0E0,0E0,0E0,0E0,0E0,0E0],"parents":[2147483647,0,0,1,1,2,2,3,3,4,4,5,5,6,6,7,7,8,8,9,9,10,10,11,11,12,12,13,13,14,14,15,15,16,16,17,17,18,18,19,19,20,20,21,21,22,22,23,23,24,24,25,25,26,26,27,27,28,28,29,29,30,30,31,31,32,32,33,33,34,34,35,35,36,36,37,37,38,38,39,39,40,40,41,41,42,42,43,43,44,44,45,45,46,46,47,47,48,48,49,49,50,50,51,51,52,52,53,53,54,54,55,55,56,56,57,57,58,58,59,59,60,60,61,61,62,62],"right_children":[2,4,6,8,10,12,14,16,18,20,22,24,26,28,30,32,34,36,38,40,42,44,46,48,50,52,54,56,58,60,62,64,66,68,70,72,74,76,78,80,82,84,86,88,90,92,94,96,98,100,102,104,106,108,110,112,114,116,118,120,122,124,126,-1,-1,-1,-1,-1,-1,-1,-1,-1,-1,-1,-1,-1,-1,-1,-1,-1,-1,-1,-1,-1,-1,-1,-1,-1,-1,-1,-1,-1,-1,-1,-1,-1,-1,-1,-1,-1,-1,-1,-1,-1,-1,-1,-1,-1,-1,-1,-1,-1,-1,-1,-1,-1,-1,-1,-1,-1,-1,-1,-1,-1,-1,-1,-1],"split_conditions":[5E-1,3.25E0,1.62455E2,5E-1,2.27935E2,2.5E0,2.7028497E2,9.95E1,5E-1,3.5E0,3.592E2,3.25E0,3.5E0,5.535E0,3.6750002E0,1.5106E2,1.5E0,1.2933499E2,1.13955E2,1.4361499E2,1.40775E2,5.615E0,5E-1,