{"learner":{"attributes":{"best_iteration":"299","best_ntree_limit":"300","scikit_learn":"{\"n_estimators\": 300, \"objective\": \"rank:pairwise\", \"max_depth\": 5, \"max_leaves\": null, \"max_bin\": null, \"grow_policy\": null, \"learning_rate\": 0.11, \"verbosity\": null, \"booster\": \"gbtree\", \"tree_method\": \"auto\", \"gamma\": 2, \"min_child_weight\": null, \"max_delta_step\": null, \"subsample\": 0.8, \"sampling_method\": null, \"colsample_bytree\": 0.9, \"colsample_bylevel\": null, \"colsample_bynode\": null, \"reg_alpha\": null, \"reg_lambda\": null, \"scale_pos_weight\": null, \"base_score\": null, \"missing\": NaN, \"num_parallel_tree\": null, \"random_state\": 42, \"n_jobs\": null, \"monotone_constraints\": null, \"interaction_constraints\": null, \"importance_type\": null, \"gpu_id\": null, \"validate_parameters\": null, \"predictor\": null, \"enable_categorical\": false, \"max_cat_to_onehot\": null, \"eval_metric\": null, \"early_stopping_rounds\": null, \"callbacks\": null, \"kwargs\": {\"eta\": 0.032}, \"_estimator_type\": \"ranker\"}"},"feature_names":["srch_id","site_id","visitor_location_country_id","prop_country_id","prop_id","prop_starrating","prop_review_score","prop_brand_bool","prop_location_score1","prop_location_score2","prop_log_historical_price","promotion_flag","srch_destination_id","srch_length_of_stay","srch_booking_window","srch_adults_count","srch_children_count","srch_room_count","srch_saturday_night_bool","random_bool","price_usd_rank","prop_starrating_rank","prop_location_score1_rank","prop_review_score_rank","Competitor_Available_count","Competitor_Cheaper_count","price_hist_diff","star_hist_diff","log_price_usd","month","day","hour"],"feature_types":["int","int","int","int","int","int","float","int","float","float","float","int","int","int","int","int","int","int","int","int","int","int","int","int","int","int","float","float","float","int","int","int"],"gradient_booster":{"model":{"gbtree_model_param":{"num_parallel_tree":"1","num_trees":"300","size_leaf_vector":"0"},"tree_info":[0,0,0,0,0,0,0,0,0,0,0,0,0,0,0,0,0,0,0,0,0,0,0,0,0,0,0,0,0,0,0,0,0,0,0,0,0,0,0,0,0,0,0,0,0,0,0,0,0,0,0,0,0,0,0,0,0,0,0,0,0,0,0,0,0,0,0,0,0,0,0,0,0,0,0,0,0,0,0,0,0,0,0,0,0,0,0,0,0,0,0,0,0,0,0,0,0,0,0,0,0,0,0,0,0,0,0,0,0,0,0,0,0,0,0,0,0,0,0,0,0,0,0,0,0,0,0,0,0,0,0,0,0,0,0,0,0,0,0,0,0,0,0,0,0,0,0,0,0,0,0,0,0,0,0,0,0,0,0,0,0,0,0,0,0,0,0,0,0,0,0,0,0,0,0,0,0,0,0,0,0,0,0,0,0,0,0,0,0,0,0,0,0,0,0,0,0,0,0,0,0,0,0,0,0,0,0,0,0,0,0,0,0,0,0,0,0,0,0,0,0,0,0,0,0,0,0,0,0,0,0,0,0,0,0,0,0,0,0,0,0,0,0,0,0,0,0,0,0,0,0,0,0,0,0,0,0,0,0,0,0,0,0,0,0,0,0,0,0,0,0,0,0,0,0,0,0,0,0,0,0,0,0,0,0,0,0,0,0,0,0,0,0,0,0,0,0,0,0,0],"trees":[{"base_weights":[1.4290321E-3,-2.6006144E-1,1.650807E-1,-3.16283E-1,-4.0154684E-2,2.1769165E-1,-5.849865E-2,-3.7644038E-1,-1.6357058E-1,-1.7982513E-1,3.219475E-2,3.0431488E-1,8.431849E-2,2.0572763E-2,-2.2107156E-1,-5.0451106E-1,-3.276564E-1,-2.6499575E-1,-1.1044622E-1,-8.187257E-2,-2.7995527E-1,2.3040271E-1,-4.99362E-2,2.2470154E-1,4.5514742E-1,-5.5185832E-2,1.6875058E-1,-1.9561883E-2,2.8232697E-1,1.3176892E-2,-2.889176E-1,-5.3217995E-1,-3.445328E-1,-3.9558265E-1,-1.5899853E-1,-1.5943737E-1,-3.835332E-1,-2.03045E-2,-2.515997E-1,-2.8180745E-1,2.8148683E-2,-3.783308E-1,-1.8151957E-1,1.316057E-1,3.4747228E-1,-1.4941171E-1,5.0902776E-2,3.4967422E-1,1.5094958E-1,5.745683E-1,3.8527444E-1,2.143572E-1,-1.1045891E-1,2.8429326E-1,7.3271975E-2,7.370841E-2,-2.0814055E-1,2.0532672E-1,5.291814E-1,-8.902228E-2,2.7403754E-1,-3.4879324E-1,-2.084481E-2],"categories":[],"categories_nodes":[],"categories_segments":[],"categories_sizes":[],"default_left":[1,1,1,1,1,1,1,1,1,1,1,1,1,1,1,1,1,1,1,1,1,1,1,1,1,1,1,1,1,1,1,0,0,0,0,0,0,0,0,0,0,0,0,0,0,0,0,0,0,0,0,0,0,0,0,0,0,0,0,0,0,0,0],"id":0,"left_children":[1,3,5,7,9,11,13,15,17,19,21,23,25,27,29,31,33,35,37,39,41,43,45,47,49,51,53,55,57,59,61,-1,-1,-1,-1,-1,-1,-1,-1,-1,-1,-1,-1,-1,-1,-1,-1,-1,-1,-1,-1,-1,-1,-1,-1,-1,-1,-1,-1,-1,-1,-1,-1],"loss_changes":[1.3596845E5,1.5121305E4,2.2987492E4,8.948203E3,2.5164175E3,1.8277172E4,4.785423E3,4.365617E3,1.483147E3,8.334319E2,2.6705583E3,1.151693E4,7.3370664E3,2.6311123E3,1.9359648E3,8.530039E2,5.7970977E3,1.1838647E3,2.29854E3,9.4493677E2,4.068484E2,5.5583936E2,1.1634841E3,5.785912E3,2.7645781E3,3.4990938E3,4.280912E3,3.8195435E3,6.327866E2,7.2939496E2,1.5161089E3,0E0,0E0,0E0,0E0,0E0,0E0,0E0,0E0,0E0,0E0,0E0,0E0,0E0,0E0,0E0,0E0,0E0,0E0,0E0,0E0,0E0,0E0,0E0,0E0,0E0,0E0,0E0,0E0,0E0,0E0,0E0,0E0],"parents":[2147483647,0,0,1,1,2,2,3,3,4,4,5,5,6,6,7,7,8,8,9,9,10,10,11,11,12,12,13,13,14,14,15,15,16,16,17,17,18,18,19,19,20,20,21,21,22,22,23,23,24,24,25,25,26,26,27,27,28,28,29,29,30,30],"right_children":[2,4,6,8,10,12,14,16,18,20,22,24,26,28,30,32,34,36,38,40,42,44,46,48,50,52,54,56,58,60,62,-1,-1,-1,-1,-1,-1,-1,-1,-1,-1,-1,-1,-1,-1,-1,-1,-1,-1,-1,-1,-1,-1,-1,-1,-1,-1,-1,-1,-1,-1,-1,-1],"split_conditions":[3.035E-2,5E-1,5.3327427E0,9.85E-3,1.35E1,1.55E1,5.726864E0,2.5E0,1.05E1,7.5E0,1.25E1,1.55E1,2.05E1,1.95E1,3.16E0,2.95E1,1.85E1,8.5E0,1.95E1,4.5E0,5.45E-3,2.05E1,7.15E-3,5.5E0,9.5E0,2.1399999E0,2.25E1,1.15E1,2.75E1,1.7304999E-1,1.15E1,-5.8539793E-2,-3.7898608E-2,-4.351409E-2,-1.748984E-2,-1.7538112E-2,-4.218865E-2,-2.233495E-3,-2.7675968E-2,-3.099882E-2,3.0963551E-3,-4.1616388E-2,-1.9967152E-2,1.4476627E-2,3.822195E-2,-1.6435288E-2,5.5993055E-3,3.8464166E-2,1.6604453E-2,6.320251E-2,4.2380188E-2,2.3579292E-2,-1.215048E-2,3.127226E-2,8.059917E-3,8.107925E-3,-2.2895461E-2,2.258594E-2,5.8209956E-2,-9.792451E-3,3.0144129E-2,-3.8367257E-2,-2.292929E-3],"split_indices":[9,11,28,9,20,21,28,5,20,21,21,20,20,20,8,20,20,21,21,20,9,20,9,21,21,8,21,21,20,9,20,0,0,0,0,0,0,0,0,0,0,0,0,0,0,0,0,0,0,0,0,0,0,0,0,0,0,0,0,0,0,0,0],"split_type":[0,0,0,0,0,0,0,0,0,0,0,0,0,0,0,0,0,0,0,0,0,0,0,0,0,0,0,0,0,0,0,0,0,0,0,0,0,0,0,0,0,0,0,0,0,0,0,0,0,0,0,0,0,0,0,0,0,0,0,0,0,0,0],"sum_hessian":[3.1773245E6,1.22306E6,1.9542645E6,9.740365E5,2.490235E5,1.5820005E6,3.72264E5,6.98771E5,2.752655E5,8.4976E4,1.640475E5,9.590895E5,6.22911E5,2.504515E5,1.218125E5,1.92748E5,5.06023E5,9.46175E4,1.80648E5,4.2956E4,4.202E4,4.80605E4,1.15987E5,6.277495E5,3.3134E5,2.3486E5,3.88051E5,2.17156E5,3.32955E4,2.73575E4,9.4455E4,1.64325E5,2.8423E4,3.607365E5,1.452865E5,5.005E4,4.45675E4,1.102455E5,7.04025E4,1.5247E4,2.7709E4,2.1015E4,2.1005E4,2.60655E4,2.1995E4,5.8388E4,5.7599E4,2.32973E5,3.947765E5,1.22303E5,2.09037E5,3.9965E4,1.94895E5,1.755765E5,2.124745E5,1.452945E5,7.18615E4,2.53805E4,7.915E3,1.9657E4,7.7005E3,7.72095E4,1.72455E4],"tree_param":{"num_deleted":"0","num_feature":"32","num_nodes":"63","size_leaf_vector":"0"}},{"base_weights":[-7.135657E-4,-2.4871413E-1,1.576576E-1,-3.020435E-1,-4.082886E-2,2.1297216E-1,-4.1464105E-2,-3.688216E-1,-1.6507751E-1,-2.3124842E-1,5.9128865E-3,3.1235728E-1,1.0560462E-1,-9.955733E-2,1.6731901E-1,-4.2801154E-1,-2.648388E-1,-2.1412146E-1,-5.874802E-2,-8.505464E-2,-3.260341E-1,1.3779981E-1,-6.9146074E-2,2.3288101E-1,4.586529E-1,-2.120549E-2,1.8126428E-1,1.0492905E-1,-1.9743067E-1,9.931747E-2,3.9252073E-1,-3.7719607E-1,-5.3032357E-1,-2.0225E-1,-3.4878907E-1,-2.9308277E-1,-1.3676621E-1,3.4497105E-2,-1.2285221E-1,3.3137586E-2,-3.1095898E-1,-4.4336063E-1,-2.016874E-1,5.643271E-2,3.2120144E-1,-1.7326224E-1,3.2231376E-2,1.1131663E-1,3.0267164E-1,3.5127833E-1,5.1992786E-1,1.9624576E-1,-8.992564E-2,3.1686515E-1,8.13168E-2,1.6458988E-2,2.990385E-1,-1.3695046E-1,-4.051872E-1,2.283552E-1,-1.03661336E-1,4.6630678E-1,2.5580707E-1],"categories":[],"categories_nodes":[],"categories_segments":[],"categories_sizes":[],"default_left":[1,1,1,1,1,1,1,1,1,1,1,1,1,1,1,1,1,1,1,1,1,1,1,1,1,1,1,1,1,1,1,0,0,0,0,0,0,0,0,0,0,0,0,0,0,0,0,0,0,0,0,0,0,0,0,0,0,0,0,0,0,0,0],"id":1,"left_children":[1,3,5,7,9,11,13,15,17,19,21,23,25,27,29,31,33,35,37,39,41,43,45,47,49,51,53,55,57,59,61,-1,-1,-1,-1,-1,-1,-1,-1,-1,-1,-1,-1,-1,-1,-1,-1,-1,-1,-1,-1,-1,-1,-1,-1,-1,-1,-1,-1,-1,-1,-1,-1],"loss_changes":[1.2446612E5,1.369193E4,2.1301488E4,8.989695E3,2.2442056E3,1.6150461E4,5.0995903E3,4.0665469E3,1.6799199E3,6.885913E2,2.0041123E3,9.138539E3,6.98041E3,6.5830815E3,1.40155E3,2.1888906E3,1.2592949E3,1.346542E3,6.078309E2,5.219419E2,4.3973706E2,1.0957418E3,1.361834E3,4.320918E3,1.8202031E3,4.0627104E3,6.1757344E3,1.8284543E3,2.7951143E3,1.841257E3,2.1400171E2,0E0,0E0,0E0,0E0,0E0,0E0,0E0,0E0,0E0,0E0,0E0,0E0,0E0,0E0,0E0,0E0,0E0,0E0,0E0,0E0,0E0,0E0,0E0,0E0,0E0,0E0,0E0,0E0,0E0,0E0,0E0,0E0],"parents":[2147483647,0,0,1,1,2,2,3,3,4,4,5,5,6,6,7,7,8,8,9,9,10,10,11,11,12,12,13,13,14,14,15,15,16,16,17,17,18,18,19,19,20,20,21,21,22,22,23,23,24,24,25,25,26,26,27,27,28,28,29,29,30,30],"right_children":[2,4,6,8,10,12,14,16,18,20,22,24,26,28,30,32,34,36,38,40,42,44,46,48,50,52,54,56,58,60,62,-1,-1,-1,-1,-1,-1,-1,-1,-1,-1,-1,-1,-1,-1,-1,-1,-1,-1,-1,-1,-1,-1,-1,-1,-1,-1,-1,-1,-1,-1,-1,-1],"split_conditions":[3.135E-2,5E-1,5.281349E0,7.75E-3,8.5E0,1.35E1,1.45E1,5E-1,5E-1,4.5E0,1.25E1,1.45E1,1.95E1,3.315E0,2.45E1,1.75E1,1.55E1,1.55E1,1.15E1,5.448223E0,6.15E-3,2.05E1,7.15E-3,1.0925E-1,1.0665E-1,2.35E0,2.05E1,1.7414999E-1,1.35E1,1.65E1,2.15E1,-4.1491568E-2,-5.833559E-2,-2.22475E-2,-3.83668E-2,-3.2239106E-2,-1.5044283E-2,3.7946815E-3,-1.3513744E-2,3.6451344E-3,-3.420549E-2,-4.8769668E-2,-2.2185612E-2,6.207598E-3,3.533216E-2,-1.9058846E-2,3.5454512E-3,1.2244829E-2,3.329388E-2,3.864062E-2,5.7192065E-2,2.1587033E-2,-9.89182E-3,3.4855165E-2,8.944848E-3,1.8104886E-3,3.2894235E-2,-1.5064551E-2,-4.457059E-2,2.5119072E-2,-1.1402747E-2,5.1293746E-2,2.8138777E-2],"split_indices":[9,11,28,9,20,21,20,19,19,21,21,20,20,8,20,21,21,20,21,28,9,20,9,9,9,8,21,9,21,21,21,0,0,0,0,0,0,0,0,0,0,0,0,0,0,0,0,0,0,0,0,0,0,0,0,0,0,0,0,0,0,0,0],"split_type":[0,0,0,0,0,0,0,0,0,0,0,0,0,0,0,0,0,0,0,0,0,0,0,0,0,0,0,0,0,0,0,0,0,0,0,0,0,0,0,0,0,0,0,0,0,0,0,0,0,0,0,0,0,0,0,0,0,0,0,0,0,0,0],"sum_hessian":[3.1689992E6,1.2350219E6,1.9339772E6,9.828805E5,2.521414E5,1.5135295E6,4.2044772E5,6.6073556E5,3.221449E5,4.969337E4,2.0244803E5,7.8598144E5,7.275481E5,3.2892572E5,9.1522E4,4.2105562E5,2.3967994E5,2.204585E5,1.0168641E5,1.9546896E4,3.0146477E4,7.342729E4,1.29020734E5,5.0930172E5,2.766797E5,2.718732E5,4.5567494E5,1.0647267E5,2.2245303E5,7.029675E4,2.122525E4,2.813311E5,1.3972452E5,1.3731136E5,1.0236858E5,1.0909532E5,1.1136318E5,4.1427277E4,6.0259125E4,1.2833378E4,6.7135176E3,1.55097705E4,1.4636706E4,5.0862973E4,2.256432E4,6.3650258E4,6.5370477E4,1.8575248E5,3.2354922E5,1.0052773E5,1.7615197E5,6.5286184E4,2.0658702E5,1.9335033E5,2.6232462E5,7.313893E4,3.3333746E4,1.7229712E5,5.0155914E4,4.2975945E4,2.7320803E4,1.3783638E4,7.4416113E3],"tree_param":{"num_deleted":"0","num_feature":"32","num_nodes":"63","size_leaf_vector":"0"}},{"base_weights":[1.2346219E-3,-2.6706582E-1,1.3357024E-1,-3.1438458E-1,-6.859805E-2,1.7546234E-1,-7.548508E-2,-4.346202E-1,-2.7066767E-1,-2.537785E-1,-2.2829624E-2,5.2378636E-2,2.5561237E-1,-1.5447068E-1,6.984275E-2,-4.647607E-1,-2.7373365E-1,-3.3770925E-1,-1.11378565E-1,-1.7548607E-1,-3.6183807E-1,-1.900793E-1,1.5169226E-2,-6.3401223E-3,2.0025857E-1,4.327636E-1,1.7891666E-1,3.2594156E-2,-2.534735E-1,3.3677254E-2,3.4624425E-1,-5.123591E-1,-3.7331286E-1,-1.5693934E-1,-3.5084412E-1,-3.9731464E-1,-2.306765E-1,-1.6672598E-1,1.8555623E-2,-2.751542E-1,-7.9068355E-2,-4.5801777E-1,-1.9920687E-1,-2.3110834E-1,-2.6377354E-2,-3.4131866E-2,2.2316648E-1,-6.511678E-2,1.23081185E-1,2.4247196E-1,1.0978545E-1,3.4610063E-1,5.4551005E-1,8.7601885E-2,2.7132002E-1,-1.4686187E-1,1.4302926E-1,-1.9661617E-1,-3.971618E-1,9.0587124E-2,-1.14729494E-1,3.0150428E-1,6.68036E-1],"categories":[],"categories_nodes":[],"categories_segments":[],"categories_sizes":[],"default_left":[1,1,1,1,1,1,1,1,1,1,1,1,1,1,1,1,1,1,1,1,1,1,1,1,1,1,1,1,1,1,1,0,0,0,0,0,0,0,0,0,0,0,0,0,0,0,0,0,0,0,0,0,0,0,0,0,0,0,0,0,0,0,0],"id":2,"left_children":[1,3,5,7,9,11,13,15,17,19,21,23,25,27,29,31,33,35,37,39,41,43,45,47,49,51,53,55,57,59,61,-1,-1,-1,-1,-1,-1,-1,-1,-1,-1,-1,-1,-1,-1,-1,-1,-1,-1,-1,-1,-1,-1,-1,-1,-1,-1,-1,-1,-1,-1,-1,-1],"loss_changes":[1.1263565E5,9.840719E3,1.8605559E4,4.447414E3,1.7097867E3,1.7459492E4,4.0709639E3,1.0939141E3,6.626449E3,3.3816797E2,1.02802E3,6.0606978E3,1.45628125E4,4.255336E3,1.2483176E3,8.2689844E2,3.205603E2,2.7860156E3,1.3218411E3,2.2277563E2,2.6262085E2,2.0113525E2,1.351666E3,3.8004104E3,7.576011E2,3.1640352E3,6.3115E3,1.57597E3,1.2274316E3,9.327004E2,2.0782239E2,0E0,0E0,0E0,0E0,0E0,0E0,0E0,0E0,0E0,0E0,0E0,0E0,0E0,0E0,0E0,0E0,0E0,0E0,0E0,0E0,0E0,0E0,0E0,0E0,0E0,0E0,0E0,0E0,0E0,0E0,0E0,0E0],"parents":[2147483647,0,0,1,1,2,2,3,3,4,4,5,5,6,6,7,7,8,8,9,9,10,10,11,11,12,12,13,13,14,14,15,15,16,16,17,17,18,18,19,19,20,20,21,21,22,22,23,23,24,24,25,25,26,26,27,27,28,28,29,29,30,30],"right_children":[2,4,6,8,10,12,14,16,18,20,22,24,26,28,30,32,34,36,38,40,42,44,46,48,50,52,54,56,58,60,62,-1,-1,-1,-1,-1,-1,-1,-1,-1,-1,-1,-1,-1,-1,-1,-1,-1,-1,-1,-1,-1,-1,-1,-1,-1,-1,-1,-1,-1,-1,-1,-1],"split_conditions":[1.9650001E-2,5E-1,5.3889117E0,2.5E0,8.5E0,9.315E-2,9.5E0,2.95E1,1.85E1,8.5E0,2.5E0,5E-1,2.6E0,3.315E0,2.45E1,5E-1,2.65E1,5E-1,2.65E1,4.5E0,5E-1,3.15E1,2.75E1,3.5E0,2.05E1,2.2545001E-1,3.5E0,7.135E-2,5.9215918E0,1.75E1,6.0150003E0,-5.63595E-2,-4.1064415E-2,-1.7263327E-2,-3.8592853E-2,-4.370461E-2,-2.5374414E-2,-1.8339857E-2,2.0411185E-3,-3.0266963E-2,-8.697519E-3,-5.0381955E-2,-2.1912755E-2,-2.5421917E-2,-2.901509E-3,-3.7545052E-3,2.4548313E-2,-7.1628457E-3,1.3538931E-2,2.6671916E-2,1.2076399E-2,3.807107E-2,6.0006104E-2,9.6362075E-3,2.9845202E-2,-1.6154805E-2,1.5733218E-2,-2.1627778E-2,-4.3687798E-2,9.964583E-3,-1.2620244E-2,3.316547E-2,7.348396E-2],"split_indices":[9,11,28,5,20,9,20,20,20,23,5,11,8,8,20,19,23,19,20,20,19,20,20,5,23,9,5,9,28,23,10,0,0,0,0,0,0,0,0,0,0,0,0,0,0,0,0,0,0,0,0,0,0,0,0,0,0,0,0,0,0,0,0],"split_type":[0,0,0,0,0,0,0,0,0,0,0,0,0,0,0,0,0,0,0,0,0,0,0,0,0,0,0,0,0,0,0,0,0,0,0,0,0,0,0,0,0,0,0,0,0,0,0,0,0,0,0,0,0,0,0,0,0,0,0,0,0,0,0],"sum_hessian":[3.1723235E6,1.0478618E6,2.1244615E6,8.461273E5,2.017345E5,1.7698131E6,3.546485E5,2.256121E5,6.205152E5,3.9977945E4,1.6175655E5,6.9796844E5,1.0718448E6,2.2976906E5,1.2487944E5,1.9001316E5,3.559894E4,4.3671116E5,1.8380405E5,2.3183455E4,1.679449E4,2.9946188E4,1.3181036E5,4.9959497E5,1.9837347E5,3.2383897E5,7.480057E5,7.951911E4,1.5024994E5,1.1043128E5,1.4448154E4,1.2496471E5,6.504844E4,1.4157903E4,2.1441037E4,2.8050066E5,1.5621052E5,1.288978E5,5.490624E4,1.1398666E4,1.1784788E4,1.0552154E4,6.242336E3,2.3944502E4,6.0016855E3,1.0655478E5,2.5255588E4,3.4356534E5,1.5602962E5,1.3526102E5,6.311245E4,1.8310144E5,1.4073755E5,3.7621988E5,3.7178584E5,3.0292977E4,4.9226137E4,1.0765382E5,4.2596125E4,7.982211E4,3.0609176E4,1.268627E4,1.7618845E3],"tree_param":{"num_deleted":"0","num_feature":"32","num_nodes":"63","size_leaf_vector":"0"}},{"base_weights":[4.001417E-4,-2.2474387E-1,1.442257E-1,-3.0407906E-1,-1.0705013E-1,2.0776656E-1,-7.759973E-4,-3.9918858E-1,-2.4971333E-1,-1.8606164E-1,-2.7355708E-2,2.729693E-1,5.0520416E-2,5.4985598E-2,-1.8137763E-1,-2.7580363E-1,-5.234988E-1,-1.3733579E-1,-3.5783133E-1,-5.7716645E-2,-2.470921E-1,8.093174E-2,-1.7155243E-1,1.632773E-1,3.3990753E-1,-6.8275906E-2,1.3312952E-1,2.8647117E-2,3.33064E-1,1.5523656E-2,-2.3787785E-1,-4.108334E-1,-1.9144839E-1,-5.835762E-1,-4.168001E-1,4.4692032E-2,-1.8717591E-1,-4.625844E-1,-2.628107E-1,-1.7728543E-1,7.088487E-2,-2.0223059E-1,-3.4128252E-1,2.2665106E-1,1.9211486E-2,-2.4281527E-1,-6.508377E-2,8.3679385E-2,2.792833E-1,4.9276897E-1,2.9318485E-1,1.7749445E-1,-1.2384376E-1,2.1851848E-1,5.1473036E-2,1.0674082E-1,-1.265489E-1,4.4307905E-1,2.2044261E-1,-6.0699854E-2,2.6969352E-1,-3.5671854E-1,-1.0424742E-1],"categories":[],"categories_nodes":[],"categories_segments":[],"categories_sizes":[],"default_left":[1,1,1,1,1,1,1,1,1,1,1,1,1,1,1,1,1,1,1,1,1,1,1,1,1,1,1,1,1,1,1,0,0,0,0,0,0,0,0,0,0,0,0,0,0,0,0,0,0,0,0,0,0,0,0,0,0,0,0,0,0,0,0],"id":3,"left_children":[1,3,5,7,9,11,13,15,17,19,21,23,25,27,29,31,33,35,37,39,41,43,45,47,49,51,53,55,57,59,61,-1,-1,-1,-1,-1,-1,-1,-1,-1,-1,-1,-1,-1,-1,-1,-1,-1,-1,-1,-1,-1,-1,-1,-1,-1,-1,-1,-1,-1,-1,-1,-1],"loss_changes":[1.0242456E5,1.1512539E4,1.7782945E4,3.8081484E3,3.1261357E3,1.3759457E4,5.922353E3,4.108496E3,5.693865E3,1.9527529E3,3.859443E3,6.965492E3,3.860334E3,3.2910605E3,1.5434492E3,1.5312432E3,8.5510156E2,2.0847466E3,2.377248E3,1.2354443E3,7.138672E2,1.2695688E3,8.042871E2,3.3196777E3,4.2075156E3,2.203479E3,1.6177622E3,4.974811E3,4.8159814E2,5.993377E2,1.7119595E3,0E0,0E0,0E0,0E0,0E0,0E0,0E0,0E0,0E0,0E0,0E0,0E0,0E0,0E0,0E0,0E0,0E0,0E0,0E0,0E0,0E0,0E0,0E0,0E0,0E0,0E0,0E0,0E0,0E0,0E0,0E0,0E0],"parents":[2147483647,0,0,1,1,2,2,3,3,4,4,5,5,6,6,7,7,8,8,9,9,10,10,11,11,12,12,13,13,14,14,15,15,16,16,17,17,18,18,19,19,20,20,21,21,22,22,23,23,24,24,25,25,26,26,27,27,28,28,29,29,30,30],"right_children":[2,4,6,8,10,12,14,16,18,20,22,24,26,28,30,32,34,36,38,40,42,44,46,48,50,52,54,56,58,60,62,-1,-1,-1,-1,-1,-1,-1,-1,-1,-1,-1,-1,-1,-1,-1,-1,-1,-1,-1,-1,-1,-1,-1,-1,-1,-1,-1,-1,-1,-1,-1,-1],"split_conditions":[3.135E-2,5.55E-3,5.1283884E0,1.05E1,1.65E1,1.85E1,5.6887197E0,7.5E0,1.65E1,6.5E0,2.05E1,1.0765E-1,2.35E1,2.35E1,3.16E0,3.5E0,5E-1,7.5E0,2.35E1,5.5E0,1.55E1,1.15E1,2.85E1,1.65E1,2.1399999E0,2.1399999E0,2.35E1,1.25E1,1.85E1,2.101E-1,5.5E0,-4.519167E-2,-2.1059323E-2,-6.419338E-2,-4.5848012E-2,4.9161236E-3,-2.058935E-2,-5.0884284E-2,-2.8909178E-2,-1.9501397E-2,7.7973353E-3,-2.2245364E-2,-3.7541077E-2,2.4931617E-2,2.1132634E-3,-2.670968E-2,-7.159215E-3,9.204732E-3,3.0721162E-2,5.4204587E-2,3.2250334E-2,1.952439E-2,-1.3622814E-2,2.4037033E-2,5.662034E-3,1.174149E-2,-1.3920379E-2,4.8738696E-2,2.4248688E-2,-6.676984E-3,2.9666288E-2,-3.9239038E-2,-1.1467217E-2],"split_indices":[9,9,28,20,20,21,28,21,21,21,21,9,20,20,8,20,19,21,20,20,21,21,20,20,8,8,23,21,21,9,20,0,0,0,0,0,0,0,0,0,0,0,0,0,0,0,0,0,0,0,0,0,0,0,0,0,0,0,0,0,0,0,0],"split_type":[0,0,0,0,0,0,0,0,0,0,0,0,0,0,0,0,0,0,0,0,0,0,0,0,0,0,0,0,0,0,0,0,0,0,0,0,0,0,0,0,0,0,0,0,0,0,0,0,0,0,0,0,0,0,0,0,0,0,0,0,0,0,0],"sum_hessian":[3.1630598E6,1.2329709E6,1.9300888E6,7.365049E5,4.96466E5,1.3420094E6,5.880794E5,2.6787225E5,4.6863266E5,2.4930048E5,2.471655E5,9.48648E5,3.9336144E5,4.4934325E5,1.3873612E5,1.3443803E5,1.3343422E5,2.2979089E5,2.3884175E5,8.0343266E4,1.6895722E5,1.4115942E5,1.0600608E5,3.5951397E5,5.89134E5,1.6134248E5,2.3201895E5,4.104666E5,3.8876664E4,3.0933758E4,1.0780237E5,5.1690973E4,8.274706E4,8.536457E4,4.8069652E4,4.939368E4,1.8039722E5,1.13601164E5,1.25240586E5,4.1633574E4,3.870969E4,1.1444967E5,5.450755E4,4.199888E4,9.916054E4,6.3501344E4,4.250474E4,2.1321645E5,1.462975E5,1.3791416E5,4.5121988E5,2.9751732E4,1.3159075E5,1.1341655E5,1.18602414E5,2.7306316E5,1.3740342E5,1.9664404E4,1.921226E4,2.3797762E4,7.135997E3,5.7057824E4,5.0744543E4],"tree_param":{"num_deleted":"0","num_feature":"32","num_nodes":"63","size_leaf_vector":"0"}},{"base_weights":[7.0590514E-4,-2.3495117E-1,1.2715861E-1,-2.8566232E-1,-1.1133746E-1,1.8426238E-1,-1.1596482E-2,-3.5840133E-1,-2.147276E-1,-1.6054541E-1,-4.161459E-3,2.806928E-1,8.7589115E-2,-7.1363956E-2,1.4290759E-1,-2.5621593E-1,-4.79643E-1,-6.7850426E-2,-3.2017457E-1,-9.1357715E-2,-2.630734E-1,1.3740386E-1,-1.5015571E-1,2.1673918E-1,4.3168595E-1,-1.0574486E-2,1.6739133E-1,1.8459076E-2,-2.3288482E-1,2.5057843E-1,3.743988E-2,-3.7948462E-1,-1.7880028E-1,-5.3681415E-1,-3.7915608E-1,-1.13980435E-1,9.883762E-2,-3.7196034E-1,-1.7924237E-1,-1.6958515E-1,3.8209893E-2,-3.5035577E-1,-1.6892524E-1,6.6715665E-2,2.4724932E-1,-2.1773402E-1,-3.0321913E-2,8.6287685E-2,2.808943E-1,3.289443E-1,5.0466335E-1,-1.0757002E-1,6.0633197E-2,4.083928E-1,1.132372E-1,7.45802E-2,-2.044442E-1,3.003385E-2,-2.6232427E-1,2.0004763E-1,3.795343E-1,-6.338363E-2,3.2861304E-1],"categories":[],"categories_nodes":[],"categories_segments":[],"categories_sizes":[],"default_left":[1,1,1,1,1,1,1,1,1,1,1,1,1,1,1,1,1,1,1,1,1,1,1,1,1,1,1,1,1,1,1,0,0,0,0,0,0,0,0,0,0,0,0,0,0,0,0,0,0,0,0,0,0,0,0,0,0,0,0,0,0,0,0],"id":4,"left_children":[1,3,5,7,9,11,13,15,17,19,21,23,25,27,29,31,33,35,37,39,41,43,45,47,49,51,53,55,57,59,61,-1,-1,-1,-1,-1,-1,-1,-1,-1,-1,-1,-1,-1,-1,-1,-1,-1,-1,-1,-1,-1,-1,-1,-1,-1,-1,-1,-1,-1,-1,-1,-1],"loss_changes":[9.407563E4,6.9107344E3,1.62788125E4,4.0335E3,1.6913569E3,1.356857E4,5.5314214E3,4.7815938E3,6.129754E3,1.5590952E3,2.0856772E3,7.03634E3,5.6938286E3,6.2664824E3,1.8973513E3,1.9986221E3,1.0138906E3,1.2718232E3,1.6813379E3,1.3301584E3,7.276587E2,3.9780817E2,4.02312E2,4.283869E3,1.6253711E3,2.2511182E3,5.2323916E3,3.472271E3,1.1947598E3,5.3867285E2,2.4779429E3,0E0,0E0,0E0,0E0,0E0,0E0,0E0,0E0,0E0,0E0,0E0,0E0,0E0,0E0,0E0,0E0,0E0,0E0,0E0,0E0,0E0,0E0,0E0,0E0,0E0,0E0,0E0,0E0,0E0,0E0,0E0,0E0],"parents":[2147483647,0,0,1,1,2,2,3,3,4,4,5,5,6,6,7,7,8,8,9,9,10,10,11,11,12,12,13,13,14,14,15,15,16,16,17,17,18,18,19,19,20,20,21,21,22,22,23,23,24,24,25,25,26,26,27,27,28,28,29,29,30,30],"right_children":[2,4,6,8,10,12,14,16,18,20,22,24,26,28,30,32,34,36,38,40,42,44,46,48,50,52,54,56,58,60,62,-1,-1,-1,-1,-1,-1,-1,-1,-1,-1,-1,-1,-1,-1,-1,-1,-1,-1,-1,-1,-1,-1,-1,-1,-1,-1,-1,-1,-1,-1,-1,-1],"split_conditions":[2.3249999E-2,7.35E-3,5.133885E0,1.45E1,2.25E1,1.35E1,1.35E1,9.5E0,1.65E1,1.35E1,2.15E1,1.65E1,9.875E-2,9.5E0,1.55E1,4.5E0,5E-1,2.45E1,2.85E1,1.15E1,4.965E0,2.75E1,4.685E0,9.015E-2,1.0915E-1,2.15E1,2.35E0,5.853624E0,2.25E0,2.05E1,2.55E1,-4.174331E-2,-1.9668031E-2,-5.9049558E-2,-4.170717E-2,-1.2537848E-2,1.0872139E-2,-4.091564E-2,-1.9716661E-2,-1.8654367E-2,4.203088E-3,-3.8539134E-2,-1.8581776E-2,7.338723E-3,2.7197424E-2,-2.3950743E-2,-3.3354105E-3,9.491646E-3,3.0898374E-2,3.618387E-2,5.551297E-2,-1.1832702E-2,6.6696517E-3,4.4923205E-2,1.2456092E-2,8.203822E-3,-2.2488862E-2,3.3037234E-3,-2.885567E-2,2.200524E-2,4.1748773E-2,-6.9721993E-3,3.6147434E-2],"split_indices":[9,9,28,20,20,21,20,21,21,21,21,20,9,21,21,20,19,20,20,20,10,20,10,9,9,20,8,28,8,20,20,0,0,0,0,0,0,0,0,0,0,0,0,0,0,0,0,0,0,0,0,0,0,0,0,0,0,0,0,0,0,0,0],"split_type":[0,0,0,0,0,0,0,0,0,0,0,0,0,0,0,0,0,0,0,0,0,0,0,0,0,0,0,0,0,0,0,0,0,0,0,0,0,0,0,0,0,0,0,0,0,0,0,0,0,0,0,0,0,0,0,0,0,0,0,0,0,0,0],"sum_hessian":[3.1569542E6,1.1024428E6,2.0545115E6,7.8174094E5,3.2070178E5,1.4555066E6,5.990049E5,3.8595978E5,3.9578112E5,2.1978908E5,1.0091271E5,7.286677E5,7.26839E5,4.319228E5,1.6708203E5,2.0944098E5,1.7651881E5,1.6539875E5,2.3038236E5,1.3123278E5,8.855628E4,5.12335E4,4.9679207E4,5.1186722E5,2.1680047E5,3.2592456E5,4.009144E5,2.775667E5,1.5435616E5,8.2676805E4,8.440523E4,8.07921E4,1.2864888E5,1.1250546E5,6.401335E4,1.295475E5,3.585125E4,1.684745E5,6.190786E4,8.182812E4,4.9404668E4,4.5952324E4,4.2603957E4,3.1173932E4,2.005957E4,3.1765025E4,1.7914184E4,1.687458E5,3.431214E5,9.00411E4,1.2675937E5,1.3797772E5,1.8794684E5,7.35572E4,3.2735722E5,2.2173928E5,5.5827395E4,1.5543125E4,1.3881303E5,5.9402676E4,2.3274127E4,6.269636E4,2.1708867E4],"tree_param":{"num_deleted":"0","num_feature":"32","num_nodes":"63","size_leaf_vector":"0"}},{"base_weights":[8.596072E-5,-1.9826774E-1,1.3840906E-1,-2.4514484E-1,-2.044456E-2,1.9877449E-1,2.0970004E-3,-3.0132756E-1,-1.1974578E-1,-9.995368E-2,5.8329206E-2,2.582603E-1,5.4374967E-2,5.2341975E-2,-1.7574845E-1,-3.5182714E-1,-2.1210149E-1,-2.073451E-1,-7.3435E-2,-3.6758352E-2,-2.376076E-1,1.9633538E-1,-3.403121E-2,2.045567E-1,3.7774962E-1,-3.293752E-2,1.5065847E-1,3.420459E-1,3.0445121E-2,1.1528614E-1,-2.0872346E-1,-4.3606827E-1,-3.078465E-1,-3.1416336E-1,-1.7557155E-1,-1.19655445E-1,-3.077769E-1,1.1666575E-2,-1.8772839E-1,-1.8751477E-1,2.6066355E-2,-3.292172E-1,-1.531498E-1,1.3378444E-1,3.0333826E-1,-1.2715526E-1,4.3923352E-2,1.2633665E-1,2.8752178E-1,4.6700627E-1,3.0541992E-1,2.0218047E-1,-8.310612E-2,-4.5205723E-3,2.1556072E-1,1.4734352E-1,4.6273035E-1,-8.581766E-3,2.2456399E-1,-6.349774E-2,3.351987E-1,-3.078252E-1,-8.6159E-2],"categories":[],"categories_nodes":[],"categories_segments":[],"categories_sizes":[],"default_left":[1,1,1,1,1,1,1,1,1,1,1,1,1,1,1,1,1,1,1,1,1,1,1,1,1,1,1,1,1,1,1,0,0,0,0,0,0,0,0,0,0,0,0,0,0,0,0,0,0,0,0,0,0,0,0,0,0,0,0,0,0,0,0],"id":5,"left_children":[1,3,5,7,9,11,13,15,17,19,21,23,25,27,29,31,33,35,37,39,41,43,45,47,49,51,53,55,57,59,61,-1,-1,-1,-1,-1,-1,-1,-1,-1,-1,-1,-1,-1,-1,-1,-1,-1,-1,-1,-1,-1,-1,-1,-1,-1,-1,-1,-1,-1,-1,-1,-1],"loss_changes":[8.630271E4,1.0772586E4,1.5248918E4,7.2052773E3,1.688612E3,1.1032523E4,5.082614E3,3.1823438E3,1.2837075E3,1.1672097E3,1.7262388E3,5.837176E3,3.150316E3,2.813338E3,1.2024734E3,1.6708711E3,9.516572E2,9.637363E2,2.0134382E3,8.7098627E2,3.265918E2,3.6338184E2,5.889872E2,4.0727324E3,1.8208359E3,2.318124E3,1.794865E3,7.322366E2,3.1237502E3,5.0139844E2,1.3669824E3,0E0,0E0,0E0,0E0,0E0,0E0,0E0,0E0,0E0,0E0,0E0,0E0,0E0,0E0,0E0,0E0,0E0,0E0,0E0,0E0,0E0,0E0,0E0,0E0,0E0,0E0,0E0,0E0,0E0,0E0,0E0,0E0],"parents":[2147483647,0,0,1,1,2,2,3,3,4,4,5,5,6,6,7,7,8,8,9,9,10,10,11,11,12,12,13,13,14,14,15,15,16,16,17,17,18,18,19,19,20,20,21,21,22,22,23,23,24,24,25,25,26,26,27,27,28,28,29,29,30,30],"right_children":[2,4,6,8,10,12,14,16,18,20,22,24,26,28,30,32,34,36,38,40,42,44,46,48,50,52,54,56,58,60,62,-1,-1,-1,-1,-1,-1,-1,-1,-1,-1,-1,-1,-1,-1,-1,-1,-1,-1,-1,-1,-1,-1,-1,-1,-1,-1,-1,-1,-1,-1,-1,-1],"split_conditions":[3.655E-2,5E-1,5.1283884E0,1.085E-2,1.85E1,1.85E1,5.7004604E0,5E-1,1.05E1,1.25E1,1.65E1,5E-1,2.55E1,1.7E0,2.44E0,9.5E0,2.5E0,8.5E0,1.85E1,5.5E0,7.35E-3,1.475E-2,7.15E-3,1.5275E-1,3.315E0,2.1399999E0,3.25E0,8.415E-2,1.95E1,1.1925E-1,5.5E0,-4.796751E-2,-3.3863112E-2,-3.455797E-2,-1.931287E-2,-1.3162099E-2,-3.3855457E-2,1.2833233E-3,-2.0650122E-2,-2.0626625E-2,2.8672991E-3,-3.621389E-2,-1.6846478E-2,1.4716289E-2,3.336721E-2,-1.3987078E-2,4.831569E-3,1.3897032E-2,3.1627394E-2,5.1370688E-2,3.359619E-2,2.2239853E-2,-9.141673E-3,-4.972629E-4,2.371168E-2,1.6207786E-2,5.0900336E-2,-9.4399427E-4,2.4702039E-2,-6.984751E-3,3.6871858E-2,-3.3860773E-2,-9.47749E-3],"split_indices":[9,11,28,9,20,21,28,19,20,21,21,11,20,8,8,20,5,21,21,20,9,9,9,9,8,8,6,9,20,9,20,0,0,0,0,0,0,0,0,0,0,0,0,0,0,0,0,0,0,0,0,0,0,0,0,0,0,0,0,0,0,0,0],"split_type":[0,0,0,0,0,0,0,0,0,0,0,0,0,0,0,0,0,0,0,0,0,0,0,0,0,0,0,0,0,0,0,0,0,0,0,0,0,0,0,0,0,0,0,0,0,0,0,0,0,0,0,0,0,0,0,0,0,0,0,0,0,0,0],"sum_hessian":[3.145496E6,1.2923216E6,1.8531745E6,1.0227165E6,2.6960516E5,1.2843869E6,5.687876E5,7.0627956E5,3.1643688E5,1.3417617E5,1.3542898E5,9.0965206E5,3.7473478E5,4.4349262E5,1.2529502E5,4.5101444E5,2.5526514E5,1.0943371E5,2.0700317E5,9.1959766E4,4.2216406E4,5.4296816E4,8.1132164E4,6.2758925E5,2.820628E5,1.9652305E5,1.7821173E5,3.1164148E4,4.1232847E5,1.2751231E4,1.1254379E5,1.5469702E5,2.9631744E5,6.728062E4,1.8798453E5,5.8424195E4,5.100951E4,1.18654945E5,8.8348234E4,2.7049303E4,6.4910465E4,2.0249404E4,2.1967002E4,3.4267332E4,2.0029488E4,3.6968812E4,4.416335E4,3.230335E5,3.0455575E5,1.26255266E5,1.5580753E5,3.4558703E4,1.6196434E5,5.255513E4,1.256566E5,1.1925978E4,1.923817E4,3.433085E5,6.901996E4,7.0337026E3,5.717529E3,6.2227273E4,5.0316516E4],"tree_param":{"num_deleted":"0","num_feature":"32","num_nodes":"63","size_leaf_vector":"0"}},{"base_weights":[1.3757742E-3,-1.8573324E-1,1.3634175E-1,-2.677579E-1,-8.097129E-2,1.8285703E-2,1.856024E-1,-3.0077654E-1,-1.0389092E-1,-1.2900668E-1,5.210758E-2,1.0921001E-1,-1.285809E-1,3.0731273E-1,9.1355726E-2,-4.0065274E-1,-2.62324E-1,-2.4722165E-1,-6.550641E-2,-2.4075639E-1,-9.7599186E-2,-6.4509615E-2,1.072877E-1,2.6975464E-2,2.0751329E-1,-7.513032E-2,-2.5572342E-1,2.5838783E-1,4.52173E-1,5.2072033E-3,1.815187E-1,-4.448746E-1,-3.1883693E-1,-3.2193005E-1,-1.3109258E-1,-9.236403E-2,-3.599106E-1,1.2041783E-1,-1.1478957E-1,-2.932488E-1,-1.6267984E-1,-1.6613035E-1,-4.5002415E-3,2.7316218E-2,-1.507773E-1,2.7825812E-1,5.202547E-2,7.3455885E-2,-1.4052303E-1,2.9603326E-1,1.2086528E-1,-1.7265245E-1,-1.6477577E-2,-2.2070795E-1,-4.3129203E-1,3.6093175E-1,1.875103E-1,5.619457E-1,4.0891138E-1,5.69719E-2,-1.5151334E-1,2.8936958E-1,8.1094064E-2],"categories":[],"categories_nodes":[],"categories_segments":[],"categories_sizes":[],"default_left":[1,1,1,1,1,1,1,1,1,1,1,1,1,1,1,1,1,1,1,1,1,1,1,1,1,1,1,1,1,1,1,0,0,0,0,0,0,0,0,0,0,0,0,0,0,0,0,0,0,0,0,0,0,0,0,0,0,0,0,0,0,0,0],"id":6,"left_children":[1,3,5,7,9,11,13,15,17,19,21,23,25,27,29,31,33,35,37,39,41,43,45,47,49,51,53,55,57,59,61,-1,-1,-1,-1,-1,-1,-1,-1,-1,-1,-1,-1,-1,-1,-1,-1,-1,-1,-1,-1,-1,-1,-1,-1,-1,-1,-1,-1,-1,-1,-1,-1],"loss_changes":[7.929496E4,1.1306828E4,1.0608465E4,3.992996E3,3.693726E3,7.171828E3,1.4764059E4,2.3588281E3,6.809061E2,1.4901274E3,9.861714E2,2.681488E3,1.3955613E3,3.980871E3,5.634433E3,6.1760547E2,3.468996E3,4.561875E2,8.9453577E2,3.8170654E2,2.1145518E3,3.8993613E2,9.8286743E2,1.406181E3,1.1588481E3,8.269812E2,3.735564E2,3.0517695E3,6.732324E2,3.0094272E3,3.8388633E3,0E0,0E0,0E0,0E0,0E0,0E0,0E0,0E0,0E0,0E0,0E0,0E0,0E0,0E0,0E0,0E0,0E0,0E0,0E0,0E0,0E0,0E0,0E0,0E0,0E0,0E0,0E0,0E0,0E0,0E0,0E0,0E0],"parents":[2147483647,0,0,1,1,2,2,3,3,4,4,5,5,6,6,7,7,8,8,9,9,10,10,11,11,12,12,13,13,14,14,15,15,16,16,17,17,18,18,19,19,20,20,21,21,22,22,23,23,24,24,25,25,26,26,27,27,28,28,29,29,30,30],"right_children":[2,4,6,8,10,12,14,16,18,20,22,24,26,28,30,32,34,36,38,40,42,44,46,48,50,52,54,56,58,60,62,-1,-1,-1,-1,-1,-1,-1,-1,-1,-1,-1,-1,-1,-1,-1,-1,-1,-1,-1,-1,-1,-1,-1,-1,-1,-1,-1,-1,-1,-1,-1,-1],"split_conditions":[3.875E-2,5.95E-3,8.5E0,5E-1,5E-1,7.5E0,1.35E1,2.5E0,8.5E0,2.5E0,1.35E1,4.5E0,1.45E1,1.95E1,2.25E1,5E-1,1.75E1,4.5E0,8.5E0,2.55E1,1.55E1,7.5E0,1.15E1,5.8050003E0,4.5E0,4.5E0,3.5E0,7.5E0,7.5E0,2.15E1,2.25E1,-4.8936207E-2,-3.5072062E-2,-3.5412304E-2,-1.4420183E-2,-1.0160043E-2,-3.9590165E-2,1.3245962E-2,-1.2626853E-2,-3.2257367E-2,-1.7894782E-2,-1.8274339E-2,-4.950266E-4,3.004784E-3,-1.6585503E-2,3.0608393E-2,5.7228017E-3,8.080147E-3,-1.5457533E-2,3.256366E-2,1.329518E-2,-1.899177E-2,-1.8125335E-3,-2.4277875E-2,-4.7442123E-2,3.9702494E-2,2.0626133E-2,6.1814025E-2,4.498025E-2,6.266909E-3,-1.6666466E-2,3.1830654E-2,8.920347E-3],"split_indices":[9,9,20,11,11,21,21,5,20,5,20,20,21,20,20,19,20,21,21,20,20,21,21,10,21,20,24,21,21,21,21,0,0,0,0,0,0,0,0,0,0,0,0,0,0,0,0,0,0,0,0,0,0,0,0,0,0,0,0,0,0,0,0],"split_type":[0,0,0,0,0,0,0,0,0,0,0,0,0,0,0,0,0,0,0,0,0,0,0,0,0,0,0,0,0,0,0,0,0,0,0,0,0,0,0,0,0,0,0,0,0,0,0,0,0,0,0,0,0,0,0,0,0,0,0,0,0,0,0],"sum_hessian":[3.1399755E6,1.315811E6,1.8241646E6,7.379907E5,5.7782025E5,5.3706294E5,1.2871016E6,6.142254E5,1.237653E5,4.2456997E5,1.532503E5,3.3170588E5,2.0535703E5,5.6170825E5,7.2539344E5,1.7073947E5,4.4348594E5,2.6142336E4,9.762296E4,9.314564E4,3.314243E5,4.922289E4,1.04027414E5,1.8061536E5,1.5109053E5,1.4457812E5,6.07789E4,4.1989603E5,1.4181223E5,3.7095553E5,3.5443788E5,1.1083053E5,5.9908926E4,3.049668E5,1.3851911E5,1.1011756E4,1.5130579E4,2.0454697E4,7.7168266E4,5.5696824E4,3.744882E4,1.9089995E5,1.4052436E5,2.3843672E4,2.5379217E4,2.5409963E4,7.8617445E4,1.413826E5,3.9232766E4,7.473675E4,7.635378E4,5.429676E4,9.028137E4,5.0674598E4,1.0104304E4,1.7161034E5,2.4828567E5,4.0085836E4,1.017264E5,2.7885166E5,9.210389E4,1.7089914E5,1.8353875E5],"tree_param":{"num_deleted":"0","num_feature":"32","num_nodes":"63","size_leaf_vector":"0"}},{"base_weights":[7.565475E-4,-2.2070135E-1,1.06815994E-1,-2.59938E-1,-5.643102E-2,1.4606227E-1,-4.7259595E-2,-3.06781E-1,-1.7601807E-1,-1.2051315E-1,2.752183E-2,4.0743146E-2,2.171332E-1,-9.658037E-2,1.0918923E-1,-3.9082405E-1,-2.6439223E-1,-2.2545464E-1,-8.487886E-2,-1.5906101E-2,-1.8875283E-1,1.2222717E-1,-1.1666093E-1,-1.0090824E-2,1.6935173E-1,3.529567E-1,1.57173E-1,-1.9478943E-2,-2.4058074E-1,2.4272096E-1,3.2635663E-2,-3.0180022E-1,-5.060749E-1,-1.3965228E-1,-3.3090994E-1,-1.3477995E-1,-2.7896383E-1,-1.3638642E-1,9.306188E-3,-2.1341622E-1,6.3129544E-2,-3.3717862E-1,-1.4839067E-1,1.8702371E-1,2.460367E-2,-2.3555084E-1,-1.9757396E-2,8.775132E-2,-7.05404E-2,2.5369248E-1,9.88774E-2,2.0422836E-1,4.0348342E-1,9.272595E-2,2.737484E-1,1.1329583E-1,-9.374043E-2,-1.7512783E-1,-3.5429367E-1,2.8621507E-1,1.1951173E-1,-9.1824844E-2,1.9904898E-1],"categories":[],"categories_nodes":[],"categories_segments":[],"categories_sizes":[],"default_left":[1,1,1,1,1,1,1,1,1,1,1,1,1,1,1,1,1,1,1,1,1,1,1,1,1,1,1,1,1,1,1,0,0,0,0,0,0,0,0,0,0,0,0,0,0,0,0,0,0,0,0,0,0,0,0,0,0,0,0,0,0,0,0],"id":7,"left_children":[1,3,5,7,9,11,13,15,17,19,21,23,25,27,29,31,33,35,37,39,41,43,45,47,49,51,53,55,57,59,61,-1,-1,-1,-1,-1,-1,-1,-1,-1,-1,-1,-1,-1,-1,-1,-1,-1,-1,-1,-1,-1,-1,-1,-1,-1,-1,-1,-1,-1,-1,-1,-1],"loss_changes":[7.345162E4,6.5271875E3,1.2786455E4,3.2133477E3,1.0504254E3,1.2614488E4,3.312375E3,1.8688047E3,1.3193691E3,7.90423E2,1.1541477E3,4.43929E3,8.1948125E3,3.6237083E3,1.0518003E3,1.8044199E3,2.8934785E3,9.211045E2,4.9959454E2,6.824501E2,4.0141357E2,3.226941E2,3.8604166E2,2.8784243E3,1.1433438E3,2.3157344E3,5.244584E3,2.0959587E3,8.47041E2,2.0088818E2,1.3545925E3,0E0,0E0,0E0,0E0,0E0,0E0,0E0,0E0,0E0,0E0,0E0,0E0,0E0,0E0,0E0,0E0,0E0,0E0,0E0,0E0,0E0,0E0,0E0,0E0,0E0,0E0,0E0,0E0,0E0,0E0,0E0,0E0],"parents":[2147483647,0,0,1,1,2,2,3,3,4,4,5,5,6,6,7,7,8,8,9,9,10,10,11,11,12,12,13,13,14,14,15,15,16,16,17,17,18,18,19,19,20,20,21,21,22,22,23,23,24,24,25,25,26,26,27,27,28,28,29,29,30,30],"right_children":[2,4,6,8,10,12,14,16,18,20,22,24,26,28,30,32,34,36,38,40,42,44,46,48,50,52,54,56,58,60,62,-1,-1,-1,-1,-1,-1,-1,-1,-1,-1,-1,-1,-1,-1,-1,-1,-1,-1,-1,-1,-1,-1,-1,-1,-1,-1,-1,-1,-1,-1,-1,-1],"split_conditions":[1.8849999E-2,5E-1,5.2942343E0,5E-1,2.05E1,9.315E-2,1.35E1,9.5E0,2.45E-3,7.5E0,2.15E1,5E-1,2.6E0,9.5E0,1.35E1,8.5E0,1.35E1,1.05E1,3.5E0,4.5E0,8.5E0,1.95E1,2.85E1,1.15E1,1.35E1,2.5E0,5E-1,3.16E0,1.55E1,1.75E1,2.15E1,-3.3198025E-2,-5.566824E-2,-1.53617505E-2,-3.6400095E-2,-1.4825794E-2,-3.068602E-2,-1.5002507E-2,1.0236807E-3,-2.3475785E-2,6.94425E-3,-3.708965E-2,-1.6322972E-2,2.0572608E-2,2.7064038E-3,-2.5910592E-2,-2.1733134E-3,9.652645E-3,-7.759444E-3,2.7906172E-2,1.0876514E-2,2.246512E-2,4.4383176E-2,1.0199854E-2,3.0112324E-2,1.2462541E-2,-1.0311448E-2,-1.9264061E-2,-3.8972303E-2,3.1483658E-2,1.3146291E-2,-1.0100733E-2,2.1895388E-2],"split_indices":[9,11,28,19,20,9,20,20,9,21,21,11,8,21,21,21,21,21,5,20,20,23,20,21,21,5,11,8,21,23,20,0,0,0,0,0,0,0,0,0,0,0,0,0,0,0,0,0,0,0,0,0,0,0,0,0,0,0,0,0,0,0,0],"split_type":[0,0,0,0,0,0,0,0,0,0,0,0,0,0,0,0,0,0,0,0,0,0,0,0,0,0,0,0,0,0,0,0,0,0,0,0,0,0,0,0,0,0,0,0,0,0,0,0,0,0,0,0,0,0,0,0,0,0,0,0,0,0,0],"sum_hessian":[3.1272355E6,1.01268756E6,2.1145478E6,8.174384E5,1.9524919E5,1.6852735E6,4.2927434E5,5.2460706E5,2.928313E5,1.10728484E5,8.4520695E4,6.790296E5,1.0062439E6,3.2638216E5,1.02892195E5,1.7588211E5,3.4872494E5,1.8984978E5,1.0298153E5,4.371596E4,6.701253E4,5.101321E4,3.3507484E4,4.8666916E5,1.9236047E5,3.0816812E5,6.9807575E5,2.1256866E5,1.1381349E5,3.749238E4,6.5399812E4,9.923393E4,7.664819E4,1.2128449E5,2.2744045E5,7.0457914E4,1.1939187E5,6.657357E4,3.6407953E4,1.2493356E4,3.1222604E4,1.4325456E4,5.268707E4,3.0661234E4,2.0351977E4,1.5046124E4,1.846136E4,1.8585252E5,3.0081662E5,8.7564414E4,1.04796055E5,7.814594E4,2.3002217E5,4.495502E5,2.4852556E5,7.624571E4,1.3632295E5,7.2236734E4,4.1576758E4,2.7709367E4,9.783013E3,3.741648E4,2.7983332E4],"tree_param":{"num_deleted":"0","num_feature":"32","num_nodes":"63","size_leaf_vector":"0"}},{"base_weights":[1.5426783E-3,-1.8280137E-1,1.1623179E-1,-2.2310582E-1,-2.716674E-2,1.7278446E-1,2.5852788E-3,-2.7352503E-1,-1.17532596E-1,-9.3135305E-2,5.71441E-2,-4.9423203E-2,2.0524886E-1,4.6553764E-2,-1.6159765E-1,-3.2113856E-1,-1.9127128E-1,-1.595218E-1,-2.7873836E-2,-4.6087608E-2,-1.9790457E-1,1.23318896E-1,-1.2687731E-1,-9.817323E-2,1.1149099E-1,1.15994096E-1,2.7297544E-1,1.2180146E-1,-2.1139447E-2,8.29704E-2,-1.9101757E-1,-4.5723343E-1,-2.959138E-1,-1.3770014E-1,-2.6356697E-1,-2.634807E-1,-1.1553313E-1,2.2576582E-2,-1.00950204E-1,3.289074E-2,-1.426176E-1,-2.6644865E-1,-8.8332035E-2,5.5881925E-2,2.4125251E-1,-2.4134274E-1,-2.6373431E-2,-1.4472906E-1,2.9887166E-2,1.7560387E-1,-3.3514556E-2,2.1348141E-1,5.087565E-2,4.3123314E-1,2.3156866E-1,6.1993644E-2,2.4459638E-1,-1.4283143E-1,1.0746942E-1,-8.4049925E-2,2.7621096E-1,-2.8452536E-1,-7.8692906E-2],"categories":[],"categories_nodes":[],"categories_segments":[],"categories_sizes":[],"default_left":[1,1,1,1,1,1,1,1,1,1,1,1,1,1,1,1,1,1,1,1,1,1,1,1,1,1,1,1,1,1,1,0,0,0,0,0,0,0,0,0,0,0,0,0,0,0,0,0,0,0,0,0,0,0,0,0,0,0,0,0,0,0,0],"id":8,"left_children":[1,3,5,7,9,11,13,15,17,19,21,23,25,27,29,31,33,35,37,39,41,43,45,47,49,51,53,55,57,59,61,-1,-1,-1,-1,-1,-1,-1,-1,-1,-1,-1,-1,-1,-1,-1,-1,-1,-1,-1,-1,-1,-1,-1,-1,-1,-1,-1,-1,-1,-1,-1,-1],"loss_changes":[6.59066E4,7.499617E3,1.2350846E4,5.0548984E3,1.3678441E3,9.256629E3,4.609502E3,2.5170469E3,1.1555513E3,6.800895E2,1.3146819E3,1.2831785E3,6.767879E3,2.565499E3,9.704983E2,1.3973203E3,9.125918E2,9.559331E2,3.609391E2,7.259258E2,3.2111035E2,6.314971E2,3.2849036E2,7.484752E2,3.5359586E2,3.0663882E3,4.1713086E3,1.7516873E3,4.1495947E3,4.6748373E2,1.2645356E3,0E0,0E0,0E0,0E0,0E0,0E0,0E0,0E0,0E0,0E0,0E0,0E0,0E0,0E0,0E0,0E0,0E0,0E0,0E0,0E0,0E0,0E0,0E0,0E0,0E0,0E0,0E0,0E0,0E0,0E0,0E0,0E0],"parents":[2147483647,0,0,1,1,2,2,3,3,4,4,5,5,6,6,7,7,8,8,9,9,10,10,11,11,12,12,13,13,14,14,15,15,16,16,17,17,18,18,19,19,20,20,21,21,22,22,23,23,24,24,25,25,26,26,27,27,28,28,29,29,30,30],"right_children":[2,4,6,8,10,12,14,16,18,20,22,24,26,28,30,32,34,36,38,40,42,44,46,48,50,52,54,56,58,60,62,-1,-1,-1,-1,-1,-1,-1,-1,-1,-1,-1,-1,-1,-1,-1,-1,-1,-1,-1,-1,-1,-1,-1,-1,-1,-1,-1,-1,-1,-1,-1,-1],"split_conditions":[3.035E-2,5E-1,5.0690613E0,7.75E-3,2.05E1,3.25E0,5.6944895E0,5E-1,5E-1,1.35E1,2.45E1,5E-1,1.1555E-1,9.5E0,2.44E0,4.5E0,1.55E1,9.5E0,1.55E1,4.9953523E0,1.145E-2,2.75E1,2.95E1,2.2835001E-1,2.45E1,1.15E1,2.1399999E0,8.5E0,1.45E1,1.00549996E-1,5.5E0,-5.0295677E-2,-3.2550517E-2,-1.5147015E-2,-2.8992366E-2,-2.8982876E-2,-1.2708644E-2,2.483424E-3,-1.1104522E-2,3.6179814E-3,-1.5687935E-2,-2.9309351E-2,-9.716524E-3,6.1470116E-3,2.6537776E-2,-2.65477E-2,-2.9010775E-3,-1.5920198E-2,3.2875882E-3,1.9316426E-2,-3.686601E-3,2.3482956E-2,5.5963215E-3,4.7435645E-2,2.5472553E-2,6.819301E-3,2.6905602E-2,-1.5711457E-2,1.1821636E-2,-9.245492E-3,3.0383205E-2,-3.129779E-2,-8.65622E-3],"split_indices":[9,11,28,9,20,6,28,19,19,21,21,11,9,21,8,20,21,20,21,28,9,20,20,9,21,21,8,20,20,9,20,0,0,0,0,0,0,0,0,0,0,0,0,0,0,0,0,0,0,0,0,0,0,0,0,0,0,0,0,0,0,0,0],"split_type":[0,0,0,0,0,0,0,0,0,0,0,0,0,0,0,0,0,0,0,0,0,0,0,0,0,0,0,0,0,0,0,0,0,0,0,0,0,0,0,0,0,0,0,0,0,0,0,0,0,0,0,0,0,0,0,0,0,0,0,0,0,0,0],"sum_hessian":[3.117291E6,1.1955841E6,1.921707E6,9.4965344E5,2.4593067E5,1.2831744E6,6.385326E5,6.4270944E5,3.06944E5,1.3797375E5,1.0795693E5,1.6357295E5,1.1196015E6,5.036539E5,1.348787E5,4.0706953E5,2.3563992E5,2.0904345E5,9.790052E4,9.521702E4,4.2756727E4,7.940347E4,2.8553459E4,1.25540125E5,3.803283E4,4.830317E5,6.3656975E5,2.3851742E5,2.651365E5,1.4482628E4,1.2039607E5,6.364883E4,3.434207E5,1.3534912E5,1.002908E5,6.21526E4,1.4689086E5,5.791671E4,3.9983812E4,5.236994E4,4.284708E4,2.6301904E4,1.6454822E4,5.0517785E4,2.8885682E4,1.3348848E4,1.5204612E4,9.206877E4,3.347135E4,2.637233E4,1.1660497E4,1.9343794E5,2.8959375E5,1.3201105E5,5.0455872E5,1.6039689E5,7.812052E4,1.3623161E5,1.28904875E5,7.768649E3,6.7139795E3,6.570041E4,5.4695664E4],"tree_param":{"num_deleted":"0","num_feature":"32","num_nodes":"63","size_leaf_vector":"0"}},{"base_weights":[5.061565E-4,-1.577086E-1,1.24535196E-1,-2.2579823E-1,-4.7417883E-2,2.4425846E-1,7.025328E-2,-2.7374712E-1,-1.3925765E-1,-8.969053E-2,6.681197E-2,1.77017E-1,3.9400044E-1,-6.948429E-2,1.3208146E-1,-1.8933798E-1,-3.6314455E-1,-2.8127417E-1,-4.65418E-2,-1.7825595E-1,-5.4859053E-2,-1.5030647E-2,1.416075E-1,1.297168E-1,3.5324043E-1,3.1989014E-1,5.096102E-1,2.2014681E-2,-2.1981151E-1,2.8342816E-1,6.760124E-2,-2.6485315E-1,-7.776529E-2,-3.1329527E-1,-4.5251194E-1,-9.7481824E-2,-3.2200038E-1,-9.9843584E-2,9.111504E-2,-4.257502E-2,-2.3928247E-1,3.1082463E-2,-1.2955606E-1,2.223569E-2,-1.873429E-1,2.1064004E-1,1.9825622E-2,-2.0619713E-2,1.7765325E-1,2.88115E-1,4.158081E-1,1.9501157E-1,3.7021765E-1,5.6210005E-1,4.2952135E-1,-1.7860083E-1,8.376879E-2,-1.3773692E-1,-2.9621604E-1,2.1931076E-1,3.9963368E-1,-4.5304205E-2,1.3829382E-1],"categories":[],"categories_nodes":[],"categories_segments":[],"categories_sizes":[],"default_left":[1,1,1,1,1,1,1,1,1,1,1,1,1,1,1,1,1,1,1,1,1,1,1,1,1,1,1,1,1,1,1,0,0,0,0,0,0,0,0,0,0,0,0,0,0,0,0,0,0,0,0,0,0,0,0,0,0,0,0,0,0,0,0],"id":9,"left_children":[1,3,5,7,9,11,13,15,17,19,21,23,25,27,29,31,33,35,37,39,41,43,45,47,49,51,53,55,57,59,61,-1,-1,-1,-1,-1,-1,-1,-1,-1,-1,-1,-1,-1,-1,-1,-1,-1,-1,-1,-1,-1,-1,-1,-1,-1,-1,-1,-1,-1,-1,-1,-1],"loss_changes":[6.088326E4,1.0238727E4,1.1302725E4,3.4979336E3,2.5130527E3,5.462834E3,1.0338729E4,4.0931367E3,3.9573364E3,1.1717981E3,8.605134E2,3.120916E3,1.4403711E3,5.048842E3,8.0958438E3,2.350713E3,1.1734219E3,8.88542E2,1.3342057E3,8.878074E2,1.7502089E3,4.3104486E2,6.1747253E2,2.1273325E3,3.2272852E2,6.4385645E2,2.7585156E2,2.8268726E3,8.708799E2,1.8465723E3,4.643241E3,0E0,0E0,0E0,0E0,0E0,0E0,0E0,0E0,0E0,0E0,0E0,0E0,0E0,0E0,0E0,0E0,0E0,0E0,0E0,0E0,0E0,0E0,0E0,0E0,0E0,0E0,0E0,0E0,0E0,0E0,0E0,0E0],"parents":[2147483647,0,0,1,1,2,2,3,3,4,4,5,5,6,6,7,7,8,8,9,9,10,10,11,11,12,12,13,13,14,14,15,15,16,16,17,17,18,18,19,19,20,20,21,21,22,22,23,23,24,24,25,25,26,26,27,27,28,28,29,29,30,30],"right_children":[2,4,6,8,10,12,14,16,18,20,22,24,26,28,30,32,34,36,38,40,42,44,46,48,50,52,54,56,58,60,62,-1,-1,-1,-1,-1,-1,-1,-1,-1,-1,-1,-1,-1,-1,-1,-1,-1,-1,-1,-1,-1,-1,-1,-1,-1,-1,-1,-1,-1,-1,-1,-1],"split_conditions":[4.435E-2,1.085E-2,2.6750002E0,1.95E1,5E-1,2.0445001E-1,9.5E0,1.05E1,2.5E0,8.5E0,1.85E1,5E-1,1.45E1,8.5E0,1.15E1,8.5E0,1.75E1,1.55E1,2.75E1,4.5E0,1.55E1,1.85E1,2.15E1,2.5E0,9.285E-2,2.5E0,1.7E0,2.5E0,9.5E0,1.75E1,1.95E1,-2.9133847E-2,-8.554182E-3,-3.446248E-2,-4.9776312E-2,-1.0723E-2,-3.542004E-2,-1.0982794E-2,1.0022654E-2,-4.6832524E-3,-2.6321072E-2,3.419071E-3,-1.4251167E-2,2.445926E-3,-2.060772E-2,2.3170404E-2,2.1808185E-3,-2.2681684E-3,1.9541858E-2,3.169265E-2,4.573889E-2,2.1451272E-2,4.0723942E-2,6.1831005E-2,4.724735E-2,-1.9646091E-2,9.214567E-3,-1.5151061E-2,-3.2583766E-2,2.4124183E-2,4.3959703E-2,-4.9834624E-3,1.521232E-2],"split_indices":[9,9,8,20,11,9,20,21,5,20,20,11,22,21,21,20,21,23,20,21,21,23,21,5,9,5,8,20,23,20,20,0,0,0,0,0,0,0,0,0,0,0,0,0,0,0,0,0,0,0,0,0,0,0,0,0,0,0,0,0,0,0,0],"split_type":[0,0,0,0,0,0,0,0,0,0,0,0,0,0,0,0,0,0,0,0,0,0,0,0,0,0,0,0,0,0,0,0,0,0,0,0,0,0,0,0,0,0,0,0,0,0,0,0,0,0,0,0,0,0,0,0,0,0,0,0,0,0,0],"sum_hessian":[3.1026105E6,1.3634091E6,1.7392014E6,8.4298106E5,5.2042812E5,5.425527E5,1.1966486E6,5.424357E5,3.0054538E5,3.7985625E5,1.4057186E5,3.7442134E5,1.6813134E5,3.6705938E5,8.295893E5,2.790035E5,2.634322E5,1.1871023E5,1.8183514E5,1.0722158E5,2.726347E5,6.712417E4,7.344768E4,2.951908E5,7.923055E4,1.0245653E5,6.567481E4,2.2817688E5,1.3888252E5,2.4784622E5,5.8174306E5,1.6638717E5,1.12616336E5,1.69108E5,9.432417E4,2.1533883E4,9.717634E4,1.3108017E5,5.0754977E4,3.3264953E4,7.3956625E4,1.26775555E5,1.4585912E5,5.5189168E4,1.1935007E4,4.687543E4,2.6572254E4,7.136843E4,2.2382238E5,3.8824508E4,4.040604E4,2.943178E4,7.302475E4,3.9669535E4,2.600528E4,5.3705695E4,1.7447117E5,6.695814E4,7.1924375E4,1.5972144E5,8.812478E4,2.2399447E5,3.577486E5],"tree_param":{"num_deleted":"0","num_feature":"32","num_nodes":"63","size_leaf_vector":"0"}},{"base_weights":[-4.6353164E-4,-1.9309574E-1,9.410742E-2,-2.2718044E-1,-5.2469026E-2,4.698744E-2,2.058296E-1,-2.702565E-1,-1.5048769E-1,-1.5637815E-1,-1.1111842E-2,1.19139664E-1,-2.0679954E-2,2.6135632E-1,8.293235E-2,-3.5137048E-1,-2.3005103E-1,-1.9574364E-1,-6.7768775E-2,-2.2014447E-1,-4.708094E-2,1.4060485E-1,-5.8668263E-2,3.7100643E-2,2.813357E-1,-1.1916522E-1,4.994571E-2,3.1302026E-1,1.4199987E-1,1.2083769E-1,-8.6102255E-2,-2.7234042E-1,-4.5393935E-1,-3.5336724E-1,-1.6992912E-1,-9.298998E-2,-2.2946526E-1,-5.489494E-3,-1.3509305E-1,-9.452943E-2,-3.2043797E-1,-6.634041E-2,3.2256204E-1,2.6536167E-1,8.064627E-2,-9.686248E-2,7.970657E-2,-9.076103E-2,7.823453E-2,4.3163717E-1,2.1989942E-1,-1.7991925E-2,-2.1731326E-1,1.4279753E-1,-7.719296E-2,1.979119E-1,3.563202E-1,8.792288E-2,2.6575127E-1,2.2912566E-1,7.8048564E-2,2.7949227E-2,-1.6843212E-1],"categories":[],"categories_nodes":[],"categories_segments":[],"categories_sizes":[],"default_left":[1,1,1,1,1,1,1,1,1,1,1,1,1,1,1,1,1,1,1,1,1,1,1,1,1,1,1,1,1,1,1,0,0,0,0,0,0,0,0,0,0,0,0,0,0,0,0,0,0,0,0,0,0,0,0,0,0,0,0,0,0,0,0],"id":10,"left_children":[1,3,5,7,9,11,13,15,17,19,21,23,25,27,29,31,33,35,37,39,41,43,45,47,49,51,53,55,57,59,61,-1,-1,-1,-1,-1,-1,-1,-1,-1,-1,-1,-1,-1,-1,-1,-1,-1,-1,-1,-1,-1,-1,-1,-1,-1,-1,-1,-1,-1,-1,-1,-1],"loss_changes":[5.6218145E4,4.870625E3,1.0896166E4,2.7020195E3,8.519284E2,7.1077627E3,4.1899688E3,1.7079492E3,1.1012241E3,3.933452E2,1.0231457E3,9.375086E3,5.2254053E3,2.6078516E3,1.2243356E3,1.4068047E3,2.596129E3,6.5882666E2,4.3618652E2,4.4902454E2,1.4807672E2,2.5312476E2,5.706102E2,2.460876E3,2.1852266E3,3.1154727E3,5.1648174E3,1.4710488E3,8.549756E2,7.231963E2,3.2866135E2,0E0,0E0,0E0,0E0,0E0,0E0,0E0,0E0,0E0,0E0,0E0,0E0,0E0,0E0,0E0,0E0,0E0,0E0,0E0,0E0,0E0,0E0,0E0,0E0,0E0,0E0,0E0,0E0,0E0,0E0,0E0,0E0],"parents":[2147483647,0,0,1,1,2,2,3,3,4,4,5,5,6,6,7,7,8,8,9,9,10,10,11,11,12,12,13,13,14,14,15,15,16,16,17,17,18,18,19,19,20,20,21,21,22,22,23,23,24,24,25,25,26,26,27,27,28,28,29,29,30,30],"right_children":[2,4,6,8,10,12,14,16,18,20,22,24,26,28,30,32,34,36,38,40,42,44,46,48,50,52,54,56,58,60,62,-1,-1,-1,-1,-1,-1,-1,-1,-1,-1,-1,-1,-1,-1,-1,-1,-1,-1,-1,-1,-1,-1,-1,-1,-1,-1,-1,-1,-1,-1,-1,-1],"split_conditions":[1.9949999E-2,5E-1,5E-1,5E-1,1.15E1,2.97E0,5.079135E0,9.5E0,2.6500002E-3,5E-1,1.05E1,1.4965001E-1,1.15E1,1.85E1,5.6895657E0,8.5E0,2.5E0,7.5E0,1.45E1,4.9398193E0,1.955E2,5.5E0,2.95E1,2.5E0,1.7E0,7.5E0,1.85E1,7.225E-2,2.95E1,3.45E0,4.12E0,-2.9957445E-2,-4.993333E-2,-3.8870398E-2,-1.8692203E-2,-1.0228897E-2,-2.524118E-2,-6.0384435E-4,-1.4860235E-2,-1.0398237E-2,-3.5248175E-2,-7.297445E-3,3.5481825E-2,2.9189784E-2,8.87109E-3,-1.0654872E-2,8.767723E-3,-9.983713E-3,8.605799E-3,4.7480088E-2,2.4188936E-2,-1.9791117E-3,-2.3904458E-2,1.5707728E-2,-8.491226E-3,2.177031E-2,3.919522E-2,9.671517E-3,2.923264E-2,2.5203822E-2,8.585342E-3,3.074415E-3,-1.8527532E-2],"split_indices":[9,11,11,19,20,8,28,20,9,19,21,9,20,21,28,21,5,21,21,28,14,21,20,5,8,21,21,9,20,8,8,0,0,0,0,0,0,0,0,0,0,0,0,0,0,0,0,0,0,0,0,0,0,0,0,0,0,0,0,0,0,0,0],"split_type":[0,0,0,0,0,0,0,0,0,0,0,0,0,0,0,0,0,0,0,0,0,0,0,0,0,0,0,0,0,0,0,0,0,0,0,0,0,0,0,0,0,0,0,0,0,0,0,0,0,0,0,0,0,0,0,0,0,0,0,0,0,0,0],"sum_hessian":[3.085955E6,1.0161504E6,2.0698046E6,8.179077E5,1.9824269E5,1.4558052E6,6.139994E5,5.237373E5,2.941704E5,5.6438723E4,1.4180397E5,7.045542E5,7.5125106E5,4.2291794E5,1.9108144E5,1.7356483E5,3.5017247E5,1.9014161E5,1.0402879E5,3.5642887E4,2.0795834E4,3.3840973E4,1.0796299E5,4.678939E5,2.3666028E5,3.137441E5,4.3750697E5,2.951566E5,1.2776134E5,1.5608116E5,3.500029E4,9.8033195E4,7.553163E4,1.14767555E5,2.354049E5,4.6982957E4,1.4315864E5,5.403969E4,4.99891E4,1.5824745E4,1.981814E4,1.976675E4,1.0290844E3,1.0983661E4,2.2857312E4,8.460941E4,2.3353586E4,1.1388611E5,3.5400778E5,6.8665875E4,1.679944E5,1.5449167E5,1.5925244E5,2.5284745E5,1.846595E5,8.06808E4,2.144758E5,8.891076E4,3.885059E4,4.4205176E4,1.1187598E5,1.467361E4,2.0326678E4],"tree_param":{"num_deleted":"0","num_feature":"32","num_nodes":"63","size_leaf_vector":"0"}},{"base_weights":[-7.3199294E-4,-1.7273201E-1,9.4425224E-2,-2.0678625E-1,-3.817163E-2,1.2109573E-1,-9.400814E-2,-2.5781277E-1,-1.2941234E-1,-1.5539011E-2,-1.9718349E-1,1.6323107E-1,7.6584686E-3,-1.7828493E-1,-1.5557384E-2,-1.6672668E-1,-2.9567525E-1,-1.638202E-1,-3.1027123E-2,1.3329792E-1,-4.1292466E-2,-3.0556694E-1,-1.10001154E-1,1.054626E-1,2.7315623E-1,-7.4943036E-2,1.1100191E-1,6.075376E-2,-2.3235242E-1,9.880231E-2,-8.540207E-2,-9.3464874E-2,-3.139162E-1,-4.024836E-1,-2.2939296E-1,-1.1418259E-1,-2.6619017E-1,7.563114E-2,-1.6343018E-1,4.276852E-2,2.7102664E-1,-1.1483307E-1,1.1326595E-2,-4.118023E-1,-1.8047956E-1,1.0967946E-1,-1.6398701E-1,1.683648E-1,7.7125686E-3,3.8346553E-1,2.2335987E-1,-2.669946E-2,-2.1370815E-1,2.5330594E-2,1.9651179E-1,-8.783654E-2,2.3304266E-1,-1.722824E-1,-3.8929307E-1,2.0644036E-1,5.3677604E-2,-1.498553E-1,1.3675663E-1],"categories":[],"categories_nodes":[],"categories_segments":[],"categories_sizes":[],"default_left":[1,1,1,1,1,1,1,1,1,1,1,1,1,1,1,1,1,1,1,1,1,1,1,1,1,1,1,1,1,1,1,0,0,0,0,0,0,0,0,0,0,0,0,0,0,0,0,0,0,0,0,0,0,0,0,0,0,0,0,0,0,0,0],"id":11,"left_children":[1,3,5,7,9,11,13,15,17,19,21,23,25,27,29,31,33,35,37,39,41,43,45,47,49,51,53,55,57,59,61,-1,-1,-1,-1,-1,-1,-1,-1,-1,-1,-1,-1,-1,-1,-1,-1,-1,-1,-1,-1,-1,-1,-1,-1,-1,-1,-1,-1,-1,-1,-1,-1],"loss_changes":[5.0260773E4,5.012119E3,9.935967E3,3.446211E3,7.950139E2,8.278131E3,1.6207234E3,1.8139766E3,1.1742842E3,7.412611E2,2.600509E2,8.0193516E3,4.0042053E3,1.5273857E3,1.01406366E3,1.665439E3,2.630295E3,1.305915E3,1.2693243E3,3.5566452E2,6.379481E2,1.6297607E2,1.8094762E2,5.0899873E3,2.3895742E3,1.7452693E3,1.526509E3,5.581244E2,9.0854346E2,2.3380429E2,1.1286182E3,0E0,0E0,0E0,0E0,0E0,0E0,0E0,0E0,0E0,0E0,0E0,0E0,0E0,0E0,0E0,0E0,0E0,0E0,0E0,0E0,0E0,0E0,0E0,0E0,0E0,0E0,0E0,0E0,0E0,0E0,0E0,0E0],"parents":[2147483647,0,0,1,1,2,2,3,3,4,4,5,5,6,6,7,7,8,8,9,9,10,10,11,11,12,12,13,13,14,14,15,15,16,16,17,17,18,18,19,19,20,20,21,21,22,22,23,23,24,24,25,25,26,26,27,27,28,28,29,29,30,30],"right_children":[2,4,6,8,10,12,14,16,18,20,22,24,26,28,30,32,34,36,38,40,42,44,46,48,50,52,54,56,58,60,62,-1,-1,-1,-1,-1,-1,-1,-1,-1,-1,-1,-1,-1,-1,-1,-1,-1,-1,-1,-1,-1,-1,-1,-1,-1,-1,-1,-1,-1,-1,-1,-1],"split_conditions":[2.4950001E-2,5E-1,5.5053926E0,2.95E-3,5.3882265E0,1.85E1,5.5E0,8.5E0,2.35E1,5.5E0,4.35E-3,1.65E1,2.55E1,2.52E0,9.5E0,5.130047E0,1.45E1,1.55E1,2.35E1,1.15E1,1.95E1,5E-1,1.87E0,9.5E0,1.05E1,2.25E1,2.5E0,1.022E-1,8.5E0,3.315E0,1.95E1,-1.0281136E-2,-3.453078E-2,-4.4273198E-2,-2.5233226E-2,-1.2560085E-2,-2.928092E-2,8.319425E-3,-1.797732E-2,4.7045373E-3,2.981293E-2,-1.2631638E-2,1.2459254E-3,-4.5298252E-2,-1.9852752E-2,1.2064741E-2,-1.803857E-2,1.8520128E-2,8.4838254E-4,4.218121E-2,2.4569586E-2,-2.9369404E-3,-2.3507897E-2,2.7863653E-3,2.1616297E-2,-9.662019E-3,2.5634693E-2,-1.8951064E-2,-4.2822238E-2,2.270844E-2,5.904536E-3,-1.6484084E-2,1.5043229E-2],"split_indices":[9,11,28,9,28,21,20,21,20,21,9,20,20,8,21,28,20,21,21,20,20,19,8,21,21,23,5,9,21,8,20,0,0,0,0,0,0,0,0,0,0,0,0,0,0,0,0,0,0,0,0,0,0,0,0,0,0,0,0,0,0,0,0],"split_type":[0,0,0,0,0,0,0,0,0,0,0,0,0,0,0,0,0,0,0,0,0,0,0,0,0,0,0,0,0,0,0,0,0,0,0,0,0,0,0,0,0,0,0,0,0,0,0,0,0,0,0,0,0,0,0,0,0,0,0,0,0,0,0],"sum_hessian":[3.0708502E6,1.0937884E6,1.9770619E6,8.728811E5,2.209073E5,1.7319284E6,2.4513358E5,5.2599544E5,3.468857E5,1.9338356E5,2.7523744E4,1.2628519E6,4.6907644E5,1.18178E5,1.2695558E5,1.5444683E5,3.7154862E5,2.5700405E5,8.988164E4,2.852498E4,1.6485858E5,1.2268845E4,1.52549E4,8.278155E5,4.3503634E5,2.6070083E5,2.0837562E5,2.1799545E4,9.637845E4,4.8137527E4,7.8818055E4,1.0312115E5,5.132568E4,1.4227662E5,2.2927198E5,1.730816E5,8.392247E4,4.9780785E4,4.0100855E4,1.7212484E4,1.1312495E4,6.875923E4,9.609935E4,6.6331177E3,5.635727E3,3.0091128E3,1.2245788E4,5.0369003E5,3.241255E5,1.353037E5,2.9973266E5,1.9344739E5,6.725343E4,1.040902E5,1.04285414E5,1.170504E4,1.0094504E4,6.9701766E4,2.667669E4,1.4218327E4,3.3919203E4,6.109372E4,1.7724334E4],"tree_param":{"num_deleted":"0","num_feature":"32","num_nodes":"63","size_leaf_vector":"0"}},{"base_weights":[7.8765047E-4,-1.3724877E-1,1.12860814E-1,-1.9934464E-1,-3.8882967E-2,2.1960711E-1,6.13876E-2,-2.275613E-1,-7.351345E-2,-1.2589292E-1,2.437828E-3,1.6361639E-1,3.5830536E-1,-3.6817916E-2,1.3065879E-1,-2.6869285E-1,-1.5652284E-1,-1.6122119E-1,-2.604531E-2,-5.739263E-2,-2.1085054E-1,1.0415201E-1,-4.9412858E-2,1.2088372E-1,3.2349086E-1,2.891452E-1,4.674657E-1,3.0106107E-2,-2.0641889E-1,2.1107078E-1,1.2387867E-2,-4.213012E-1,-2.4882711E-1,-1.866795E-1,-5.344962E-2,-9.5003575E-2,-2.56846E-1,5.8438435E-2,-1.2427852E-1,-1.831714E-2,-2.1034218E-1,-1.8243068E-1,-3.263826E-1,7.642237E-2,3.1360403E-1,-1.2947823E-1,1.4836679E-2,7.3622316E-2,2.4554974E-1,1.4678146E-1,3.4261453E-1,1.746496E-1,3.4939313E-1,5.007961E-1,3.8096535E-1,-1.389722E-1,9.057138E-2,-3.3331117E-1,-1.657206E-1,1.6338708E-1,3.508216E-1,-6.1027512E-2,1.5136993E-1],"categories":[],"categories_nodes":[],"categories_segments":[],"categories_sizes":[],"default_left":[1,1,1,1,1,1,1,1,1,1,1,1,1,1,1,1,1,1,1,1,1,1,1,1,1,1,1,1,1,1,1,0,0,0,0,0,0,0,0,0,0,0,0,0,0,0,0,0,0,0,0,0,0,0,0,0,0,0,0,0,0,0,0],"id":12,"left_children":[1,3,5,7,9,11,13,15,17,19,21,23,25,27,29,31,33,35,37,39,41,43,45,47,49,51,53,55,57,59,61,-1,-1,-1,-1,-1,-1,-1,-1,-1,-1,-1,-1,-1,-1,-1,-1,-1,-1,-1,-1,-1,-1,-1,-1,-1,-1,-1,-1,-1,-1,-1,-1],"loss_changes":[4.7382355E4,8.38299E3,9.287914E3,2.9871484E3,1.9095134E3,4.270578E3,7.758303E3,2.0079727E3,6.415887E2,9.9520483E2,1.8991602E3,2.6765176E3,1.1938496E3,5.354116E3,6.3600156E3,1.3193535E3,7.83292E2,3.4263684E2,8.29848E2,5.658379E2,2.5057935E2,7.0615845E2,1.2269607E3,1.8214375E3,2.7918555E2,6.6779736E2,1.7664941E2,3.457999E3,6.892217E2,2.6527246E3,2.7616514E3,0E0,0E0,0E0,0E0,0E0,0E0,0E0,0E0,0E0,0E0,0E0,0E0,0E0,0E0,0E0,0E0,0E0,0E0,0E0,0E0,0E0,0E0,0E0,0E0,0E0,0E0,0E0,0E0,0E0,0E0,0E0,0E0],"parents":[2147483647,0,0,1,1,2,2,3,3,4,4,5,5,6,6,7,7,8,8,9,9,10,10,11,11,12,12,13,13,14,14,15,15,16,16,17,17,18,18,19,19,20,20,21,21,22,22,23,23,24,24,25,25,26,26,27,27,28,28,29,29,30,30],"right_children":[2,4,6,8,10,12,14,16,18,20,22,24,26,28,30,32,34,36,38,40,42,44,46,48,50,52,54,56,58,60,62,-1,-1,-1,-1,-1,-1,-1,-1,-1,-1,-1,-1,-1,-1,-1,-1,-1,-1,-1,-1,-1,-1,-1,-1,-1,-1,-1,-1,-1,-1,-1,-1],"split_conditions":[4.6949998E-2,1.145E-2,2.74E0,5E-1,1.05E1,2.1724999E-1,1.25E1,5E-1,1.35E1,8.5E0,1.35E1,5E-1,1.45E1,1.15E1,1.85E1,3.5E0,2.35E1,8.5E0,1.75E1,5.652507E0,1.75E1,2.55E1,2.25E1,3.5E0,3.25E0,6.5E0,2.0149999E0,3.5E0,5.5E0,2.35E1,2.75E1,-4.634313E-2,-2.7370982E-2,-2.0534744E-2,-5.879458E-3,-1.0450393E-2,-2.8253062E-2,6.4282278E-3,-1.3670637E-2,-2.0148854E-3,-2.313764E-2,-2.0067375E-2,-3.5902087E-2,8.406461E-3,3.449644E-2,-1.4242605E-2,1.6320347E-3,8.098455E-3,2.701047E-2,1.6145961E-2,3.76876E-2,1.9211456E-2,3.8433243E-2,5.508757E-2,4.190619E-2,-1.5286941E-2,9.962852E-3,-3.666423E-2,-1.8229265E-2,1.7972577E-2,3.859038E-2,-6.713026E-3,1.6650692E-2],"split_indices":[9,9,8,11,20,9,20,19,20,21,21,11,22,21,21,20,20,21,21,28,21,20,20,5,6,20,8,20,20,20,20,0,0,0,0,0,0,0,0,0,0,0,0,0,0,0,0,0,0,0,0,0,0,0,0,0,0,0,0,0,0,0,0],"split_type":[0,0,0,0,0,0,0,0,0,0,0,0,0,0,0,0,0,0,0,0,0,0,0,0,0,0,0,0,0,0,0,0,0,0,0,0,0,0,0,0,0,0,0,0,0,0,0,0,0,0,0,0,0,0,0,0,0,0,0,0,0,0,0],"sum_hessian":[3.062817E6,1.3724366E6,1.6903804E6,8.4132694E5,5.311096E5,5.499267E5,1.1404536E6,6.87222E5,1.5410494E5,1.710096E5,3.6010006E5,3.917745E5,1.581522E5,4.7171103E5,6.687426E5,4.352232E5,2.5199883E5,5.411439E4,9.999054E4,9.467553E4,7.633406E4,1.2158629E5,2.3851377E5,3.091452E5,8.262932E4,9.681639E4,6.1335812E4,3.3824244E5,1.334686E5,3.9808512E5,2.7065747E5,5.012713E4,3.8509606E5,1.9495812E5,5.704069E4,3.197474E4,2.213965E4,5.3757637E4,4.6232902E4,7.541074E4,1.9264787E4,6.1265805E4,1.5068256E4,1.0737247E5,1.4213821E4,1.0618677E5,1.32327E5,2.2416492E5,8.498025E4,8.0698354E3,7.455949E4,3.3381613E4,6.3434773E4,4.4272082E4,1.7063732E4,8.909787E4,2.4914456E5,3.2410244E4,1.0105836E5,2.9681312E5,1.01271984E5,1.7710483E5,9.355265E4],"tree_param":{"num_deleted":"0","num_feature":"32","num_nodes":"63","size_leaf_vector":"0"}},{"base_weights":[-1.0304222E-4,-1.3457516E-1,1.067984E-1,-2.0985667E-1,-5.9187703E-2,1.6589817E-1,2.1975262E-2,-3.0718756E-1,-1.7585146E-1,-9.363178E-2,3.6216665E-2,1.3335345E-2,2.1032085E-1,5.303406E-2,-1.3277619E-1,-2.5703618E-1,-3.7074462E-1,-2.1201822E-1,8.429612E-3,-1.21211186E-1,-2.025004E-2,-3.784042E-2,8.841302E-2,7.592963E-2,-1.094546E-1,1.6915825E-1,2.8771922E-1,3.422602E-2,2.601032E-1,3.2549355E-2,-1.7653926E-1,-2.93154E-1,-1.4989685E-1,-4.3804184E-1,-2.129383E-1,-1.8437555E-1,-3.36349E-1,-2.0616109E-2,1.9270088E-1,-1.0199803E-1,-2.5916663E-1,1.317013E-1,-8.3433665E-2,-1.7155277E-2,-2.916918E-1,1.5101534E-1,7.302659E-3,-6.761299E-3,1.9576438E-1,-1.517634E-1,2.0287191E-2,2.4337865E-1,1.08956635E-1,3.6681947E-1,2.2284187E-1,1.3561293E-1,-1.8385082E-2,1.9775648E-1,4.3256038E-1,-5.5536743E-2,1.9721554E-1,-2.0317431E-1,1.1029723E-1],"categories":[],"categories_nodes":[],"categories_segments":[],"categories_sizes":[],"default_left":[1,1,1,1,1,1,1,1,1,1,1,1,1,1,1,1,1,1,1,1,1,1,1,1,1,1,1,1,1,1,1,0,0,0,0,0,0,0,0,0,0,0,0,0,0,0,0,0,0,0,0,0,0,0,0,0,0,0,0,0,0,0,0],"id":13,"left_children":[1,3,5,7,9,11,13,15,17,19,21,23,25,27,29,31,33,35,37,39,41,43,45,47,49,51,53,55,57,59,61,-1,-1,-1,-1,-1,-1,-1,-1,-1,-1,-1,-1,-1,-1,-1,-1,-1,-1,-1,-1,-1,-1,-1,-1,-1,-1,-1,-1,-1,-1,-1,-1],"loss_changes":[4.377217E4,7.653551E3,8.504029E3,2.233246E3,2.2142422E3,6.775828E3,3.348125E3,5.5677734E2,3.3328096E3,1.00194824E3,6.909238E2,1.7329309E3,2.4668867E3,2.2594575E3,8.4245776E2,3.778457E2,8.1819824E2,1.4365957E3,4.3910907E2,9.537456E2,1.298436E3,3.8802057E2,5.3236774E2,1.4798389E3,4.1788776E2,2.2586152E3,1.3795176E3,2.836943E3,5.193259E2,3.535209E2,7.034114E2,0E0,0E0,0E0,0E0,0E0,0E0,0E0,0E0,0E0,0E0,0E0,0E0,0E0,0E0,0E0,0E0,0E0,0E0,0E0,0E0,0E0,0E0,0E0,0E0,0E0,0E0,0E0,0E0,0E0,0E0,0E0,0E0],"parents":[2147483647,0,0,1,1,2,2,3,3,4,4,5,5,6,6,7,7,8,8,9,9,10,10,11,11,12,12,13,13,14,14,15,15,16,16,17,17,18,18,19,19,20,20,21,21,22,22,23,23,24,24,25,25,26,26,27,27,28,28,29,29,30,30],"right_children":[2,4,6,8,10,12,14,16,18,20,22,24,26,28,30,32,34,36,38,40,42,44,46,48,50,52,54,56,58,60,62,-1,-1,-1,-1,-1,-1,-1,-1,-1,-1,-1,-1,-1,-1,-1,-1,-1,-1,-1,-1,-1,-1,-1,-1,-1,-1,-1,-1,-1,-1,-1,-1],"split_conditions":[4.555E-2,4.7500003E-3,4.9691534E0,2.5E0,5E-1,2.5E0,5.700494E0,2.05E1,2.35E1,2.25E1,1.65E1,3.02E0,5E-1,2.45E1,3.16E0,2.15E1,2.95E1,5.335397E0,3.05E1,2.15E1,1.55E1,2.25E1,2.05E1,1.6514999E-1,2.95E1,2.74E0,3.57E0,3.28E0,2.95E1,6.135E0,1.75E1,-3.224694E-2,-1.6488653E-2,-4.8184603E-2,-2.3423212E-2,-2.0281311E-2,-3.699839E-2,-2.2677719E-3,2.1197096E-2,-1.1219784E-2,-2.850833E-2,1.4487144E-2,-9.177703E-3,-1.8870804E-3,-3.20861E-2,1.6611688E-2,8.032925E-4,-7.4374286E-4,2.1534082E-2,-1.6693974E-2,2.2315911E-3,2.6771652E-2,1.1985229E-2,4.0350143E-2,2.4512606E-2,1.4917423E-2,-2.022359E-3,2.1753212E-2,4.7581643E-2,-6.1090416E-3,2.169371E-2,-2.2349173E-2,1.2132696E-2],"split_indices":[9,9,28,5,11,5,28,23,20,20,20,8,11,20,8,20,20,28,20,23,23,23,23,9,20,8,8,8,20,10,20,0,0,0,0,0,0,0,0,0,0,0,0,0,0,0,0,0,0,0,0,0,0,0,0,0,0,0,0,0,0,0,0],"split_type":[0,0,0,0,0,0,0,0,0,0,0,0,0,0,0,0,0,0,0,0,0,0,0,0,0,0,0,0,0,0,0,0,0,0,0,0,0,0,0,0,0,0,0,0,0,0,0,0,0,0,0,0,0,0,0,0,0,0,0,0,0,0,0],"sum_hessian":[3.0449628E6,1.3485774E6,1.6963855E6,6.747619E5,6.7381544E5,9.997899E5,6.965956E5,1.7470558E5,5.0005628E5,4.950767E5,1.7873878E5,2.2546533E5,7.7432456E5,5.8015794E5,1.1643772E5,9.76541E4,7.705147E4,4.1801672E5,8.203958E4,3.5983688E5,1.3523981E5,7.3895234E4,1.0484355E5,1.4933806E5,7.612726E4,5.0549275E5,2.688318E5,5.318512E5,4.830675E4,2.4370928E4,9.206679E4,7.3032375E4,2.4621727E4,5.4014832E4,2.303664E4,3.4198506E5,7.603163E4,7.086965E4,1.1169926E4,3.1584994E5,4.3986914E4,3.971866E4,9.552116E4,6.832854E4,5.5667E3,5.9172426E4,4.567112E4,8.836412E4,6.0973945E4,5.7406754E4,1.8720508E4,2.2638627E5,2.791065E5,1.21135484E5,1.4769633E5,1.816984E5,3.5015275E5,3.5481594E4,1.2825155E4,1.5877905E4,8.493022E3,8.424433E4,7.8224624E3],"tree_param":{"num_deleted":"0","num_feature":"32","num_nodes":"63","size_leaf_vector":"0"}},{"base_weights":[9.3422765E-5,-1.8063895E-1,7.2804905E-2,-2.3009437E-1,-1.2115961E-1,-9.015615E-3,1.2492989E-1,-1.3867465E-1,-3.05451E-1,-2.4608664E-1,-5.239726E-2,-8.523131E-2,3.4942094E-2,2.312145E-1,6.482087E-2,-2.4829163E-1,-7.091687E-2,-2.55456E-1,-3.8934907E-1,-2.7971333E-1,-1.1009519E-1,-9.643643E-2,6.5257065E-2,-1.7132273E-2,-1.6805351E-1,1.6227312E-1,-1.5496355E-2,1.8290152E-1,3.3887073E-1,-8.7818764E-2,1.1152811E-1,-3.0525988E-1,-1.51386E-1,-4.830242E-3,-1.4170463E-1,-3.5509044E-1,-2.0529136E-1,-4.260508E-1,-2.809781E-1,-2.0022708E-1,-3.564729E-1,-9.904654E-3,-1.891332E-1,3.0059398E-3,-1.6680855E-1,1.4927231E-1,-2.0359064E-2,-1.4258893E-1,2.137792E-2,-4.9627826E-2,-1.970594E-1,1.2822488E-1,3.2174587E-1,-5.4921523E-2,8.673517E-2,1.2913464E-1,2.9650274E-1,2.856258E-1,4.4030282E-1,-1.5980992E-2,-2.3532087E-1,2.3276477E-1,6.1986882E-2],"categories":[],"categories_nodes":[],"categories_segments":[],"categories_sizes":[],"default_left":[1,1,1,1,1,1,1,1,1,1,1,1,1,1,1,1,1,1,1,1,1,1,1,1,1,1,1,1,1,1,1,0,0,0,0,0,0,0,0,0,0,0,0,0,0,0,0,0,0,0,0,0,0,0,0,0,0,0,0,0,0,0,0],"id":14,"left_children":[1,3,5,7,9,11,13,15,17,19,21,23,25,27,29,31,33,35,37,39,41,43,45,47,49,51,53,55,57,59,61,-1,-1,-1,-1,-1,-1,-1,-1,-1,-1,-1,-1,-1,-1,-1,-1,-1,-1,-1,-1,-1,-1,-1,-1,-1,-1,-1,-1,-1,-1,-1,-1],"loss_changes":[3.9836992E4,2.5582559E3,9.219556E3,3.2713242E3,3.391751E3,2.8183823E3,8.436164E3,1.5936401E3,1.0917168E3,6.409697E2,1.3195334E3,1.7355378E3,3.426517E3,2.4810234E3,6.0134346E3,4.5243994E2,6.203262E2,8.151572E2,3.8645312E2,6.856123E2,2.2006921E2,1.2967607E3,4.9892816E2,8.158632E2,4.7693628E2,8.219038E2,1.5402615E3,2.0110889E3,7.9789453E2,2.0940962E3,3.8790693E3,0E0,0E0,0E0,0E0,0E0,0E0,0E0,0E0,0E0,0E0,0E0,0E0,0E0,0E0,0E0,0E0,0E0,0E0,0E0,0E0,0E0,0E0,0E0,0E0,0E0,0E0,0E0,0E0,0E0,0E0,0E0,0E0],"parents":[2147483647,0,0,1,1,2,2,3,3,4,4,5,5,6,6,7,7,8,8,9,9,10,10,11,11,12,12,13,13,14,14,15,15,16,16,17,17,18,18,19,19,20,20,21,21,22,22,23,23,24,24,25,25,26,26,27,27,28,28,29,29,30,30],"right_children":[2,4,6,8,10,12,14,16,18,20,22,24,26,28,30,32,34,36,38,40,42,44,46,48,50,52,54,56,58,60,62,-1,-1,-1,-1,-1,-1,-1,-1,-1,-1,-1,-1,-1,-1,-1,-1,-1,-1,-1,-1,-1,-1,-1,-1,-1,-1,-1,-1,-1,-1,-1,-1],"split_conditions":[1.335E-2,1.65E1,8.385E-2,8.5E0,2.5E0,1.15E1,2.97E0,4.5E0,1.55E1,3.05E1,2.65E1,8.5E0,1.25E1,2.5515002E-1,7.5E0,5E-1,5.5E0,7.5E0,4.05E-3,2.15E1,2.75E1,1.35E1,2.05E1,2.5E0,1.7E0,2.35E1,2.75E1,3.5E0,1.45E1,8.5E0,1.05E1,-3.3578586E-2,-1.665246E-2,-5.3132663E-4,-1.558751E-2,-3.905995E-2,-2.258205E-2,-4.686559E-2,-3.0907592E-2,-2.2024978E-2,-3.921202E-2,-1.0895119E-3,-2.0804651E-2,3.3065336E-4,-1.834894E-2,1.6419955E-2,-2.239497E-3,-1.5684782E-2,2.351571E-3,-5.459061E-3,-2.1676533E-2,1.4104737E-2,3.5392046E-2,-6.0413675E-3,9.540868E-3,1.420481E-2,3.26153E-2,3.1418838E-2,4.843331E-2,-1.7579092E-3,-2.5885295E-2,2.5604123E-2,6.818557E-3],"split_indices":[9,20,9,21,5,20,8,20,21,20,20,21,21,9,20,19,21,20,9,23,23,21,23,20,8,20,20,5,22,21,21,0,0,0,0,0,0,0,0,0,0,0,0,0,0,0,0,0,0,0,0,0,0,0,0,0,0,0,0,0,0,0,0],"split_type":[0,0,0,0,0,0,0,0,0,0,0,0,0,0,0,0,0,0,0,0,0,0,0,0,0,0,0,0,0,0,0,0,0,0,0,0,0,0,0,0,0,0,0,0,0,0,0,0,0,0,0,0,0,0,0,0,0,0,0,0,0,0,0],"sum_hessian":[3.0314282E6,8.696977E5,2.1617305E6,4.7486106E5,3.9483666E5,8.412391E5,1.3204914E6,2.1456367E5,2.6029739E5,1.4017144E5,2.546652E5,3.0771288E5,5.3352625E5,4.770211E5,8.4347025E5,8.1963055E4,1.3260061E5,1.6310614E5,9.719125E4,1.1238169E5,2.778975E4,1.8530419E5,6.936101E4,1.6886661E5,1.3884628E5,1.5137652E5,3.8214975E5,3.292611E5,1.4776002E5,1.9762602E5,6.4584425E5,5.161677E4,3.0346281E4,6.857803E4,6.4022582E4,5.461885E4,1.0848728E5,7.260077E4,2.459048E4,5.5212023E4,5.7169664E4,1.22555E4,1.5534249E4,7.679154E4,1.0851266E5,3.500742E4,3.4353586E4,3.9660344E4,1.29206266E5,2.7317348E4,1.1152893E5,1.24744695E5,2.6631826E4,2.757921E5,1.0635763E5,2.2348766E5,1.0577343E5,9.689864E4,5.0861375E4,1.3290067E5,6.4725348E4,1.8735294E5,4.584913E5],"tree_param":{"num_deleted":"0","num_feature":"32","num_nodes":"63","size_leaf_vector":"0"}},{"base_weights":[-5.1255495E-4,-1.7510037E-1,6.942113E-2,-2.681014E-1,-1.446058E-1,2.7148936E-2,1.7068942E-1,-2.887392E-1,-1.264133E-1,-1.9421676E-1,-2.7169792E-2,-4.690969E-2,7.5869896E-2,2.1951482E-1,7.2172895E-2,-2.4429011E-1,-3.675846E-1,-1.5829918E-1,8.559527E-2,-2.3158929E-1,-1.2986085E-1,2.9730247E-2,-1.13949075E-1,-1.7750838E-1,-2.7544666E-2,2.0524698E-1,1.6051097E-2,1.172283E-1,2.72435E-1,1.0107687E-1,-7.961745E-2,-3.544666E-1,-2.1286218E-1,-4.2063192E-1,-2.794689E-1,-1.470952E-1,-7.630917E-1,-5.107415E-3,3.4640846E-1,-1.771492E-1,-3.0412084E-1,-1.752703E-1,-8.2132764E-2,-1.057013E-2,1.6504827E-1,-1.5744273E-1,5.491964E-2,-2.290348E-1,-7.939228E-2,-9.6898355E-2,1.7343868E-2,3.0760726E-1,1.481434E-1,-1.0836319E-1,5.4414976E-2,1.764341E-1,6.3796535E-2,3.3211353E-1,1.7480159E-1,8.751329E-2,4.0436333E-1,-1.6219756E-1,1.4672891E-2],"categories":[],"categories_nodes":[],"categories_segments":[],"categories_sizes":[],"default_left":[1,1,1,1,1,1,1,1,1,1,1,1,1,1,1,1,1,1,1,1,1,1,1,1,1,1,1,1,1,1,1,0,0,0,0,0,0,0,0,0,0,0,0,0,0,0,0,0,0,0,0,0,0,0,0,0,0,0,0,0,0,0,0],"id":15,"left_children":[1,3,5,7,9,11,13,15,17,19,21,23,25,27,29,31,33,35,37,39,41,43,45,47,49,51,53,55,57,59,61,-1,-1,-1,-1,-1,-1,-1,-1,-1,-1,-1,-1,-1,-1,-1,-1,-1,-1,-1,-1,-1,-1,-1,-1,-1,-1,-1,-1,-1,-1,-1,-1],"loss_changes":[3.6825027E4,2.446334E3,9.218658E3,6.2280566E2,3.7846719E3,5.4818975E3,3.0505117E3,6.514844E2,1.8309198E2,1.0983496E3,9.5262427E2,1.524701E3,7.092243E3,2.2952812E3,9.2203613E2,4.116167E2,3.1317285E2,1.5941022E2,8.377614E1,1.1407275E3,3.6360645E2,6.354511E2,5.6116766E2,3.9355933E2,1.6345126E3,1.6935488E3,2.9910857E3,4.573739E2,1.628209E3,7.261886E2,2.6176367E2,0E0,0E0,0E0,0E0,0E0,0E0,0E0,0E0,0E0,0E0,0E0,0E0,0E0,0E0,0E0,0E0,0E0,0E0,0E0,0E0,0E0,0E0,0E0,0E0,0E0,0E0,0E0,0E0,0E0,0E0,0E0,0E0],"parents":[2147483647,0,0,1,1,2,2,3,3,4,4,5,5,6,6,7,7,8,8,9,9,10,10,11,11,12,12,13,13,14,14,15,15,16,16,17,17,18,18,19,19,20,20,21,21,22,22,23,23,24,24,25,25,26,26,27,27,28,28,29,29,30,30],"right_children":[2,4,6,8,10,12,14,16,18,20,22,24,26,28,30,32,34,36,38,40,42,44,46,48,50,52,54,56,58,60,62,-1,-1,-1,-1,-1,-1,-1,-1,-1,-1,-1,-1,-1,-1,-1,-1,-1,-1,-1,-1,-1,-1,-1,-1,-1,-1,-1,-1,-1,-1,-1,-1],"split_conditions":[1.335E-2,2.5E0,5E-1,3.05E1,1.95E1,8.385E-2,5.049696E0,2.15E1,2.97E0,5E-1,2.05E1,3.25E0,2.6750002E0,7.225E-2,5.709831E0,5E-1,5E-1,5.8745003E1,3.5E0,4.9725523E0,3.5E0,2.75E1,2.95E1,5E-1,1.05E1,1.7E0,6.5E0,1.55E1,4.12E0,2.85E1,6.5E0,-3.8991325E-2,-2.3414839E-2,-4.626951E-2,-3.0741578E-2,-1.6180472E-2,-8.394008E-2,-5.618156E-4,3.810493E-2,-1.9486412E-2,-3.3453293E-2,-1.9279733E-2,-9.034604E-3,-1.1627143E-3,1.815531E-2,-1.7318701E-2,6.0411603E-3,-2.5193827E-2,-8.733151E-3,-1.0658819E-2,1.9078255E-3,3.38368E-2,1.6295774E-2,-1.1919951E-2,5.9856474E-3,1.9407751E-2,7.017619E-3,3.6532488E-2,1.9228175E-2,9.626462E-3,4.4479966E-2,-1.7841732E-2,1.614018E-3],"split_indices":[9,5,11,20,20,9,28,23,8,19,23,6,8,9,28,5,19,26,13,28,5,20,20,19,20,8,20,23,8,20,20,0,0,0,0,0,0,0,0,0,0,0,0,0,0,0,0,0,0,0,0,0,0,0,0,0,0,0,0,0,0,0,0],"split_type":[0,0,0,0,0,0,0,0,0,0,0,0,0,0,0,0,0,0,0,0,0,0,0,0,0,0,0,0,0,0,0,0,0,0,0,0,0,0,0,0,0,0,0,0,0,0,0,0,0,0,0,0,0,0,0,0,0,0,0,0,0,0,0],"sum_hessian":[3.0160775E6,8.626043E5,2.1534732E6,2.129996E5,6.4960475E5,1.5192835E6,6.341897E5,1.859183E5,2.7081295E4,4.566794E5,1.929253E5,6.0287675E5,9.164068E5,4.2403444E5,2.101553E5,1.1889521E5,6.702309E4,2.3541006E4,3.5402896E3,2.88905E5,1.677744E5,1.1652322E5,7.6402086E4,7.784926E4,5.2502744E5,2.8974312E5,6.266636E5,1.4458238E5,2.7945206E5,1.76539E5,3.3616293E4,2.638553E4,9.250968E4,4.1834285E4,2.5188805E4,2.3114055E4,4.269519E2,2.6275056E3,9.12784E2,1.6503669E5,1.2386831E5,8.597418E4,8.1800234E4,8.978453E4,2.6738686E4,6.0754332E4,1.5647755E4,5.1042547E4,2.6806713E4,2.0629555E5,3.1873194E5,1.0375469E5,1.8598844E5,1.476929E5,4.7897075E5,6.85843E4,7.599807E4,1.7343648E5,1.0601558E5,1.6898303E5,7.5559727E3,1.7920596E4,1.5695697E4],"tree_param":{"num_deleted":"0","num_feature":"32","num_nodes":"63","size_leaf_vector":"0"}},{"base_weights":[1.8158411E-5,-1.1916553E-1,9.46043E-2,-1.8254623E-1,-4.946035E-2,1.4391655E-1,8.445853E-3,-2.71977E-1,-1.5193926E-1,-8.087573E-2,3.6578465E-2,-6.292711E-2,1.7474051E-1,3.352557E-2,-1.6608192E-1,-2.9209986E-1,-1.2409035E-1,-2.003327E-1,-2.9864019E-2,-3.4625813E-2,-1.2423445E-1,8.209665E-2,-4.459717E-2,-1.0421519E-1,7.0800774E-2,2.4465218E-1,1.2032262E-1,1.6160797E-2,2.4946861E-1,-4.9515903E-2,-2.3194669E-1,-2.3949967E-1,-3.8910016E-1,-2.6484065E-2,-2.0208114E-1,-1.1589296E-1,-2.595236E-1,-6.4426474E-2,1.0636589E-1,-9.721556E-2,6.0102295E-2,-1.8631391E-1,-4.8595235E-2,6.7320424E-3,1.2389304E-1,1.0084531E-1,-7.2218955E-2,9.877957E-2,-1.2938975E-1,1.6297324E-1,-3.27699E-2,1.8183322E-1,3.4524256E-1,2.9333306E-2,1.7407277E-1,6.774804E-2,-1.0280048E-1,3.5297927E-1,1.5561691E-1,-1.4273609E-1,7.811175E-2,-2.7019978E-1,-1.5741622E-2],"categories":[],"categories_nodes":[],"categories_segments":[],"categories_sizes":[],"default_left":[1,1,1,1,1,1,1,1,1,1,1,1,1,1,1,1,1,1,1,1,1,1,1,1,1,1,1,1,1,1,1,0,0,0,0,0,0,0,0,0,0,0,0,0,0,0,0,0,0,0,0,0,0,0,0,0,0,0,0,0,0,0,0],"id":16,"left_children":[1,3,5,7,9,11,13,15,17,19,21,23,25,27,29,31,33,35,37,39,41,43,45,47,49,51,53,55,57,59,61,-1,-1,-1,-1,-1,-1,-1,-1,-1,-1,-1,-1,-1,-1,-1,-1,-1,-1,-1,-1,-1,-1,-1,-1,-1,-1,-1,-1,-1,-1,-1,-1],"loss_changes":[3.3860516E4,5.871535E3,7.114956E3,1.905291E3,1.7107784E3,6.7905254E3,2.6681975E3,5.2814355E2,3.063709E3,9.2975366E2,6.255256E2,7.626821E2,3.5264043E3,1.9985992E3,5.880215E2,7.970127E2,1.6183057E2,1.8561445E3,6.9320386E2,1.3301351E3,1.1236584E3,3.4167145E2,2.4435541E2,5.39381E2,3.1109503E2,2.56358E3,2.549122E3,3.0274575E3,3.853208E2,3.290191E2,4.047395E2,0E0,0E0,0E0,0E0,0E0,0E0,0E0,0E0,0E0,0E0,0E0,0E0,0E0,0E0,0E0,0E0,0E0,0E0,0E0,0E0,0E0,0E0,0E0,0E0,0E0,0E0,0E0,0E0,0E0,0E0,0E0,0E0],"parents":[2147483647,0,0,1,1,2,2,3,3,4,4,5,5,6,6,7,7,8,8,9,9,10,10,11,11,12,12,13,13,14,14,15,15,16,16,17,17,18,18,19,19,20,20,21,21,22,22,23,23,24,24,25,25,26,26,27,27,28,28,29,29,30,30],"right_children":[2,4,6,8,10,12,14,16,18,20,22,24,26,28,30,32,34,36,38,40,42,44,46,48,50,52,54,56,58,60,62,-1,-1,-1,-1,-1,-1,-1,-1,-1,-1,-1,-1,-1,-1,-1,-1,-1,-1,-1,-1,-1,-1,-1,-1,-1,-1,-1,-1,-1,-1,-1,-1],"split_conditions":[4.555E-2,6.05E-3,5.038607E0,2.5E0,5E-1,3.25E0,5.829254E0,3.05E1,1.95E1,1.35E1,4.913647E0,5E-1,1.15E1,2.45E1,4E0,2.15E1,2.75E1,7.5E0,2.85E1,1.15E1,2.25E1,3.75E0,1.7E0,1.5E0,3.385E0,1.35E1,1.85E1,1.35E1,1.85E1,6.025E0,1.25E1,-2.6344964E-2,-4.280102E-2,-2.913247E-3,-2.2228926E-2,-1.2748226E-2,-2.8547596E-2,-7.086912E-3,1.1700247E-2,-1.0693712E-2,6.611252E-3,-2.049453E-2,-5.345476E-3,7.405247E-4,1.3628234E-2,1.1092984E-2,-7.944085E-3,1.0865753E-2,-1.4232872E-2,1.7927056E-2,-3.604689E-3,2.0001654E-2,3.7976682E-2,3.2266637E-3,1.9148005E-2,7.4522845E-3,-1.1308053E-2,3.882772E-2,1.711786E-2,-1.570097E-2,8.592293E-3,-2.9721975E-2,-1.7315784E-3],"split_indices":[9,9,28,5,11,6,28,20,20,21,28,11,21,20,8,23,23,21,20,20,20,6,8,8,8,20,20,21,21,10,20,0,0,0,0,0,0,0,0,0,0,0,0,0,0,0,0,0,0,0,0,0,0,0,0,0,0,0,0,0,0,0,0],"split_type":[0,0,0,0,0,0,0,0,0,0,0,0,0,0,0,0,0,0,0,0,0,0,0,0,0,0,0,0,0,0,0,0,0,0,0,0,0,0,0,0,0,0,0,0,0,0,0,0,0,0,0,0,0,0,0,0,0,0,0,0,0,0,0],"sum_hessian":[3.0036472E6,1.3290152E6,1.674632E6,6.9608544E5,6.329299E5,1.0650541E6,6.095778E5,1.7748439E5,5.1860103E5,4.6364066E5,1.692892E5,1.3813048E5,9.269237E5,5.32988E5,7.65898E4,1.5622586E5,2.125854E4,3.713777E5,1.4722333E5,2.2434161E5,2.3929906E5,1.0846746E5,6.0821742E4,1.0554424E5,3.2586246E4,4.0570425E5,5.212194E5,4.9331944E5,3.9668555E4,2.7652596E4,4.8937203E4,1.012984E5,5.4927457E4,9.442496E3,1.1816043E4,1.5304783E5,2.1832988E5,1.1743085E5,2.979248E4,1.3508608E5,8.925552E4,1.314294E5,1.07869664E5,3.8695438E4,6.977202E4,9.706982E3,5.1114758E4,1.1644669E4,9.389957E4,1.7241576E4,1.5344671E4,2.497423E5,1.5596194E5,1.9355955E5,3.2765988E5,3.4410128E5,1.4921817E5,1.886227E4,2.0806285E4,1.5980328E4,1.1672269E4,4.1580188E4,7.357014E3],"tree_param":{"num_deleted":"0","num_feature":"32","num_nodes":"63","size_leaf_vector":"0"}},{"base_weights":[-6.303362E-4,-1.4917079E-1,6.928886E-2,-2.1144782E-1,-1.0587033E-1,9.205235E-2,-8.063534E-2,-1.595271E-1,-2.8358695E-1,-2.2219302E-1,-5.3797446E-2,2.42944E-2,1.49743E-1,-4.476122E-2,-1.9634601E-1,-9.62432E-2,-2.2662956E-1,-3.3962387E-1,-1.9136006E-1,-2.4821627E-1,-1.0180405E-1,-8.621684E-2,7.181656E-2,-9.0873525E-2,5.2123938E-2,-4.5372397E-2,1.7141797E-1,-8.016271E-2,1.1710816E-1,-2.6661023E-1,-9.762435E-2,-1.287959E-1,8.327876E-3,-3.243523E-1,-1.8468054E-1,-3.7687194E-1,-2.7799526E-1,-2.5864166E-1,-1.17606945E-1,-1.5727875E-1,-2.882427E-1,-6.3149305E-3,-1.7731832E-1,-2.3474233E-2,-1.411451E-1,2.8235313E-2,1.9323584E-1,-1.242795E-1,-3.3986806E-3,2.4438664E-2,1.7128015E-1,1.1349658E-1,-9.3634784E-2,2.4039489E-1,1.1033018E-1,-9.562429E-2,1.12622835E-1,2.1557352E-1,5.6324795E-2,-3.9182234E-1,-1.7588016E-1,-2.7224718E-2,-2.2601633E-1],"categories":[],"categories_nodes":[],"categories_segments":[],"categories_sizes":[],"default_left":[1,1,1,1,1,1,1,1,1,1,1,1,1,1,1,1,1,1,1,1,1,1,1,1,1,1,1,1,1,1,1,0,0,0,0,0,0,0,0,0,0,0,0,0,0,0,0,0,0,0,0,0,0,0,0,0,0,0,0,0,0,0,0],"id":17,"left_children":[1,3,5,7,9,11,13,15,17,19,21,23,25,27,29,31,33,35,37,39,41,43,45,47,49,51,53,55,57,59,61,-1,-1,-1,-1,-1,-1,-1,-1,-1,-1,-1,-1,-1,-1,-1,-1,-1,-1,-1,-1,-1,-1,-1,-1,-1,-1,-1,-1,-1,-1,-1,-1],"loss_changes":[3.1020984E4,2.5778398E3,6.93105E3,1.4684473E3,3.415642E3,6.892298E3,1.111265E3,9.681118E2,8.4793945E2,5.462676E2,1.5862717E3,2.5988254E3,4.0275723E3,1.1710532E3,4.3945142E2,3.994077E2,4.535464E2,2.3419336E2,3.0771924E2,5.2183984E2,2.2349435E2,1.0670376E3,4.2283768E2,4.611311E2,2.1543042E3,7.3007715E2,3.6115996E3,4.9983643E2,2.1947974E2,4.204087E2,2.3812054E2,0E0,0E0,0E0,0E0,0E0,0E0,0E0,0E0,0E0,0E0,0E0,0E0,0E0,0E0,0E0,0E0,0E0,0E0,0E0,0E0,0E0,0E0,0E0,0E0,0E0,0E0,0E0,0E0,0E0,0E0,0E0,0E0],"parents":[2147483647,0,0,1,1,2,2,3,3,4,4,5,5,6,6,7,7,8,8,9,9,10,10,11,11,12,12,13,13,14,14,15,15,16,16,17,17,18,18,19,19,20,20,21,21,22,22,23,23,24,24,25,25,26,26,27,27,28,28,29,29,30,30],"right_children":[2,4,6,8,10,12,14,16,18,20,22,24,26,28,30,32,34,36,38,40,42,44,46,48,50,52,54,56,58,60,62,-1,-1,-1,-1,-1,-1,-1,-1,-1,-1,-1,-1,-1,-1,-1,-1,-1,-1,-1,-1,-1,-1,-1,-1,-1,-1,-1,-1,-1,-1,-1,-1],"split_conditions":[1.8849999E-2,1.25E1,5.4764843E0,9.5E0,2.5E0,1.0915E-1,5.9463234E0,5.0016956E0,5E-1,3.05E1,2.65E1,2.5E0,3.25E0,5.995E0,5E-1,3.5E0,2.5E0,5.115E0,3.5E0,1.55E1,2.75E1,1.35E1,3.05E1,2.85E1,2.45E1,2.35E0,3.45E0,2.15E1,3.88E0,2.5E0,4.875E0,-1.416755E-2,9.160664E-4,-3.567875E-2,-2.031486E-2,-4.1455913E-2,-3.0579478E-2,-2.8450582E-2,-1.2936763E-2,-1.7300662E-2,-3.17067E-2,-6.9464237E-4,-1.9505015E-2,-2.5821656E-3,-1.552596E-2,3.1058844E-3,2.1255942E-2,-1.3670744E-2,-3.7385485E-4,2.688253E-3,1.8840816E-2,1.2484624E-2,-1.0299826E-2,2.6443439E-2,1.213632E-2,-1.0518672E-2,1.2388512E-2,2.3713088E-2,6.1957273E-3,-4.3100458E-2,-1.9346818E-2,-2.994719E-3,-2.4861796E-2],"split_indices":[9,20,28,23,5,9,28,28,19,20,20,5,6,10,19,5,20,10,5,23,23,23,20,20,20,8,8,20,8,20,8,0,0,0,0,0,0,0,0,0,0,0,0,0,0,0,0,0,0,0,0,0,0,0,0,0,0,0,0,0,0,0,0],"split_type":[0,0,0,0,0,0,0,0,0,0,0,0,0,0,0,0,0,0,0,0,0,0,0,0,0,0,0,0,0,0,0,0,0,0,0,0,0,0,0,0,0,0,0,0,0,0,0,0,0,0,0,0,0,0,0,0,0,0,0,0,0,0,0],"sum_hessian":[2.9868552E6,9.5595875E5,2.0308964E6,3.9206547E5,5.638933E5,1.7631862E6,2.677101E5,2.2798262E5,1.6408284E5,1.7437145E5,3.8952188E5,8.108457E5,9.5234056E5,2.0435477E5,6.335533E4,1.1733099E5,1.10651625E5,1.0206538E5,6.2017465E4,1.4337786E5,3.0993588E4,3.0961456E5,7.990731E4,1.578028E5,6.5304294E5,9.521601E4,8.5712456E5,1.6768244E5,3.667233E4,3.701123E4,2.63441E4,8.947685E4,2.7854145E4,3.323109E4,7.742054E4,6.36129E4,3.845248E4,3.2430285E4,2.958718E4,4.3821977E4,9.955588E4,1.3687098E4,1.730649E4,1.445274E5,1.6508714E5,5.8802465E4,2.1104846E4,1.1419295E5,4.3609844E4,5.299201E5,1.23122766E5,2.2185373E4,7.303063E4,4.0256625E5,4.5455828E5,1.5523311E5,1.2449337E4,1.3996423E4,2.2675904E4,1.5549212E4,2.1462018E4,1.701544E4,9.328659E3],"tree_param":{"num_deleted":"0","num_feature":"32","num_nodes":"63","size_leaf_vector":"0"}},{"base_weights":[-4.4196934E-4,-1.5769039E-1,6.202576E-2,-1.8290533E-1,-4.8886675E-2,2.3628369E-2,1.5431385E-1,-2.2237936E-1,-1.15719266E-1,-2.9979618E-2,-1.874718E-1,6.340502E-2,-4.607761E-2,2.1048526E-1,7.672232E-2,-3.0085707E-1,-1.935431E-1,-7.63592E-2,-1.8118805E-1,3.5626203E-2,-8.1172474E-2,-1.6536344E-2,-2.3286912E-1,-2.061236E-2,1.3415797E-1,-1.4287326E-1,1.955639E-2,1.3574792E-1,2.8069875E-1,6.485488E-2,3.501582E-1,-3.218776E-1,-1.3793568E-1,-2.3532324E-1,-9.4747156E-2,-1.2919472E-1,1.4866155E-3,-2.9502973E-1,-1.02262E-1,-3.9838962E-2,1.1459406E-1,-1.8945779E-1,-4.520901E-2,5.75521E-2,-2.6547956E-1,-3.0453306E-1,-1.17853716E-1,7.324457E-2,-8.0884166E-2,2.3855497E-1,9.268241E-2,1.9927763E-3,-1.7752947E-1,8.790118E-2,-5.0481204E-2,1.696621E-1,-1.10564E-2,3.3987656E-1,1.8671061E-1,1.422339E-1,1.4819311E-2,4.3863195E-1,2.8038552E-1],"categories":[],"categories_nodes":[],"categories_segments":[],"categories_sizes":[],"default_left":[1,1,1,1,1,1,1,1,1,1,1,1,1,1,1,1,1,1,1,1,1,1,1,1,1,1,1,1,1,1,1,0,0,0,0,0,0,0,0,0,0,0,0,0,0,0,0,0,0,0,0,0,0,0,0,0,0,0,0,0,0,0,0],"id":18,"left_children":[1,3,5,7,9,11,13,15,17,19,21,23,25,27,29,31,33,35,37,39,41,43,45,47,49,51,53,55,57,59,61,-1,-1,-1,-1,-1,-1,-1,-1,-1,-1,-1,-1,-1,-1,-1,-1,-1,-1,-1,-1,-1,-1,-1,-1,-1,-1,-1,-1,-1,-1,-1,-1],"loss_changes":[2.9235496E4,2.3214648E3,7.5481396E3,1.8219004E3,4.1715097E2,4.17071E3,2.7276846E3,9.7921094E2,6.551406E2,4.7051587E2,1.4831E2,5.693119E3,3.4720015E3,1.904998E3,8.528053E2,3.9816797E2,1.306207E3,6.530901E2,8.576924E2,3.6593042E2,3.064397E2,7.400892E1,1.2443945E2,2.4767134E3,2.2510967E3,1.1086812E3,1.5589225E3,8.7552905E2,1.0410352E3,9.7521655E2,6.735925E1,0E0,0E0,0E0,0E0,0E0,0E0,0E0,0E0,0E0,0E0,0E0,0E0,0E0,0E0,0E0,0E0,0E0,0E0,0E0,0E0,0E0,0E0,0E0,0E0,0E0,0E0,0E0,0E0,0E0,0E0,0E0,0E0],"parents":[2147483647,0,0,1,1,2,2,3,3,4,4,5,5,6,6,7,7,8,8,9,9,10,10,11,11,12,12,13,13,14,14,15,15,16,16,17,17,18,18,19,19,20,20,21,21,22,22,23,23,24,24,25,25,26,26,27,27,28,28,29,29,30,30],"right_children":[2,4,6,8,10,12,14,16,18,20,22,24,26,28,30,32,34,36,38,40,42,44,46,48,50,52,54,56,58,60,62,-1,-1,-1,-1,-1,-1,-1,-1,-1,-1,-1,-1,-1,-1,-1,-1,-1,-1,-1,-1,-1,-1,-1,-1,-1,-1,-1,-1,-1,-1,-1,-1],"split_conditions":[1.335E-2,5E-1,5E-1,5E-1,5.382268E0,1.55E1,4.906348E0,2.5E0,1.65E1,1.25E1,1.5E0,8.5E0,1.95E1,1.0635E-1,2.85E1,3.05E1,1.85E1,1.25E1,2.05E1,1.35E1,1.85E1,6.062377E0,3.5E0,4.5E0,7.5E0,2.1399999E0,2.35E1,2.45E1,4.12E0,3.795E0,1.85E1,-3.5406537E-2,-1.5172925E-2,-2.5885556E-2,-1.0422187E-2,-1.4211419E-2,1.635277E-4,-3.245327E-2,-1.12488195E-2,-4.3822858E-3,1.2605346E-2,-2.0840356E-2,-4.972991E-3,6.330731E-3,-2.9202752E-2,-3.3498637E-2,-1.2963909E-2,8.056903E-3,-8.897258E-3,2.6241047E-2,1.0195064E-2,2.192054E-4,-1.9528242E-2,9.66913E-3,-5.5529326E-3,1.866283E-2,-1.216204E-3,3.738642E-2,2.0538168E-2,1.5645728E-2,1.6301242E-3,4.8249513E-2,3.0842407E-2],"split_indices":[9,11,11,19,28,21,28,5,21,21,8,20,20,9,20,20,20,20,20,20,20,28,13,21,21,8,21,21,8,8,21,0,0,0,0,0,0,0,0,0,0,0,0,0,0,0,0,0,0,0,0,0,0,0,0,0,0,0,0,0,0,0,0],"split_type":[0,0,0,0,0,0,0,0,0,0,0,0,0,0,0,0,0,0,0,0,0,0,0,0,0,0,0,0,0,0,0,0,0,0,0,0,0,0,0,0,0,0,0,0,0,0,0,0,0,0,0,0,0,0,0,0,0,0,0,0,0,0,0],"sum_hessian":[2.9762418E6,8.4617794E5,2.1300638E6,6.8697325E5,1.5920469E5,1.5042194E6,6.258444E5,4.327286E5,2.5424467E5,1.4009312E5,1.9111574E4,9.577144E5,5.4650494E5,3.6303097E5,2.628134E5,1.1627565E5,3.1645297E5,1.5878481E5,9.545985E4,6.140294E4,7.869018E4,4.01084E3,1.5100733E4,4.3781753E5,5.1989684E5,2.2082933E5,3.2567562E5,1.7585188E5,1.871791E5,2.5188266E5,1.0930758E4,1.0298702E5,1.3288628E4,2.2240008E5,9.4052875E4,9.458644E4,6.4198375E4,3.908358E4,5.6376277E4,3.1398062E4,3.0004879E4,1.9617621E4,5.907256E4,3.0915325E3,9.193077E2,9.3027295E3,5.7980044E3,1.712078E5,2.6660975E5,1.4781953E5,3.720773E5,4.2630598E4,1.7819873E5,1.6482964E5,1.6084598E5,1.4285086E5,3.3001027E4,1.14858234E5,7.232086E4,9.891332E4,1.5296933E5,4.817167E3,6.113591E3],"tree_param":{"num_deleted":"0","num_feature":"32","num_nodes":"63","size_leaf_vector":"0"}},{"base_weights":[-6.257653E-4,-1.0881655E-1,8.359051E-2,-1.6994666E-1,-4.860717E-2,1.347037E-1,9.657344E-3,-2.799513E-1,-1.4572185E-1,-7.87616E-2,3.3828396E-2,-5.7583228E-2,1.6506307E-1,2.8390892E-2,-1.8777546E-1,-1.7954844E-1,-3.7777546E-1,-4.0058058E-2,-1.9156264E-1,-1.0874122E-1,-2.6937256E-2,4.6821325E-3,1.4097449E-1,-9.279226E-2,5.8525212E-2,1.19075395E-1,2.4775466E-1,1.53592015E-2,2.7300993E-1,-2.5294566E-1,-7.7906676E-2,-9.7119115E-2,-3.0321372E-1,-4.2173362E-1,-3.0470827E-1,-8.676568E-2,5.8234677E-2,-2.3779348E-1,-1.1058111E-1,-1.3485146E-1,-4.3360475E-2,3.6234118E-2,-1.2394216E-1,3.195307E-2,-9.277525E-2,2.2344263E-1,-1.8506698E-2,6.532921E-2,-1.190145E-1,2.0137799E-1,7.2652167E-3,8.280642E-2,2.2775571E-1,3.1219926E-1,1.9508271E-1,7.7803515E-2,-5.999609E-2,3.8804293E-1,1.8642536E-1,-3.1765848E-1,-1.4371634E-1,-1.8334985E-1,5.142506E-2],"categories":[],"categories_nodes":[],"categories_segments":[],"categories_sizes":[],"default_left":[1,1,1,1,1,1,1,1,1,1,1,1,1,1,1,1,1,1,1,1,1,1,1,1,1,1,1,1,1,1,1,0,0,0,0,0,0,0,0,0,0,0,0,0,0,0,0,0,0,0,0,0,0,0,0,0,0,0,0,0,0,0,0],"id":19,"left_children":[1,3,5,7,9,11,13,15,17,19,21,23,25,27,29,31,33,35,37,39,41,43,45,47,49,51,53,55,57,59,61,-1,-1,-1,-1,-1,-1,-1,-1,-1,-1,-1,-1,-1,-1,-1,-1,-1,-1,-1,-1,-1,-1,-1,-1,-1,-1,-1,-1,-1,-1,-1,-1],"loss_changes":[2.6988354E4,4.7718145E3,6.2940684E3,1.7143027E3,1.6236241E3,5.748717E3,2.5180378E3,1.1402539E3,2.5536943E3,7.430061E2,5.4629956E2,5.4894574E2,3.2341562E3,1.9821838E3,4.2243335E2,5.840371E2,1.8874512E2,7.323753E2,1.3765791E3,5.171887E2,1.0740018E3,3.6550937E2,4.920196E2,4.2722058E2,2.2879431E2,2.1542632E3,1.0316543E3,2.777927E3,3.1317358E2,2.6172363E2,2.9959534E2,0E0,0E0,0E0,0E0,0E0,0E0,0E0,0E0,0E0,0E0,0E0,0E0,0E0,0E0,0E0,0E0,0E0,0E0,0E0,0E0,0E0,0E0,0E0,0E0,0E0,0E0,0E0,0E0,0E0,0E0,0E0,0E0],"parents":[2147483647,0,0,1,1,2,2,3,3,4,4,5,5,6,6,7,7,8,8,9,9,10,10,11,11,12,12,13,13,14,14,15,15,16,16,17,17,18,18,19,19,20,20,21,21,22,22,23,23,24,24,25,25,26,26,27,27,28,28,29,29,30,30],"right_children":[2,4,6,8,10,12,14,16,18,20,22,24,26,28,30,32,34,36,38,40,42,44,46,48,50,52,54,56,58,60,62,-1,-1,-1,-1,-1,-1,-1,-1,-1,-1,-1,-1,-1,-1,-1,-1,-1,-1,-1,-1,-1,-1,-1,-1,-1,-1,-1,-1,-1,-1,-1,-1],"split_conditions":[4.435E-2,4.5499997E-3,4.9699173E0,5.5E0,5E-1,3.25E0,5.906002E0,5.5E0,1.05E1,3.5E0,2.75E1,5E-1,3.5E0,2.65E1,6.115E0,5.325981E0,5E-1,1.45E1,2.35E1,4.955E0,5.283635E0,2.05E1,2.55E1,1.7E0,2.52E0,5E-1,3.545E0,1.05E1,1.85E1,5.5E0,3.5E0,-1.06831025E-2,-3.3353508E-2,-4.6390697E-2,-3.351791E-2,-9.5442245E-3,6.4058146E-3,-2.6157282E-2,-1.2163922E-2,-1.483366E-2,-4.769652E-3,3.985753E-3,-1.3633638E-2,3.5148377E-3,-1.0205277E-2,2.4578689E-2,-2.0357368E-3,7.186213E-3,-1.3091595E-2,2.2151578E-2,7.9917384E-4,9.108706E-3,2.5053129E-2,3.434192E-2,2.1459097E-2,8.558387E-3,-6.59957E-3,4.2684723E-2,2.050679E-2,-3.4942433E-2,-1.5808797E-2,-2.0168483E-2,5.6567565E-3],"split_indices":[9,9,28,20,11,6,28,21,21,5,20,11,5,20,10,28,19,20,20,10,28,23,21,8,8,11,8,21,21,20,20,0,0,0,0,0,0,0,0,0,0,0,0,0,0,0,0,0,0,0,0,0,0,0,0,0,0,0,0,0,0,0,0],"split_type":[0,0,0,0,0,0,0,0,0,0,0,0,0,0,0,0,0,0,0,0,0,0,0,0,0,0,0,0,0,0,0,0,0,0,0,0,0,0,0,0,0,0,0,0,0,0,0,0,0,0,0,0,0,0,0,0,0,0,0,0,0,0,0],"sum_hessian":[2.9620325E6,1.296477E6,1.6655555E6,6.4331875E5,6.5315825E5,9.847527E5,6.808028E5,1.16099766E5,5.2721894E5,4.782261E5,1.7493216E5,1.3427775E5,8.5047494E5,6.218034E5,5.899939E4,5.729613E4,5.8803637E4,1.5952136E5,3.676976E5,3.029645E5,1.7526158E5,1.3752356E5,3.7408605E4,1.0303373E5,3.1244018E4,5.46532E5,3.0394297E5,5.9035425E5,3.1449123E4,3.7032023E4,2.1967367E4,3.4381113E4,2.2915014E4,3.6712277E4,2.209136E4,1.081363E5,5.138506E4,2.340697E5,1.3362789E5,2.1650194E5,8.6462555E4,1.0614114E5,6.912044E4,1.07455555E5,3.0067998E4,2.4657662E4,1.2750942E4,1.4655972E4,8.837776E4,8.249937E3,2.299408E4,4.0978097E5,1.36751E5,1.3669298E5,1.6724998E5,3.228334E5,2.6752088E5,1.3504316E4,1.7944807E4,2.3253564E4,1.377846E4,1.2101053E4,9.866313E3],"tree_param":{"num_deleted":"0","num_feature":"32","num_nodes":"63","size_leaf_vector":"0"}},{"base_weights":[-3.5230076E-4,-1.0226449E-1,8.3448455E-2,-1.6566227E-1,-4.3801907E-2,1.3275488E-1,1.3987693E-2,-1.2558988E-1,-2.2571144E-1,-7.008045E-2,3.831682E-2,-2.2725156E-3,1.7207612E-1,-1.222633E-2,1.5173377E-1,-1.8776363E-1,-3.139022E-2,-3.1970608E-1,-1.4516668E-1,-1.8411051E-2,-1.18770264E-1,1.2025872E-1,-9.008188E-2,5.8425065E-2,-1.1992513E-1,2.3534508E-1,1.2434721E-1,6.8392314E-2,-8.164215E-2,2.2678818E-1,3.4966815E-2,-1.0194748E-1,-2.4582314E-1,8.870905E-2,-6.514894E-2,-2.8452745E-1,-3.8623023E-1,-1.8279018E-1,2.6210679E-2,-8.743563E-2,5.2811187E-2,-1.6370715E-1,-7.133531E-2,1.9796847E-1,4.548667E-2,-1.4153567E-1,-1.0456896E-2,8.059257E-3,1.7815012E-1,-1.6576812E-1,1.9151596E-2,1.725689E-1,3.163318E-1,1.01020865E-1,3.265377E-1,-4.2096954E-2,1.2587059E-1,-4.1792873E-2,-1.9156131E-1,1.9674312E-1,4.350513E-1,-3.341016E-2,1.9200863E-1],"categories":[],"categories_nodes":[],"categories_segments":[],"categories_sizes":[],"default_left":[1,1,1,1,1,1,1,1,1,1,1,1,1,1,1,1,1,1,1,1,1,1,1,1,1,1,1,1,1,1,1,0,0,0,0,0,0,0,0,0,0,0,0,0,0,0,0,0,0,0,0,0,0,0,0,0,0,0,0,0,0,0,0],"id":20,"left_children":[1,3,5,7,9,11,13,15,17,19,21,23,25,27,29,31,33,35,37,39,41,43,45,47,49,51,53,55,57,59,61,-1,-1,-1,-1,-1,-1,-1,-1,-1,-1,-1,-1,-1,-1,-1,-1,-1,-1,-1,-1,-1,-1,-1,-1,-1,-1,-1,-1,-1,-1,-1,-1],"loss_changes":[2.521422E4,4.937746E3,5.548791E3,1.5379297E3,1.4956635E3,5.030922E3,2.4287146E3,2.2450688E3,1.9365918E3,1.3209446E3,1.7678423E3,1.5261041E3,2.2159922E3,3.162276E3,9.424353E2,1.1505181E3,6.179487E2,2.7614355E2,8.8825684E2,1.2523268E3,5.762119E2,5.9596643E2,2.6817926E2,8.500791E2,4.637024E2,1.604209E3,1.9727871E3,1.6603457E3,1.3299688E3,4.0952026E2,4.5183704E2,0E0,0E0,0E0,0E0,0E0,0E0,0E0,0E0,0E0,0E0,0E0,0E0,0E0,0E0,0E0,0E0,0E0,0E0,0E0,0E0,0E0,0E0,0E0,0E0,0E0,0E0,0E0,0E0,0E0,0E0,0E0,0E0],"parents":[2147483647,0,0,1,1,2,2,3,3,4,4,5,5,6,6,7,7,8,8,9,9,10,10,11,11,12,12,13,13,14,14,15,15,16,16,17,17,18,18,19,19,20,20,21,21,22,22,23,23,24,24,25,25,26,26,27,27,28,28,29,29,30,30],"right_children":[2,4,6,8,10,12,14,16,18,20,22,24,26,28,30,32,34,36,38,40,42,44,46,48,50,52,54,56,58,60,62,-1,-1,-1,-1,-1,-1,-1,-1,-1,-1,-1,-1,-1,-1,-1,-1,-1,-1,-1,-1,-1,-1,-1,-1,-1,-1,-1,-1,-1,-1,-1,-1],"split_conditions":[4.815E-2,4.5499997E-3,4.966091E0,1.55E1,2.45E1,2.5E0,1.95E1,1.25E1,2.15E1,1.15E1,2.45E1,3.02E0,1.05E1,3.795E0,1.95E1,5.5E0,7.5E0,2.15E1,3.385E0,8.5E0,1.65E1,1.95E1,3.05E1,2.1805E-1,2.95E1,1.25E1,2.95E1,3.5E0,1.45E1,2.85E1,2.75E1,-1.1214223E-2,-2.7040545E-2,9.757996E-3,-7.166384E-3,-3.129802E-2,-4.2485327E-2,-2.010692E-2,2.8831747E-3,-9.61792E-3,5.8092307E-3,-1.8007787E-2,-7.8468835E-3,2.177653E-2,5.003534E-3,-1.5568923E-2,-1.1502586E-3,8.865182E-4,1.9596513E-2,-1.8234493E-2,2.1066756E-3,1.898258E-2,3.47965E-2,1.1112295E-2,3.591915E-2,-4.630665E-3,1.3845764E-2,-4.597216E-3,-2.1071743E-2,2.1641742E-2,4.785564E-2,-3.6751179E-3,2.1120949E-2],"split_indices":[9,9,28,21,20,5,20,20,20,21,21,8,21,8,21,21,21,21,8,20,20,23,20,9,20,20,20,5,21,20,20,0,0,0,0,0,0,0,0,0,0,0,0,0,0,0,0,0,0,0,0,0,0,0,0,0,0,0,0,0,0,0,0],"split_type":[0,0,0,0,0,0,0,0,0,0,0,0,0,0,0,0,0,0,0,0,0,0,0,0,0,0,0,0,0,0,0,0,0,0,0,0,0,0,0,0,0,0,0,0,0,0,0,0,0,0,0,0,0,0,0,0,0,0,0,0,0,0,0],"sum_hessian":[2.9523728E6,1.3322229E6,1.6201499E6,6.3913394E5,6.9308894E5,9.47541E5,6.726089E5,3.8333044E5,2.5580348E5,5.250648E5,1.6802412E5,2.137013E5,7.338397E5,5.6507256E5,1.0753627E5,2.3091844E5,1.5241202E5,1.1804434E5,1.3775914E5,2.5473872E5,2.7032612E5,1.0256739E5,6.5456727E4,1.4097308E5,7.272823E4,3.1554825E5,4.1829144E5,2.6143978E5,3.036328E5,6.5459723E4,4.2076555E4,9.3185836E4,1.377326E5,3.3441094E4,1.1897092E5,7.721669E4,4.0827656E4,1.1296024E5,2.4798902E4,1.2936511E5,1.253736E5,1.3881711E5,1.3150902E5,5.029486E4,5.227253E4,3.976181E4,2.569492E4,9.923012E4,4.1742957E4,5.4698207E4,1.803002E4,1.7776123E5,1.3778702E5,3.7502678E5,4.326466E4,8.946444E4,1.7197534E5,2.2284544E5,8.078736E4,5.720849E4,8.251234E3,2.931389E4,1.2762662E4],"tree_param":{"num_deleted":"0","num_feature":"32","num_nodes":"63","size_leaf_vector":"0"}},{"base_weights":[7.4147305E-4,-9.639313E-2,8.373645E-2,-1.5729378E-1,-3.8322918E-2,1.2627757E-1,6.559883E-3,-1.9245161E-1,-9.813105E-2,-8.094558E-2,6.28164E-3,-5.7004403E-2,1.5303163E-1,3.110944E-2,-1.4714493E-1,-2.1843994E-1,-7.372873E-2,-6.251665E-2,-1.4906628E-1,5.595917E-3,-1.2366112E-1,6.7059375E-2,-7.389909E-2,-1.076838E-1,2.1852102E-2,1.0956502E-1,2.237363E-1,-2.4199732E-2,8.732353E-2,-2.0469253E-1,-4.1712217E-2,-1.5587388E-1,-2.5763124E-1,-5.3448293E-2,-3.4854054E-1,-1.3810316E-1,-1.6893083E-2,-2.0142359E-1,-2.6971491E-2,-6.114675E-2,1.0196781E-1,-1.8838347E-1,-9.214826E-2,1.11921184E-1,-1.779828E-2,-1.1508925E-1,1.8277766E-2,-7.465899E-2,-3.156826E-1,9.0386786E-2,-6.549657E-2,7.635E-2,2.1011937E-1,3.0587476E-1,1.7764747E-1,7.460959E-2,-6.703427E-2,2.14948E-1,4.933991E-2,-2.3404047E-1,-3.1279124E-2,-1.886737E-1,4.463191E-2],"categories":[],"categories_nodes":[],"categories_segments":[],"categories_sizes":[],"default_left":[1,1,1,1,1,1,1,1,1,1,1,1,1,1,1,1,1,1,1,1,1,1,1,1,1,1,1,1,1,1,1,0,0,0,0,0,0,0,0,0,0,0,0,0,0,0,0,0,0,0,0,0,0,0,0,0,0,0,0,0,0,0,0],"id":21,"left_children":[1,3,5,7,9,11,13,15,17,19,21,23,25,27,29,31,33,35,37,39,41,43,45,47,49,51,53,55,57,59,61,-1,-1,-1,-1,-1,-1,-1,-1,-1,-1,-1,-1,-1,-1,-1,-1,-1,-1,-1,-1,-1,-1,-1,-1,-1,-1,-1,-1,-1,-1,-1,-1],"loss_changes":[2.3709754E4,4.792287E3,5.206963E3,1.3757666E3,1.3187734E3,5.0133467E3,2.1265408E3,1.2800547E3,4.472339E2,1.3112573E3,1.6517935E3,5.204593E2,2.7418477E3,1.5108892E3,4.709131E2,8.345654E2,4.152404E2,5.0036792E2,6.4852734E2,7.5399805E2,4.8436694E2,7.33988E2,5.548961E2,5.445609E2,3.0502774E2,1.8453027E3,1.2857754E3,1.0367279E3,1.168283E3,2.5552393E2,3.4778027E2,0E0,0E0,0E0,0E0,0E0,0E0,0E0,0E0,0E0,0E0,0E0,0E0,0E0,0E0,0E0,0E0,0E0,0E0,0E0,0E0,0E0,0E0,0E0,0E0,0E0,0E0,0E0,0E0,0E0,0E0,0E0,0E0],"parents":[2147483647,0,0,1,1,2,2,3,3,4,4,5,5,6,6,7,7,8,8,9,9,10,10,11,11,12,12,13,13,14,14,15,15,16,16,17,17,18,18,19,19,20,20,21,21,22,22,23,23,24,24,25,25,26,26,27,27,28,28,29,29,30,30],"right_children":[2,4,6,8,10,12,14,16,18,20,22,24,26,28,30,32,34,36,38,40,42,44,46,48,50,52,54,56,58,60,62,-1,-1,-1,-1,-1,-1,-1,-1,-1,-1,-1,-1,-1,-1,-1,-1,-1,-1,-1,-1,-1,-1,-1,-1,-1,-1,-1,-1,-1,-1,-1,-1],"split_conditions":[5.085E-2,5.55E-3,5.0660386E0,5E-1,1.65E1,3.25E0,5.811066E0,5E-1,1.55E1,6.5E0,2.05E1,2.55E1,3.5E0,5.455E0,6.085E0,1.05E1,5.4833436E0,7.5E0,2.65E1,6.5E0,7.5E0,1.95E1,2.95E1,2.35E1,2.65E1,5E-1,3.28E0,6.5E0,3.35E0,1.25E1,2.5E0,-1.7146127E-2,-2.8339436E-2,-5.8793123E-3,-3.833946E-2,-1.5191347E-2,-1.8582392E-3,-2.2156594E-2,-2.966864E-3,-6.7261425E-3,1.1216459E-2,-2.0722182E-2,-1.0136308E-2,1.231133E-2,-1.9578107E-3,-1.2659818E-2,2.0105543E-3,-8.212489E-3,-3.4725085E-2,9.9425465E-3,-7.204623E-3,8.3985E-3,2.311313E-2,3.3646222E-2,1.9541223E-2,8.207055E-3,-7.3737693E-3,2.364428E-2,5.42739E-3,-2.5744451E-2,-3.4407037E-3,-2.0754108E-2,4.9095103E-3],"split_indices":[9,9,28,19,20,6,28,11,21,21,23,20,5,10,10,21,28,20,20,20,20,21,20,21,21,11,8,21,8,20,20,0,0,0,0,0,0,0,0,0,0,0,0,0,0,0,0,0,0,0,0,0,0,0,0,0,0,0,0,0,0,0,0],"split_type":[0,0,0,0,0,0,0,0,0,0,0,0,0,0,0,0,0,0,0,0,0,0,0,0,0,0,0,0,0,0,0,0,0,0,0,0,0,0,0,0,0,0,0,0,0,0,0,0,0,0,0,0,0,0,0,0,0,0,0,0,0,0,0],"sum_hessian":[2.9410402E6,1.3550886E6,1.5859516E6,6.6142406E5,6.936646E5,1.02239075E6,5.6356094E5,4.1487794E5,2.4654612E5,3.5471228E5,3.3895234E5,1.3023042E5,8.921603E5,4.8594684E5,7.761408E4,3.4037034E5,7.4507586E4,1.4509589E5,1.01450234E5,1.1722196E5,2.3749031E5,1.9280473E5,1.4614761E5,7.927908E4,5.0951348E4,5.525039E5,3.3965644E5,2.4494522E5,2.4100161E5,5.0208293E4,2.7405785E4,1.3109378E5,2.0927658E5,6.938811E4,5.119478E3,5.461345E4,9.0482445E4,7.10021E4,3.0448133E4,6.925769E4,4.7964273E4,7.7766164E4,1.5972414E5,1.2612549E5,6.667924E4,1.0101001E5,4.5137598E4,6.841751E4,1.0861568E4,2.8550383E4,2.2400965E4,4.153182E5,1.3718572E5,1.2208096E5,2.1757545E5,7.407369E4,1.7087153E5,5.5274695E4,1.857269E5,4.294078E4,7.2675117E3,1.0142175E4,1.7263611E4],"tree_param":{"num_deleted":"0","num_feature":"32","num_nodes":"63","size_leaf_vector":"0"}},{"base_weights":[1.2255146E-3,-8.493374E-2,8.65964E-2,-1.4413533E-1,-2.693469E-2,1.09333046E-1,-6.915744E-2,-2.4645959E-1,-1.2208051E-1,-7.748449E-2,9.9652745E-3,-5.458108E-2,1.282559E-1,-3.6086965E-2,-2.0431215E-1,-1.4116523E-1,-3.196214E-1,-2.8558865E-2,-1.6186537E-1,2.7761744E-2,-1.1148207E-1,6.277043E-2,-6.374879E-2,-1.08836606E-1,3.9193895E-2,9.691244E-2,2.0144776E-1,-7.10034E-2,1.1435756E-1,-2.8770804E-1,-1.21969976E-1,-5.2079126E-2,-2.6747143E-1,-3.689498E-1,-2.3964308E-1,-7.47283E-2,4.6691023E-2,-2.3906946E-1,-1.0897267E-1,9.1536134E-2,-1.02191135E-1,-8.628014E-2,-2.0152871E-1,2.6415356E-2,1.6633964E-1,-1.0964763E-1,2.1022374E-2,-6.3417524E-2,-2.659384E-1,1.6233625E-1,-7.0116958E-3,1.6511141E-1,2.805669E-2,2.833151E-1,1.05017476E-1,-8.811012E-2,1.4035064E-1,9.7865246E-2,4.435214E-1,-3.1651896E-1,1.6756905E-2,-2.3426108E-1,-4.702039E-2],"categories":[],"categories_nodes":[],"categories_segments":[],"categories_sizes":[],"default_left":[1,1,1,1,1,1,1,1,1,1,1,1,1,1,1,1,1,1,1,1,1,1,1,1,1,1,1,1,1,1,1,0,0,0,0,0,0,0,0,0,0,0,0,0,0,0,0,0,0,0,0,0,0,0,0,0,0,0,0,0,0,0,0],"id":22,"left_children":[1,3,5,7,9,11,13,15,17,19,21,23,25,27,29,31,33,35,37,39,41,43,45,47,49,51,53,55,57,59,61,-1,-1,-1,-1,-1,-1,-1,-1,-1,-1,-1,-1,-1,-1,-1,-1,-1,-1,-1,-1,-1,-1,-1,-1,-1,-1,-1,-1,-1,-1,-1,-1],"loss_changes":[2.155408E4,5.0077314E3,5.2124883E3,1.6287393E3,1.3741587E3,3.9838857E3,8.380305E2,9.8582666E2,2.2092236E3,1.1122806E3,1.6576036E3,6.763348E2,2.6415703E3,7.913097E2,2.5307288E2,5.903678E2,2.9781006E2,6.156628E2,1.7009854E3,6.290339E2,5.3318384E2,9.342032E2,6.915527E2,6.008588E2,2.7722415E2,3.7859404E3,2.7255713E3,4.420644E2,1.5400134E2,1.6063123E2,1.5609387E2,0E0,0E0,0E0,0E0,0E0,0E0,0E0,0E0,0E0,0E0,0E0,0E0,0E0,0E0,0E0,0E0,0E0,0E0,0E0,0E0,0E0,0E0,0E0,0E0,0E0,0E0,0E0,0E0,0E0,0E0,0E0,0E0],"parents":[2147483647,0,0,1,1,2,2,3,3,4,4,5,5,6,6,7,7,8,8,9,9,10,10,11,11,12,12,13,13,14,14,15,15,16,16,17,17,18,18,19,19,20,20,21,21,22,22,23,23,24,24,25,25,26,26,27,27,28,28,29,29,30,30],"right_children":[2,4,6,8,10,12,14,16,18,20,22,24,26,28,30,32,34,36,38,40,42,44,46,48,50,52,54,56,58,60,62,-1,-1,-1,-1,-1,-1,-1,-1,-1,-1,-1,-1,-1,-1,-1,-1,-1,-1,-1,-1,-1,-1,-1,-1,-1,-1,-1,-1,-1,-1,-1,-1],"split_conditions":[6.195E-2,8.15E-3,5.517152E0,5.5E0,1.35E1,3.25E0,6.000932E0,4.5E0,1.05E1,4.5E0,1.95E1,2.55E1,2.05E1,6.0150003E0,6.005E0,5.326492E0,5E-1,1.35E1,1.85E1,5.428578E0,1.55E1,2.45E1,2.85E1,2.05E1,3.5E0,9.5E0,1.95E1,2.15E1,2.25E1,7.0736933E0,2.45E1,-5.728704E-3,-2.9421857E-2,-4.058448E-2,-2.6360739E-2,-8.220113E-3,5.1360126E-3,-2.629764E-2,-1.1986993E-2,1.0068974E-2,-1.1241024E-2,-9.490815E-3,-2.2168158E-2,2.9056892E-3,1.829736E-2,-1.2061239E-2,2.3124611E-3,-6.9759274E-3,-2.9253224E-2,1.7856987E-2,-7.7128655E-4,1.8162254E-2,3.0862358E-3,3.116466E-2,1.1551922E-2,-9.692113E-3,1.5438571E-2,1.0765177E-2,4.8787355E-2,-3.4817085E-2,1.8432596E-3,-2.576872E-2,-5.172243E-3],"split_indices":[9,9,28,20,20,6,28,21,21,21,21,20,20,10,10,28,19,20,20,28,21,20,20,21,14,21,21,20,20,28,14,0,0,0,0,0,0,0,0,0,0,0,0,0,0,0,0,0,0,0,0,0,0,0,0,0,0,0,0,0,0,0,0],"split_type":[0,0,0,0,0,0,0,0,0,0,0,0,0,0,0,0,0,0,0,0,0,0,0,0,0,0,0,0,0,0,0,0,0,0,0,0,0,0,0,0,0,0,0,0,0,0,0,0,0,0,0,0,0,0,0,0,0,0,0,0,0,0,0],"sum_hessian":[2.9303365E6,1.4584341E6,1.4719022E6,7.217342E5,7.3669994E5,1.2844072E6,1.8749503E5,1.2797562E5,5.9375856E5,3.108546E5,4.2584534E5,1.3293053E5,1.1514768E6,1.5063742E5,3.6857605E4,5.2467465E4,7.550816E4,1.7720564E5,4.165529E5,7.5897875E4,2.3495672E5,2.4811094E5,1.777344E5,8.420928E4,4.872125E4,8.0622406E5,3.4525262E5,1.2226229E5,2.8375133E4,1.8310398E4,1.8547207E4,3.0767791E4,2.1699674E4,4.67008E4,2.8807355E4,1.09823586E5,6.738206E4,1.6935406E5,2.4719884E5,5.091274E4,2.4985135E4,1.835792E5,5.1377527E4,1.8364777E5,6.4463164E4,1.1530365E5,6.2430758E4,6.5324867E4,1.8884412E4,1.3292621E4,3.542863E4,4.0504312E5,4.0118097E5,1.8672498E5,1.5852764E5,1.13108055E5,9.154234E3,2.7022504E4,1.352629E3,1.6727473E4,1.582927E3,7.423313E3,1.1123895E4],"tree_param":{"num_deleted":"0","num_feature":"32","num_nodes":"63","size_leaf_vector":"0"}},{"base_weights":[4.1344255E-4,-8.290047E-2,8.307456E-2,-1.5272383E-1,-3.6127888E-2,2.1702014E-1,5.6763295E-2,-1.7387222E-1,-4.8017114E-2,-6.2374994E-2,3.441036E-2,1.657885E-1,3.0774134E-1,-1.7973494E-2,1.1240175E-1,-9.72975E-2,-2.0055707E-1,-3.0561022E-2,-1.9727723E-1,-2.6632696E-2,-1.2948611E-1,1.0940876E-1,-6.807411E-2,1.2720414E-1,2.95823E-1,1.7290953E-1,3.5695574E-1,4.0319424E-2,-1.482021E-1,1.7010885E-1,6.4409487E-3,-2.056534E-1,-3.0259835E-2,-2.8125426E-1,-1.4794181E-1,5.795125E-3,-1.3367008E-1,-2.5000045E-1,3.2657046E-2,-9.714597E-2,2.0969579E-2,-9.162833E-2,-1.8208826E-1,1.6558977E-2,1.6297533E-1,-9.797838E-2,3.885409E-2,9.8082535E-2,2.5835273E-1,2.398932E-1,3.7082472E-1,9.757859E-2,2.6262298E-1,3.0382577E-1,4.138633E-1,-6.854873E-2,1.0246202E-1,-1.12203754E-1,-3.1071666E-1,1.3714778E-1,2.9640517E-1,-5.7766497E-2,1.1820006E-1],"categories":[],"categories_nodes":[],"categories_segments":[],"categories_sizes":[],"default_left":[1,1,1,1,1,1,1,1,1,1,1,1,1,1,1,1,1,1,1,1,1,1,1,1,1,1,1,1,1,1,1,0,0,0,0,0,0,0,0,0,0,0,0,0,0,0,0,0,0,0,0,0,0,0,0,0,0,0,0,0,0,0,0],"id":23,"left_children":[1,3,5,7,9,11,13,15,17,19,21,23,25,27,29,31,33,35,37,39,41,43,45,47,49,51,53,55,57,59,61,-1,-1,-1,-1,-1,-1,-1,-1,-1,-1,-1,-1,-1,-1,-1,-1,-1,-1,-1,-1,-1,-1,-1,-1,-1,-1,-1,-1,-1,-1,-1,-1],"loss_changes":[2.0075525E4,4.7413066E3,5.1569385E3,1.289625E3,1.609649E3,1.116541E3,5.085631E3,9.900547E2,2.5498087E2,1.5199026E3,1.8122134E3,7.703125E2,5.7527246E2,3.962221E3,4.286955E3,9.095513E2,1.5255615E3,3.2845398E2,1.2422888E2,1.3877655E3,4.3847534E2,6.771317E2,3.185858E2,4.5220105E2,1.4728784E2,1.5667407E2,1.9191992E2,2.4392354E3,9.44126E2,1.8894658E3,1.7738306E3,0E0,0E0,0E0,0E0,0E0,0E0,0E0,0E0,0E0,0E0,0E0,0E0,0E0,0E0,0E0,0E0,0E0,0E0,0E0,0E0,0E0,0E0,0E0,0E0,0E0,0E0,0E0,0E0,0E0,0E0,0E0,0E0],"parents":[2147483647,0,0,1,1,2,2,3,3,4,4,5,5,6,6,7,7,8,8,9,9,10,10,11,11,12,12,13,13,14,14,15,15,16,16,17,17,18,18,19,19,20,20,21,21,22,22,23,23,24,24,25,25,26,26,27,27,28,28,29,29,30,30],"right_children":[2,4,6,8,10,12,14,16,18,20,22,24,26,28,30,32,34,36,38,40,42,44,46,48,50,52,54,56,58,60,62,-1,-1,-1,-1,-1,-1,-1,-1,-1,-1,-1,-1,-1,-1,-1,-1,-1,-1,-1,-1,-1,-1,-1,-1,-1,-1,-1,-1,-1,-1,-1,-1],"split_conditions":[6.215E-2,2.95E-3,2.1399999E0,5E-1,2.35E1,2.0455E-1,1.25E1,7.5E0,5.4072165E0,1.45E1,2.35E1,2.45E1,7.5E0,1.05E1,1.95E1,4.5E0,1.45E1,1.95E1,2.45E1,7.5E0,1.65E1,3.75E0,3.15E1,5E-1,3.5E0,6.5E0,3.6725E-1,4.5E0,1.85E1,2.45E1,2.75E1,-2.2621874E-2,-3.3285818E-3,-3.0937968E-2,-1.62736E-2,6.3746376E-4,-1.4703709E-2,-2.7500048E-2,3.592275E-3,-1.0686057E-2,2.3066537E-3,-1.0079116E-2,-2.0029709E-2,1.8214874E-3,1.7927285E-2,-1.0777622E-2,4.2739497E-3,1.0789079E-2,2.84188E-2,2.6388252E-2,4.0790718E-2,1.0733645E-2,2.8888527E-2,3.3420835E-2,4.5524962E-2,-7.5403606E-3,1.1270823E-2,-1.2342413E-2,-3.417883E-2,1.5086256E-2,3.2604568E-2,-6.3543147E-3,1.3002007E-2],"split_indices":[9,9,8,11,20,9,20,21,28,21,21,22,22,21,21,20,20,21,22,20,23,6,20,11,5,20,9,20,23,20,20,0,0,0,0,0,0,0,0,0,0,0,0,0,0,0,0,0,0,0,0,0,0,0,0,0,0,0,0,0,0,0,0],"split_type":[0,0,0,0,0,0,0,0,0,0,0,0,0,0,0,0,0,0,0,0,0,0,0,0,0,0,0,0,0,0,0,0,0,0,0,0,0,0,0,0,0,0,0,0,0,0,0,0,0,0,0,0,0,0,0,0,0,0,0,0,0,0,0],"sum_hessian":[2.915062E6,1.4517982E6,1.4632636E6,5.8238956E5,8.6940875E5,2.4024011E5,1.2230235E6,4.8452562E5,9.786391E4,6.3363494E5,2.3577384E5,1.5353781E5,8.67023E4,5.2193325E5,7.0109025E5,1.2521467E5,3.5931094E5,8.76181E4,1.0245804E4,4.1344316E5,2.2019177E5,1.3614358E5,9.963027E4,1.18405914E5,3.51319E4,2.3185604E4,6.3516695E4,3.6054625E5,1.6138698E5,4.5389484E5,2.471954E5,4.785786E4,7.735681E4,1.4180977E5,2.1750119E5,6.477829E4,2.2839814E4,8.334615E3,1.9111885E3,1.6662316E5,2.4682E5,1.28042375E5,9.21494E4,4.980874E4,8.6334836E4,7.7856484E4,2.1773793E4,9.689262E4,2.1513297E4,2.012706E4,1.5004837E4,1.2604172E4,1.0581432E4,3.285189E4,3.0664805E4,1.3101676E5,2.295295E5,1.3212244E5,2.9264555E4,3.599551E5,9.393976E4,1.5699797E5,9.019743E4],"tree_param":{"num_deleted":"0","num_feature":"32","num_nodes":"63","size_leaf_vector":"0"}},{"base_weights":[-8.836666E-4,-9.069595E-2,6.99867E-2,-1.4224963E-1,-3.7894573E-2,3.410546E-2,1.5438007E-1,-2.1572097E-1,-1.17332324E-1,-6.306194E-2,3.093748E-2,1.4513801E-1,2.2609616E-3,2.1342517E-1,7.443256E-2,-2.2968201E-1,-4.6046294E-2,-1.6001585E-1,-3.7101366E-2,-9.829196E-2,-2.0728197E-2,7.420035E-2,-4.401147E-2,8.8565245E-2,2.4539301E-1,-1.088031E-1,2.9105755E-2,1.3908984E-1,2.88189E-1,2.9926482E-3,1.270022E-1,-1.8087095E-1,-3.0142257E-1,-3.480076E-2,-7.880453E-1,-1.0690036E-1,-2.1055104E-1,-6.745297E-2,6.958429E-2,-1.1109535E-1,3.8816962E-2,6.446506E-2,-8.314965E-2,2.845769E-2,1.3098441E-1,-1.0493048E-1,-7.5440113E-3,-6.653563E-2,1.0866308E-1,1.5013178E-1,3.143095E-1,-5.1245324E-2,-1.6513605E-1,-7.49499E-2,6.827289E-2,2.1103165E-1,8.372746E-2,3.2051125E-1,1.9408324E-1,4.890811E-2,-2.1198972E-1,2.0238402E-1,5.614477E-2],"categories":[],"categories_nodes":[],"categories_segments":[],"categories_sizes":[],"default_left":[1,1,1,1,1,1,1,1,1,1,1,1,1,1,1,1,1,1,1,1,1,1,1,1,1,1,1,1,1,1,1,0,0,0,0,0,0,0,0,0,0,0,0,0,0,0,0,0,0,0,0,0,0,0,0,0,0,0,0,0,0,0,0],"id":24,"left_children":[1,3,5,7,9,11,13,15,17,19,21,23,25,27,29,31,33,35,37,39,41,43,45,47,49,51,53,